file_name	dim_0	dim_1	dim_2	dim_3	dim_4	dim_5	dim_6	dim_7	dim_8	dim_9	dim_10	dim_11	dim_12	dim_13	dim_14	dim_15	dim_16	dim_17	dim_18	dim_19	dim_20	dim_21	dim_22	dim_23	dim_24	dim_25	dim_26	dim_27	dim_28	dim_29	dim_30	dim_31	dim_32	dim_33	dim_34	dim_35	dim_36	dim_37	dim_38	dim_39	dim_40	dim_41	dim_42	dim_43	dim_44	dim_45	dim_46	dim_47	dim_48	dim_49	dim_50	dim_51	dim_52	dim_53	dim_54	dim_55	dim_56	dim_57	dim_58	dim_59	dim_60	dim_61	dim_62	dim_63	dim_64	dim_65	dim_66	dim_67	dim_68	dim_69	dim_70	dim_71	dim_72	dim_73	dim_74	dim_75	dim_76	dim_77	dim_78	dim_79	dim_80	dim_81	dim_82	dim_83	dim_84	dim_85	dim_86	dim_87	dim_88	dim_89	dim_90	dim_91	dim_92	dim_93	dim_94	dim_95	dim_96	dim_97	dim_98	dim_99	dim_100	dim_101	dim_102	dim_103	dim_104	dim_105	dim_106	dim_107	dim_108	dim_109	dim_110	dim_111	dim_112	dim_113	dim_114	dim_115	dim_116	dim_117	dim_118	dim_119	dim_120	dim_121	dim_122	dim_123	dim_124	dim_125	dim_126	dim_127	dim_128	dim_129	dim_130	dim_131	dim_132	dim_133	dim_134	dim_135	dim_136	dim_137	dim_138	dim_139	dim_140	dim_141	dim_142	dim_143	dim_144	dim_145	dim_146	dim_147	dim_148	dim_149	dim_150	dim_151	dim_152	dim_153	dim_154	dim_155	dim_156	dim_157	dim_158	dim_159	dim_160	dim_161	dim_162	dim_163	dim_164	dim_165	dim_166	dim_167	dim_168	dim_169	dim_170	dim_171	dim_172	dim_173	dim_174	dim_175	dim_176	dim_177	dim_178	dim_179	dim_180	dim_181	dim_182	dim_183	dim_184	dim_185	dim_186	dim_187	dim_188	dim_189	dim_190	dim_191	dim_192	dim_193	dim_194	dim_195	dim_196	dim_197	dim_198	dim_199	dim_200	dim_201	dim_202	dim_203	dim_204	dim_205	dim_206	dim_207	dim_208	dim_209	dim_210	dim_211	dim_212	dim_213	dim_214	dim_215	dim_216	dim_217	dim_218	dim_219	dim_220	dim_221	dim_222	dim_223	dim_224	dim_225	dim_226	dim_227	dim_228	dim_229	dim_230	dim_231	dim_232	dim_233	dim_234	dim_235	dim_236	dim_237	dim_238	dim_239	dim_240	dim_241	dim_242	dim_243	dim_244	dim_245	dim_246	dim_247	dim_248	dim_249	dim_250	dim_251	dim_252	dim_253	dim_254	dim_255	dim_256	dim_257	dim_258	dim_259	dim_260	dim_261	dim_262	dim_263	dim_264	dim_265	dim_266	dim_267	dim_268	dim_269	dim_270	dim_271	dim_272	dim_273	dim_274	dim_275	dim_276	dim_277	dim_278	dim_279	dim_280	dim_281	dim_282	dim_283	dim_284	dim_285	dim_286	dim_287	dim_288	dim_289	dim_290	dim_291	dim_292	dim_293	dim_294	dim_295	dim_296	dim_297	dim_298	dim_299	dim_300	dim_301	dim_302	dim_303	dim_304	dim_305	dim_306	dim_307	dim_308	dim_309	dim_310	dim_311	dim_312	dim_313	dim_314	dim_315	dim_316	dim_317	dim_318	dim_319	dim_320	dim_321	dim_322	dim_323	dim_324	dim_325	dim_326	dim_327	dim_328	dim_329	dim_330	dim_331	dim_332	dim_333	dim_334	dim_335	dim_336	dim_337	dim_338	dim_339	dim_340	dim_341	dim_342	dim_343	dim_344	dim_345	dim_346	dim_347	dim_348	dim_349	dim_350	dim_351	dim_352	dim_353	dim_354	dim_355	dim_356	dim_357	dim_358	dim_359	dim_360	dim_361	dim_362	dim_363	dim_364	dim_365	dim_366	dim_367	dim_368	dim_369	dim_370	dim_371	dim_372	dim_373	dim_374	dim_375	dim_376	dim_377	dim_378	dim_379	dim_380	dim_381	dim_382	dim_383	dim_384	dim_385	dim_386	dim_387	dim_388	dim_389	dim_390	dim_391	dim_392	dim_393	dim_394	dim_395	dim_396	dim_397	dim_398	dim_399	dim_400	dim_401	dim_402	dim_403	dim_404	dim_405	dim_406	dim_407	dim_408	dim_409	dim_410	dim_411	dim_412	dim_413	dim_414	dim_415	dim_416	dim_417	dim_418	dim_419	dim_420	dim_421	dim_422	dim_423	dim_424	dim_425	dim_426	dim_427	dim_428	dim_429	dim_430	dim_431	dim_432	dim_433	dim_434	dim_435	dim_436	dim_437	dim_438	dim_439	dim_440	dim_441	dim_442	dim_443	dim_444	dim_445	dim_446	dim_447	dim_448	dim_449	dim_450	dim_451	dim_452	dim_453	dim_454	dim_455	dim_456	dim_457	dim_458	dim_459	dim_460	dim_461	dim_462	dim_463	dim_464	dim_465	dim_466	dim_467	dim_468	dim_469	dim_470	dim_471	dim_472	dim_473	dim_474	dim_475	dim_476	dim_477	dim_478	dim_479	dim_480	dim_481	dim_482	dim_483	dim_484	dim_485	dim_486	dim_487	dim_488	dim_489	dim_490	dim_491	dim_492	dim_493	dim_494	dim_495	dim_496	dim_497	dim_498	dim_499	dim_500	dim_501	dim_502	dim_503	dim_504	dim_505	dim_506	dim_507	dim_508	dim_509	dim_510	dim_511
rule-mark_p_0_sw_1_0_s_1_0_cc_2_query.txt	-0.008005424	0.0062933117	0.009682256	0.040194355	0.006180307	-0.04335659	0.020194015	0.0003782513	0.0076111546	-0.022118451	-0.03387657	-0.06081	-0.01550681	-0.04579716	0.013070393	-0.056447443	-0.023053065	-0.035834525	-0.014754314	-0.0008435639	0.037853695	-0.049977552	0.018532518	0.052532963	-0.029812964	-0.04775164	0.022219038	-0.0019874314	-0.036463007	-0.016513389	0.033293318	-0.016838662	0.023217151	0.0004072657	-0.0013527529	-0.031103889	-0.043787044	-0.004292567	0.04628742	0.018250152	0.012859982	-0.03789361	-0.01207946	0.067703895	-0.033280354	-0.005572214	-0.04095578	0.00047453577	0.0097025465	-0.0071888934	0.006493164	-0.021904068	-0.011322483	-0.038123354	-0.045832135	-0.06970144	-0.013381794	0.0022670175	0.07383415	0.048963856	0.00014266784	0.014490743	0.049353424	0.0006536946	0.033292588	0.009224284	0.009283495	-0.06336627	-0.016810637	-0.014967454	-0.014243318	-0.0054231063	-0.012251802	0.04318897	0.0019252703	0.0758991	-0.036969315	-0.034944072	-0.024319524	-0.0322226	0.040291388	-0.008451151	-0.06705309	-0.030377671	0.07106985	-0.05334168	-0.05854297	0.022816243	0.026859596	0.03233139	0.04929293	-0.050301995	0.00643678	-0.051029593	-0.052397747	-0.03673918	-0.01993467	0.019686429	0.299872	0.0017136068	-0.033685848	0.0039147967	0.007727713	0.07071247	0.039346557	-0.0072615487	0.030413765	0.020945335	0.008108541	0.013561879	-0.050786458	-0.06590629	0.07115394	0.027730916	0.021938702	-0.01393042	0.07400352	-0.006778596	-0.005731001	0.015858738	-0.038138315	0.03706418	0.03169978	0.040294454	-0.015549851	-0.020850101	0.024340896	-0.019409372	0.036820866	-0.14374124	-0.033518735	-0.044340707	0.015109088	0.015332537	-0.10045365	-0.011994929	-0.020634076	-0.029698206	-0.028636588	-0.036447246	0.009711572	0.033521198	0.051918108	-0.019025857	-0.022247123	-0.05371202	0.010988003	-0.023081627	0.07112411	-0.02082202	0.035628177	0.016803104	0.042711988	-0.06184285	-0.03268505	0.030284403	0.004383803	-0.04238788	0.05319171	-5.969765e-05	-0.007139777	0.0004084997	0.048338987	0.021694299	0.027997222	-0.021645045	-0.02550155	-0.031957373	-0.0013154754	0.017006986	-0.05656428	-0.043806687	-0.0006172325	0.0042581772	-0.033619255	0.011899621	-0.03773837	0.050922237	-0.025836822	0.061244477	0.015047605	-0.04382482	0.09329535	-0.036224123	0.03708439	-0.0025307187	0.03921593	0.0039355806	0.029900601	-0.011058795	-0.040237907	-0.059096318	0.051278017	-0.005701227	-0.006995034	-0.015010094	-0.02965764	0.03711044	-0.021112613	-0.071720906	0.0063639926	-0.020231485	0.025392115	-0.017682042	-0.006684267	0.008037239	-0.082721375	0.04719689	0.0022637355	0.025544692	0.008727687	0.04249182	-0.0079761	0.016598174	-0.063182294	0.011304187	-0.0073867035	-0.011911084	0.0017547184	-0.038219415	0.054988235	-0.010642635	-0.038751666	0.062150244	-0.0034532503	0.00023847663	0.15537605	-0.022723788	-0.0052077835	-0.0049485187	0.042305022	-0.048402373	-0.026507568	0.018870497	-0.026767224	-0.015126814	-0.069878094	0.0035022458	0.023608513	-0.06632461	-0.045079138	0.3552409	0.053884804	0.048560895	-0.015311204	0.045643665	0.031930156	-0.06641269	-0.00050682004	0.14633921	0.038132872	-0.02463988	-0.008788975	-0.046850063	-0.06651524	-0.020875067	-0.011017689	-0.033754524	-0.018655313	-0.0074998774	0.021398472	-0.0030893148	0.021990351	-0.0034455436	-0.19549514	-0.009347898	0.046908993	-0.0074739577	-0.004470746	0.03901235	-0.0012509662	0.019906156	-0.03253015	0.07469941	-0.020737793	-0.00841362	0.0063198344	-0.03203752	-0.027979435	-0.040745456	-0.036853585	-0.05521372	0.0017429985	0.014204756	0.056308404	0.026391365	-0.02509178	0.011093258	0.08424487	-0.035894714	-0.007236049	-0.07709755	0.019812897	-0.034489594	0.015781892	-0.030381698	-0.014333515	0.01437032	0.015681334	0.028851451	-0.053100985	0.012655818	0.021263823	0.022742745	0.010235794	-0.011550788	0.07572926	-0.052121695	-0.0043334914	0.019121693	0.033089895	-0.0020820913	0.014005733	0.042550083	0.025710022	-0.02560631	-0.0056837224	-0.005930003	-0.078150064	0.06203685	0.006744339	0.0033834272	0.0030728704	0.047461268	-0.10095415	0.056044485	-0.02394526	0.006331572	-0.07363494	-0.080519594	0.03518479	0.003637932	-0.025025439	-0.030993968	0.054413192	-0.007780694	0.041722473	0.032767914	0.04840795	0.08002091	-0.027839601	-0.0017290442	0.000467915	0.04046684	0.05783174	-0.030186988	0.02372587	-0.0393545	-0.02942579	-0.015686825	-0.022446357	0.014504381	-0.00875791	-0.007776621	0.017373914	-0.0048366506	0.025732607	-0.06768825	-0.034178477	0.021431671	-0.014147486	-0.05788981	0.043108124	-0.016009271	-0.03311191	-0.05961994	0.033959355	0.051348615	0.05382669	-0.013735371	0.020765897	-0.01426324	0.023064075	-0.0035727378	0.022545656	-0.043694567	0.05358056	-0.076094866	-0.0017389717	-0.017383017	-0.09084081	0.00772857	0.035887446	0.052130338	-0.054615065	-0.022483828	-0.038303733	0.010678667	0.083477594	-0.104515746	-0.04813432	-0.0069131297	0.02797574	0.029865924	-0.070835985	0.06063061	0.038407233	-0.0044605974	-0.045888145	-0.035712257	-0.008700018	-0.024959004	-0.076664284	0.041542865	0.02359044	-0.054692462	0.032700427	-0.025541075	-0.005617462	0.04776562	0.022225613	-0.051975418	-0.015619672	0.004593986	0.024532495	-0.004049626	0.008065582	0.08463265	-0.035821866	-0.010131895	-0.08482997	-0.07832607	0.064725764	0.04317895	0.0050006695	0.09427653	-0.0028971997	-0.005988868	0.02504585	-0.012857459	0.011885749	-0.006082163	0.004241758	0.024781387	-0.052746546	-0.009579663	0.08975631	-0.03868818	-0.047708906	0.015045465	0.034233194	-0.0662024	-0.018026903	-0.0063213003	-0.04041289	0.033354163	-0.025458694	0.01205386	-0.037245013	-0.052847624	-0.012606881	-0.0046809204	0.072149076	0.021641197	-0.029230736	0.008087043	-0.0136841005	-0.0021408987	0.04062562	0.013659571	0.028612282	-0.019164149	-0.014996542	0.010490476	-0.029993221	-0.013946898	-0.026570564	0.030476205	0.04057456	0.0061929403	0.003116944	-0.019073261	0.030390875	-0.0034437138	-0.012572441	-0.00998282	-0.036758844	-0.03982283	-0.030076945	-0.008293815	-0.012396474	-0.042006027	0.039373685	-0.0055713137	0.02878614	0.047214452	0.032558486	0.013645371	0.008641896	0.034633692	0.031186422	-0.018514592	0.090859294	0.0038809765	0.010839859	-0.04877097	-0.0003022255	0.013781643	0.019121407	-0.03653522	0.0058601587	-0.012612397	-0.025182156	-0.018857367	-0.030681556	-0.06962282	-0.014164106	-0.0053048707	0.044553954	0.009262455	-0.0098043075	-0.005242025
EX_SPEC_RESPONSIVE_COMPARATIVE_MATRICES_sw_0_7_s_0_7_p_0_sw_1_0_s_0_7_cc_0_query.txt	-0.009708436	0.0069918744	-0.008761628	0.015818672	0.030364588	0.025822872	0.017241009	0.0005473982	0.028564388	-0.022162737	0.01570062	-0.03621197	0.010240013	0.02218989	0.0041121175	-0.09254735	-0.00059197756	-0.006168238	0.033494007	0.01383881	0.0032634903	0.03773038	0.022794267	0.016388463	-0.010811741	0.03692114	0.009886539	-0.00040475288	-0.03232145	-0.021149913	0.02621772	0.0037564614	-0.008991436	-0.060316455	0.027373876	-0.0080681825	-0.05586151	0.052300733	-0.012696359	0.004256653	-3.9723123e-05	0.002936403	-0.005248717	0.033040233	-0.022242796	-0.023642031	0.04263553	-0.0035160792	0.038492948	-0.05514179	0.0638375	-0.027729806	0.00095093803	-0.011733608	-0.05590641	-0.015597913	0.021357112	0.052630153	0.033415623	0.03263492	0.00793212	-0.044166572	0.035735663	0.02154405	-0.035444643	0.05979082	0.0046353675	-0.018813265	0.020055788	-0.00698457	-0.062313456	0.008533438	0.03588063	-0.028726814	-0.0023769615	0.03621501	-0.0128040025	-0.024047941	-0.040622685	-0.0397639	0.056835815	0.085432276	0.0005070026	-0.020378692	-0.016972376	-0.056136344	-0.0087429555	-0.03478442	-0.0031142973	0.031890113	0.067560524	-0.022503875	0.048735417	-0.04776776	-0.09694527	-0.05505668	0.006019172	0.002087356	0.32369345	0.009321874	-0.034908906	-0.07812184	0.04363805	-0.027314335	0.03619587	-0.0067120213	-0.035164677	-0.01451208	0.03078	0.031206878	-0.123123646	-0.037003577	0.0625578	-0.023558052	-0.02972901	0.013937934	0.009313272	0.045016836	0.03398028	0.013115675	0.018008994	0.027004963	0.02084275	0.0021604921	-0.026657676	-0.036634922	0.010710923	0.014184834	0.03464035	-0.13613324	-0.0131322015	0.011977347	0.031439	0.014490848	-0.072054796	-0.05198685	0.0039056952	-0.024800986	-0.008996175	-0.010987425	0.012697819	-0.0034632739	0.0027423953	0.0837103	-0.004142064	-0.027110247	0.030128885	-0.0017047969	0.010824451	0.00043254523	0.07666591	0.044427056	0.020224623	-0.044510923	-0.0051544914	0.0036365334	0.012002206	-0.07305726	0.04747892	0.056391258	-0.0028259512	0.03371551	0.053946204	0.010076017	0.033165753	-0.039405335	-0.054022565	-0.03475237	0.03559235	0.06738788	0.013895735	0.028675027	-0.02614852	-0.03793701	-0.012980351	-0.018524965	-0.02745021	0.07652255	0.011991958	0.044444256	0.016105883	-0.0049872766	0.032577313	-0.011868006	0.034240082	-0.05218483	0.0030409775	0.01841604	0.023556322	0.015352162	-0.062951125	-0.011710379	0.029015834	0.01903722	0.030935971	-0.02136773	-0.03329792	-0.031501308	-0.027803833	0.011232553	0.0072995746	-0.019955121	-0.01361673	-0.00010581369	-0.013287924	-0.0057875	-0.05079678	-0.025790945	-0.047782008	-0.0005689208	0.008023479	0.064620614	0.006698377	-0.020268874	-0.057382222	0.03371412	0.0050223316	0.038190983	-0.008548512	-0.022174047	-0.01970326	-0.03764077	-0.04712884	0.035453886	-0.029750615	-0.056398883	0.12488188	-0.01649803	0.013645905	0.016994176	-0.056283206	-0.0607604	-0.024123205	0.05049782	-0.0053424174	-0.033028185	-0.09045467	0.02192584	0.057361495	-0.043438092	-0.0069951555	0.38460356	-0.026636308	-0.03867762	-0.021184217	0.017048106	-0.016481463	-0.022494253	-0.018339701	0.12279688	0.021129651	-0.0012089945	0.043166593	-0.03090226	-0.008473842	-0.0026374266	-0.010548273	-0.026028391	0.00908046	0.020954618	0.04058549	-0.0100638205	0.047617454	-0.0057465425	-0.20360242	0.01334936	0.0016727443	-0.048607316	-0.017438322	0.10568135	0.04123992	0.007892783	-0.037433438	0.07692754	-0.07815266	0.016053574	-0.016292388	-0.025492676	0.0016170482	-0.024009125	0.003013004	-0.07893893	0.0009088491	0.03501059	-0.0037310792	0.026134096	0.07812136	-0.0027933146	0.05731764	-0.03257895	-0.009825421	-0.07475505	-0.02083634	-0.021680763	0.0046500238	-0.042809777	-0.046158716	0.009454018	0.0038522382	-0.017255882	-0.04484225	0.009499171	-0.016565405	0.05130285	-0.0056303735	-0.03810338	0.01633437	-0.01165238	0.03471125	0.07640888	0.039361246	-0.0036125204	-0.021272797	0.011574657	0.0054186652	0.0576941	0.013091535	0.015325208	-0.03669975	-0.0042641773	-0.011013728	-0.02068003	0.027449869	-0.018365016	-0.03513346	0.033434596	-0.015250522	-0.020510681	-0.025381895	-0.034029026	0.007070668	-0.044390775	0.008544604	-0.023658823	0.023973618	-0.02469935	0.017106107	0.029081065	-0.018268725	0.059153296	-0.03808734	-0.03218562	-0.03247873	0.006028803	0.078354195	-0.00027804467	-0.00042458795	-0.010361362	-0.05766578	-0.031690355	-0.0035429592	-0.0181829	0.02074297	0.021425435	-0.0037646024	0.023473863	0.06251638	-0.023424642	-0.029018855	0.03061889	-0.005271147	-0.016280392	0.03136429	-0.014056041	-0.007636042	-0.06839004	0.024345523	0.015118555	0.08063514	-0.032228302	-0.037577108	-0.033664916	0.004845847	0.053068385	0.09336939	-0.022121247	-0.038509864	-0.03632024	0.009136257	-0.06335227	-0.072886765	-0.020847343	-0.040989462	0.0007852355	0.021332206	-0.01698202	-0.036854606	0.01424195	0.047526717	-0.07736924	-0.0041868035	-0.032445047	0.021692075	0.053173486	-0.008727909	0.011126436	0.03480101	0.012277641	-0.04198175	0.0076264828	0.0047305366	-0.033333465	-0.061724238	0.018964984	0.042622764	-0.05659046	-0.02877563	-0.019753022	0.034089092	0.015328354	-0.009681951	-0.06132365	-0.03456254	0.04122348	0.017810054	0.03102685	-0.009571426	0.0006021588	-0.0059594274	-0.008717381	-0.030711945	-0.07893401	0.04482649	0.026966631	0.04256214	0.028919829	-0.032360535	0.024964297	-0.029960763	-0.05230725	-0.04120033	0.08184451	-0.021945657	0.0036118072	-0.077166416	0.037651915	0.084284745	-0.003378243	-0.0035928793	0.015724868	0.0017083591	-0.03196032	-0.026827104	0.020489238	-0.062039867	0.01539617	-0.052215956	-0.0040785484	-0.027583152	-0.035959724	-0.1201306	0.008806738	0.06731527	0.043960758	-0.06363531	-0.005320203	0.049284212	0.013595411	-0.02291398	-0.019997973	0.059022035	-0.049720313	-0.04588781	-0.024785746	-0.0396774	0.02523353	-0.041253585	-6.634802e-05	0.025529815	-0.023982294	-0.03913149	-0.023938691	0.041245643	-0.03584206	0.00044860048	0.013422072	0.017038582	0.04876109	0.022255577	-0.009253033	4.2886688e-05	-0.0478737	0.06333964	-0.01962011	0.0642057	-0.015762294	0.0057852	0.032972943	-0.0040083816	-0.00889045	-0.030368825	0.03661925	0.08014105	0.021741271	-0.03432765	-0.05109301	0.024895001	0.006698163	0.04230882	0.014372864	-0.06061036	0.003660636	-0.030434525	0.046976253	-0.046208337	-0.0030909367	-0.013187465	0.02080412	0.026883733	0.018560806	0.033451412	0.023284405
multi_layer_circular_m_2_sw_1_2_s_1_2_oc_query.txt	-0.03068116	-0.06998595	-0.019441428	0.00907901	0.028209848	-0.035388116	0.031749357	-0.056559145	0.02655927	-0.07471913	0.026939938	0.008788134	0.031312414	0.074755654	0.039811622	-0.11643621	0.016684782	-0.0020619219	-0.005765784	0.017356908	0.009421645	0.017375873	-0.018345019	0.010081235	-0.0063173557	-0.06503943	0.01792987	0.03897674	0.036184393	0.020014778	0.007599416	0.031056907	0.07296835	-0.016268842	-0.040153563	-0.089721955	0.011003733	-0.0037016843	-0.013836231	0.03742517	-0.0057564783	-0.029468056	0.018510237	0.034368202	0.0010527204	-0.0042583784	0.023934506	-0.021937463	0.009184632	0.0098442715	-0.045454923	0.009259635	0.013463281	-0.065732725	-0.0011108922	0.006419324	-0.009458197	0.032987382	0.050621934	-0.02078805	0.010623117	0.007383923	0.009224331	-9.064391e-05	0.04717369	0.009682392	-0.025335904	-0.02642398	0.00640487	-0.013438163	-0.058664106	0.01687983	-0.013322175	0.010735261	-0.00784193	0.010512205	0.064286545	-0.018456507	0.07896811	-0.025874937	0.053907447	0.041415807	-0.010344342	0.0027117573	0.04524164	-0.04306848	-0.071749225	-0.028975373	-0.073378354	0.029397376	0.03938187	-0.048499074	0.057655804	-0.03881899	-0.056508344	0.0031944425	0.043438844	0.0135044465	0.34084082	-0.011169881	-0.0045967614	-0.062018618	0.04816713	-0.023420898	0.054718275	0.008834158	0.014376223	-0.004516252	0.02852157	-0.02970756	-0.003529087	-0.022161901	0.03877305	-0.0124631515	0.0640825	0.008877504	0.022344276	0.05010584	0.034432206	-0.015966455	-0.039201275	0.045177367	-0.017336406	0.01518433	-0.009851692	-0.012692462	-0.010465184	0.012935593	-0.018093469	-0.12130909	-0.0094958	-0.017438803	-0.021331586	-0.003712797	-0.049901616	-0.004495985	-0.013350679	-0.04961797	-0.031824425	-0.01972996	0.044687744	-0.065397054	-0.07391933	0.031306386	-0.07682709	-0.047668852	-0.0013479348	-0.0628901	0.060272023	0.052834164	0.020222303	0.050399106	0.010815015	-0.03755684	-0.009206931	0.062943585	0.014080508	-0.031853817	0.026103947	0.003080979	-0.025410172	0.0011268246	0.03681015	0.030551555	0.037544522	0.008787672	-0.05949477	-0.038577873	-0.0101937335	0.04111859	0.060766026	-0.0038678776	-0.032525305	-0.035700597	0.004472535	0.019137038	0.015854584	0.0735691	0.0016441632	0.06083438	0.06463965	0.021340841	0.022875609	-0.009482424	0.02529362	-0.010268917	-0.030968778	-0.005665282	-0.052042406	0.0044172904	-0.026145762	0.0123426765	0.036694076	-0.00865727	0.08517889	0.013506668	-0.04262329	-0.05255018	-0.037105907	-0.03021508	-0.009945499	-0.018040475	-0.038887292	0.019432703	0.010411683	-0.0020935892	-0.024771163	0.0040983693	0.017112771	0.00969896	0.04297935	0.005471325	0.040879864	0.0005412794	-0.07862395	0.010466399	-0.047124404	0.067183726	-0.00086114265	-0.018747587	0.005175105	0.01975787	-0.028379815	0.037778717	-0.006954559	-0.02609796	0.07206941	0.019632114	0.016975397	0.06233694	-0.019041268	-0.05420607	0.036563635	-0.020618895	0.06593387	-0.008016673	-0.058993947	-0.09059419	0.056370728	-0.040728398	0.024469534	0.41987833	-0.021139098	-0.0770241	-0.014771237	0.062204912	-0.046262387	-0.05041728	-0.010281418	0.05111195	-0.034682635	0.023682427	0.025802031	0.02589641	-0.06007429	-0.0065153735	0.041470446	-0.0024367284	-0.043924116	-0.028006453	0.05664076	0.010123738	0.035787206	-0.013039728	-0.20907071	-0.003450308	0.0034559993	0.042648826	0.024574026	0.029054135	0.022436189	0.017752234	-0.051820487	0.013748134	-0.03665668	0.039322667	-0.017868679	-0.053102657	-0.058984134	-0.030860135	-0.052493397	-0.01996025	-0.01115849	0.062391113	0.012387079	0.030753007	0.045696817	0.016859239	0.093755	0.04442181	-0.008147212	-0.043784786	-0.053822313	-0.019063372	0.044452723	-0.03539013	-0.04811195	0.05995115	-0.0008283376	0.018149676	-0.026731605	0.022507476	0.048191108	0.035351936	0.03509921	0.012908994	-0.0031838713	-0.009349512	0.033078022	0.025075033	0.014616377	0.018685116	-0.0072357184	0.006940166	-0.017742619	0.063054495	0.0092477035	-0.01710709	-0.054551847	0.037918255	0.052506242	0.005652933	-0.010457278	0.0064034816	-0.058781177	0.019999411	0.029375825	-0.008426641	-0.021384608	-0.0063409973	-0.020435886	-0.065952614	-0.0039894357	-0.0035830415	0.015678003	0.008592482	-0.028856868	0.029121628	0.004489699	0.04234651	-0.029549958	-0.0062385653	0.004313079	-0.0032434135	0.068452336	-0.026519362	0.00848956	-0.07097084	-0.038710978	-0.011727727	0.020623066	-0.047086675	0.014914611	-0.017974406	0.0010768533	0.047576737	0.026765373	-0.030337209	-0.0883709	-0.010581674	-0.009317099	0.013755856	0.045044623	0.03085402	-0.040145196	-0.05900759	0.029493593	0.016373666	0.034695182	0.024011528	-0.02533338	0.0180496	0.035036854	0.017340586	0.031630434	-0.013806883	0.0090479385	-0.057334036	0.065807626	-0.0030482216	-0.044563502	0.014131129	0.0047184317	-0.011734999	-0.034077752	-0.042636234	-0.047622897	0.009219975	-0.019911207	-0.008812192	-0.03173691	-0.011634829	0.08286435	0.014857622	0.01975485	-0.02143819	0.048163567	0.04026117	0.0073388806	-0.00660162	-0.052606553	-0.0062105777	-0.013269399	-0.0032494732	0.026118262	-0.043212723	0.0215068	0.029319834	-0.03800868	-0.020358222	-0.020138402	-0.08811849	-0.034894813	0.010835429	0.06100512	-0.022137396	0.027866574	0.026570793	-0.01038338	-0.012238785	-0.028638147	-0.04793398	0.041899484	0.03728459	0.017115306	0.0016998326	0.030729242	0.04672853	0.02811531	0.010314078	-0.038200594	0.0326473	0.02350793	-0.016123999	-0.08805672	0.048710845	-0.008002641	0.035055377	-0.0017613103	-0.0027483837	0.042641837	-0.052398864	-0.011328075	0.0039737816	-0.012530203	0.07677421	-0.07039435	0.03105013	-0.028804809	-0.03267763	-0.04622968	0.01891436	0.012127694	0.021001834	-0.07380337	-0.018434148	0.005170466	0.015952785	-0.009638906	-0.014571346	0.03050816	0.022802329	-0.0077560465	-0.06967336	0.014119736	0.03328223	0.015516013	-0.026854327	0.021638276	-0.01284828	0.007588479	-0.03503991	-0.00028018435	-0.06007451	-0.02892547	0.03255238	0.0626656	-0.017130509	-0.027302464	-0.047540687	-0.014254242	-0.009352833	0.048089117	0.030372068	-0.030997142	-0.0076243477	0.013660643	-0.017402094	-0.0059167035	-9.299894e-05	0.0032733432	0.008082655	0.04993413	0.018400708	0.004163471	-0.054000992	0.0016109429	-0.028492775	0.01612551	0.04445569	0.02167785	0.014840933	-0.042779617	-0.014901212	-0.04415484	0.011029753	-0.04479302	0.003832276	-0.004491298	-0.0039548576	-0.04071806	0.062093798
gene_annotation_single_4_s_1_0_oc_query.txt	-0.026487323	-0.0072771762	-0.014584663	-0.020861702	0.03046465	0.0013194045	0.02288346	0.013088912	-0.035228163	-0.0010797884	-0.030646894	-0.03890187	-0.0034783108	-0.085809484	0.018385898	-0.034027606	-0.02311773	-0.0016414629	0.002022149	0.0067681354	0.006911271	-0.008735437	0.036640365	0.02232896	0.025244879	0.002682888	0.014698403	0.009674518	-0.029325616	0.0020311202	0.03068657	-0.016984215	-0.019713245	-0.033322472	-0.03911547	-0.054607593	-0.032240883	0.019984232	-0.009331482	0.0071949773	0.036520172	-0.0022038482	-0.042149372	0.00017493965	0.019151196	0.0014454186	0.007044658	0.0010521611	-0.024976263	-0.002070591	-0.0038666823	-0.044459525	0.022870924	-0.052221615	-0.03383202	-0.03734817	0.060120575	-0.0058686743	0.051313136	0.07034216	-0.019718228	-0.039209947	0.01141103	0.024189323	0.0492778	0.044257645	-0.038453795	-0.020920144	0.01199852	-0.006321567	-0.04218665	-0.00083109055	0.03112449	0.020227144	0.0039830157	0.060705177	-0.0073824273	-0.028117588	-0.04704115	-0.08326855	0.047994476	0.061231118	-0.050724022	0.0020631258	0.004208266	-0.06641881	-0.00090365886	0.02896103	0.012479931	-0.039986733	0.06798027	0.008316396	0.0007157361	-0.08770064	-0.06407706	-0.040054426	-0.01134922	0.047331832	0.33792898	0.042580206	-0.04361009	0.0015513977	-0.011341637	-0.013878685	0.01826824	-0.011860016	-0.007446754	-0.020856222	0.023565143	-0.009720249	-0.060880616	-0.010513854	0.0843059	0.019710679	-0.057116166	0.0155684315	0.015266053	0.04078651	-0.008969514	0.012680733	-0.028518513	0.005088956	0.040752646	-0.020225806	0.011344588	-0.025339432	0.029684957	-0.00690629	0.0053474195	-0.13133335	0.06377599	-0.045284223	0.020494116	0.05613767	-0.061758302	-0.056929223	-0.009104965	0.025968855	-0.016759908	-0.009013914	0.018639648	0.026732396	0.022405013	-0.00078528933	0.0033833757	-0.03431206	-0.008536315	-0.019447088	0.054564457	0.023594245	0.021905657	0.028302532	0.041340087	-0.028025419	-0.0059848716	0.024402658	0.034507383	-0.037905872	0.086739235	0.013090634	-0.05813782	0.030224202	0.06277951	0.028383045	0.022542942	0.0021320074	-0.029740117	-0.048054267	0.04525582	0.012717969	-0.0014607407	-0.03711142	-0.008687968	-0.03118143	-0.038710367	-0.0021916395	-0.018155511	0.08171461	-0.0024655731	0.08008197	-0.013395911	-0.009117306	0.036815636	-0.05556543	0.05733453	-0.029716622	0.003780836	0.020648874	-0.008074846	0.018114302	-0.025919119	-0.0026970028	0.012284066	0.0036568644	-0.002087332	-0.0072410493	-0.04999698	-0.030403413	-0.007955129	-0.0142966425	0.014710258	-0.06863657	-0.017821243	0.0222429	0.010895783	0.016089063	-0.033560093	-0.0024892804	0.0058434294	0.023205595	0.018926127	0.059501808	-0.0026608692	-0.0016947713	-0.05083369	0.011859357	-0.0044754297	0.03168439	0.021453159	-0.03617282	0.021958262	-0.033663135	-0.09219294	0.043281656	-0.025593808	-0.049845807	0.10960174	-0.009146319	-0.05936044	0.035386715	-0.014410226	-0.030653216	-0.009397737	0.047943912	0.0045637563	-0.009862956	-0.075017214	-0.0026016072	0.03709961	-0.061000876	-0.0037449587	0.40865237	-0.0036247177	-0.005077064	-0.056118347	0.057637904	0.010803973	-0.019835472	-0.03596363	0.101305276	-0.0027732262	0.033494864	-0.0048777456	-0.016944107	0.0067399205	0.010463479	-0.0135434875	-0.057233643	0.009094703	0.025356447	0.066324554	-0.016642466	0.050088234	0.008072316	-0.2067411	-0.02985962	0.045480717	0.040725455	-0.026088655	0.04490642	0.025482262	0.029115038	-0.005595028	0.11345685	-0.079877466	0.0179366	0.012941632	0.0022596193	0.004207221	-0.029119596	0.015285285	-0.004406617	-0.03668316	0.027202236	0.06395038	0.024005655	0.033354294	-0.019783475	0.019846559	-0.038524047	0.010141963	-0.038668584	0.011795519	-0.031094959	-0.0012810673	-0.060639713	-0.045724854	0.019447995	-0.013851612	-0.008931234	-0.024054501	0.008713362	-0.02265434	-0.022893317	0.020371368	-0.020172596	-0.007386437	-0.020971356	0.060480718	0.02007778	0.027272005	0.006843675	0.014876741	-0.019590862	0.0034750123	0.021760648	-0.003963175	0.039708268	-0.057365384	0.01526841	0.025973314	0.029115003	0.015979407	-0.0279855	-0.055240825	0.06267296	-0.0017757014	-0.029251989	-0.05575684	-0.02998198	0.002324456	-0.044343084	-0.048744027	-0.019655261	-0.025251178	0.0109574795	0.0318362	0.05637738	0.012439578	0.04272014	-0.061427698	0.024327	-0.06297485	-0.005297456	0.042240486	0.037004333	-0.0185753	-0.02634936	-0.025242072	0.0057441783	-0.025585687	-0.049896337	-0.023995614	-0.007849823	0.010910301	-0.0261631	0.03805722	-0.035221774	0.0041551767	0.05017239	-0.019860068	-0.0037269993	0.02812302	-0.042063262	-0.05266872	-0.096478365	0.015513756	0.018827641	0.047605004	-0.030033005	0.025410047	-0.03293676	-0.006741118	0.03686428	0.06346056	-0.038713273	0.0036850127	-0.046576094	0.005795358	-0.049084652	-0.08102933	0.0010252248	0.035841342	0.020444391	-0.056502227	-0.009803067	-0.04193003	0.011199096	0.019999381	-0.096057035	-0.10488646	-0.021652834	0.03712242	0.020585492	-0.01990841	0.053617343	0.060412116	0.013609413	-0.008324823	-0.0046445895	-0.026450831	0.0005037881	-0.04294937	0.04001803	-0.0074645556	-0.053095337	0.020465737	0.010191287	0.0075181895	0.0315102	-0.03942534	-0.029413912	-0.023808334	0.03485676	0.02302198	-0.03171014	-0.0282739	0.064287916	0.03696195	-0.0127282655	-0.05824372	-0.016357724	0.0032235314	0.014352828	0.06254934	0.026189806	0.004375247	-0.01348422	0.0015215183	-0.031426057	-0.04386904	0.09222688	-0.0069612977	-0.013031	-0.05008395	0.012261033	0.026746472	-0.039925795	-0.01699836	0.00583686	0.009465271	-0.0870699	0.020262394	0.03606623	-0.058258392	0.054551035	-0.02783234	0.030797753	0.011030334	-0.040398143	-0.07458498	-0.003471916	0.08477163	-0.027057376	-0.03579442	-0.016732145	0.018821348	0.00696854	-0.04435878	-0.00094058755	0.041358013	-0.028613396	0.01139915	-0.008825821	-0.013716896	-0.02020922	-0.08501478	0.008168911	0.016301341	-0.0667867	-0.015586924	0.0151906535	0.0009191743	-0.051030338	0.05796713	0.047955204	-0.02668221	0.004874689	0.004316037	0.0204841	0.020307528	-0.0270533	0.013243417	-0.03402453	0.014593205	-0.012287864	0.028897436	0.04290307	-0.017175801	-0.016252445	-0.0067164754	0.013582696	0.092687935	-0.01999106	-0.01251608	-0.109321296	-0.006986364	-0.025374347	-0.0011233785	-0.013873746	-0.050462473	-0.008408206	-0.028530456	-0.009046839	-0.0041218298	-0.048360504	-0.022412686	0.008914919	-0.024432387	0.05383914	-0.0022644748	0.04458734
viridis-heatmap_p_0_sw_1_2_s_1_0_oc_query.txt	-0.044720866	0.016866261	-0.007518355	-0.013332291	0.034379967	-0.008441363	-0.010059689	0.02119646	0.037798475	-0.0070035625	0.019788088	-0.052614715	-0.043137554	0.005966727	0.037990455	-0.057193704	-0.02618239	0.05778	-0.0030496547	0.003638938	0.013675319	0.003718559	0.026136262	0.03954917	-0.014999217	0.029543266	0.008781608	-0.014625486	0.035106488	-0.066007815	0.02179562	0.027734915	0.0027080467	0.00054136815	0.008699938	-0.030228237	-0.016901948	-0.02229778	-0.022799995	0.015367322	0.02849748	0.0069164783	0.032220654	0.0014730371	0.010381044	-0.007486088	0.01652551	-0.03386733	0.012882983	-0.06629272	0.025659336	-0.022442602	-0.015272042	-0.053902	-0.05227963	-0.026226744	0.012631693	0.042513173	0.029390667	-0.028859718	0.022427434	-0.022495061	0.01893295	0.008636964	0.0078075114	0.0064431154	-0.027879655	0.029220946	0.013906486	0.010597374	-0.028496724	0.009308381	-0.004796435	-0.018848589	0.02761222	0.0016565467	-0.005693149	-0.029574366	-0.029020682	-0.027771953	0.047277525	0.053696256	-0.017305003	0.013041557	0.038163807	-0.05690557	-0.057491764	-0.014109524	-0.056676634	-0.01190188	0.008160574	-0.013192492	0.04332469	-0.021687113	-0.082510285	-0.044155907	0.009147014	0.040746093	0.334954	-0.0003994464	0.017670033	-0.021265423	-0.0046773297	-0.003800169	0.0337877	-0.018492227	0.03359767	0.02977764	0.03717883	0.046043705	-0.035496835	0.022277156	0.014174389	-0.022035519	-0.052218195	-0.022374058	0.01684592	0.062101953	0.06295576	-0.0021005245	0.0071330382	0.034410983	0.020935524	-0.017611014	0.015821178	0.029655494	0.0051366426	0.041088223	0.007611701	-0.13333875	0.016680531	-0.0007469657	0.060110357	0.010835445	-0.053710487	-0.015281538	-0.019758916	-0.04188445	-0.07594753	-0.023216587	-0.010117427	0.025918588	0.003698295	0.09430084	-0.039287012	-0.064290546	0.014356722	-0.010391526	0.017711429	0.035876177	0.059440244	0.024563866	0.031913422	-0.04239115	-0.07407536	0.051924285	-0.09471899	-0.11811405	0.05090197	-0.0492832	-0.011833451	0.008610718	0.037808042	0.001747102	0.034765113	-0.038097292	-0.019380428	-0.036703497	0.019022482	0.039679743	0.026665017	0.03331934	-0.04306806	-0.047543198	0.02516631	-0.022976309	0.015504132	0.03433969	-0.0011152771	0.046411566	0.08381504	-0.0020851612	0.02091401	-0.035637807	0.024550403	-0.032258555	-0.03350292	0.0051368214	-0.031569853	0.00058243563	-0.06251169	0.009352306	0.04178345	-0.03157905	0.0049892985	0.089291014	-0.045037653	0.00800169	-0.02820189	-0.0124935405	0.011258073	-0.042845983	0.008900759	0.00021787053	-0.017081896	0.045603227	-0.04934448	0.013630662	-0.008381689	-0.026243499	-0.015859962	0.109519556	0.0149171855	-0.0334937	-0.05875371	0.027224809	-0.035414893	0.05601025	-0.013664484	-0.031121712	0.012286813	-0.058689002	-0.067226306	0.041342575	0.017435163	-0.04048079	0.10377043	-0.03031457	0.0026216453	0.02701706	0.0022240474	-0.0096454825	0.010324926	0.003736706	-0.0078034126	-0.008010439	-0.052772127	-0.027211877	0.06199462	-0.016807115	-0.010279928	0.39537653	-0.01815337	-0.020107327	0.0028157413	0.03446463	-0.081675805	-0.049385373	-0.00014640587	0.08537187	0.049059764	-0.042463463	-0.014493013	-0.024015743	0.018437771	0.027248489	0.008459934	-0.06446112	-0.005497173	0.016651088	-0.0019470498	0.010264894	0.03831447	-0.05708105	-0.2126469	-0.027886832	0.002456166	0.002694602	-0.06766801	0.03944131	0.025474459	0.0021270101	0.0010605708	0.073659524	-0.07641243	0.037740882	-0.029066402	-0.014988431	0.019337177	-0.036415298	-0.037970603	-0.05440871	-0.006657177	0.0056061386	0.033701975	0.043224517	0.023761962	-0.0313707	0.07919856	-0.01578204	0.017598337	-0.034446675	-0.030041367	-0.0974093	0.040564142	-0.06681815	-0.0455162	0.020885754	-0.04662236	0.032078404	-0.049623646	-0.015640412	0.004790983	0.031043153	-0.0034138376	-0.017760795	-0.042810563	0.006591547	-0.016661393	0.067039706	0.03408173	0.007845943	-0.035996202	0.03872261	-0.033825826	0.029948385	-0.025807891	0.049050834	-0.0628393	-0.025781063	-0.0014108687	-0.0070315977	-0.015830815	-0.02879063	-0.015310756	0.0438136	0.030377932	-0.022658939	-0.04658421	-0.04686537	-0.0065493817	-0.088960305	0.007869396	-0.025669117	0.07088234	-0.00024856854	-0.003221423	-0.014084245	0.014896832	0.0052398895	-0.028045624	0.018503454	-0.061277296	0.0011951226	0.0814187	-0.03508522	0.035065725	0.009852963	0.022696022	-0.051949132	0.003851448	0.015940655	0.024565415	0.002355678	0.05206249	0.050012294	0.019254895	-0.017730702	-0.016326088	0.0138377445	-0.0143077085	0.007786369	0.044595294	-0.03774023	0.0076248227	-0.065093815	0.024917714	0.003685536	0.03929702	-0.007971593	-0.028725082	-0.05917583	0.010132962	0.0074568284	0.077243455	-0.06277505	-0.032599237	-0.018114317	0.001230058	-0.017365705	-0.015404767	0.04742351	0.012452354	0.018981671	-0.029215463	-0.046750423	-0.08883825	-0.009535058	-0.0065364963	-0.036242265	-0.00014371463	-0.048227098	0.021189984	0.02167124	-0.010399386	-0.024825707	0.04119831	0.021285	-0.03103506	0.009434669	-0.052636728	-0.0068526766	-0.0855077	-0.014606454	-0.013176572	-0.0465247	0.00698206	0.030134209	0.03485489	0.019512996	-0.008184741	-0.05690471	0.0019406507	0.012835669	0.04515241	-0.00044169402	0.023217764	0.04370921	-0.006112369	-0.04856882	-0.018240316	-0.0034891749	0.019629322	0.040692892	0.015743306	-0.042210065	0.014515051	0.03785052	0.03650609	-0.033599943	-0.023422962	0.051775474	0.020942824	0.011218963	-0.056421693	0.034941513	0.024942812	-0.029695287	-0.027798466	-0.007845813	0.024372485	-0.06767509	-0.008751942	-0.013114895	-0.025170848	0.041300837	0.02023423	-0.025439013	-0.02937501	-0.02498999	-0.12756823	-0.00922639	0.03397119	0.0047124065	-0.086132154	0.060607877	0.065393135	0.0013783345	0.013039053	0.018049993	0.02451217	-0.047097877	-0.022636369	-0.009851988	-0.012108231	0.023256235	-0.01665942	-0.014698177	0.026293071	-0.05819332	-0.045883264	-0.026212275	0.017653624	0.008885161	0.0071091433	0.019152796	-0.020301614	0.007683965	0.046367772	0.03236488	-0.00031044456	-0.050490476	-0.0244198	-0.009161137	-0.027089199	-0.008476714	0.03808408	0.054612722	0.051669728	0.022881119	-0.023368247	0.0053323973	0.07353247	-0.041084234	-0.0478454	-0.04506114	-0.0028885372	-0.009505127	0.08453275	0.042369418	0.0045525297	-0.013509156	-0.019526387	0.012466336	-0.04223089	0.019440189	-0.015142603	0.006290314	0.0657778	0.0056530954	-0.0035311873	0.039351862
overview-landing_cc_0_query1.txt	-0.045583714	0.05538147	0.018608283	0.012863041	0.03140508	4.5090932e-05	-0.020008748	0.0028873852	-0.0018665994	-0.010407825	0.004248181	-0.035392098	-0.0143755665	-0.030642387	0.014734306	-0.017785154	-0.008357009	0.010459429	-0.015822373	0.0029584079	0.02862058	0.010967636	0.023494313	0.05256976	-0.06035485	-8.647015e-05	-0.012625218	0.0043762256	-0.044535607	-0.020778473	0.009229331	-0.018163387	-0.0018393742	-0.016261628	0.025666768	-0.029043509	-0.039587557	-0.00025831387	0.028111896	0.045235608	-0.0050394456	-0.07788572	-0.0076896977	0.026667235	0.0076985057	0.051970605	0.01132386	-0.032206185	0.02198049	-0.007101021	0.005248421	-0.03729472	0.023570009	-0.013801313	-0.0149414465	-0.014709135	0.045143638	0.05541741	0.03632467	-0.017853146	-0.0043738605	-0.047107726	0.059157185	0.065991074	0.033184975	0.027701145	0.002006035	-0.03215705	-0.0059622894	0.0077396687	-0.020204904	0.03176141	0.015980579	-0.034585156	0.030706298	0.052261878	-0.014309687	-0.016722739	-0.053259116	-0.026223619	0.05910783	0.052324735	-0.041171838	-0.05278357	0.09618669	-0.04779332	-0.08234921	0.00095849857	0.011835044	-0.017996632	0.03239484	-0.029165061	0.05563816	-0.05962305	-0.07139382	-0.05930302	0.008180113	0.036596075	0.2681234	0.0197911	0.01309161	-0.028774602	-0.0007215774	0.023097988	0.01311742	0.023928491	0.026718194	-0.03163895	0.010539558	0.05581759	-0.03597457	-0.0070237736	0.07132163	-0.0025449495	0.006502204	-0.028309267	0.030554343	0.03567826	0.074502915	-0.039098848	-0.014772187	0.02546071	-0.013283504	0.026426578	-0.023350969	-0.009870848	0.017849732	-0.011239761	0.012072521	-0.14209823	-0.019638406	0.028072787	0.03417687	0.0032421802	-0.08383754	-0.014423623	-0.013041609	-0.06436671	-0.08444962	0.00784882	-0.01818311	0.024471683	0.036183473	0.06594751	-0.023510266	-0.12963359	0.003126538	-0.0012888109	0.05582549	-0.003083308	0.054410607	0.0051614926	-0.014186374	-0.0521274	-0.07058559	0.020617072	-0.051955745	-0.05650094	0.041174293	-0.028792415	0.0057204086	-0.0020013067	0.063774355	0.050989497	-0.01899148	-0.015643986	-0.06400258	-0.0021559997	-0.027906712	0.0711673	-0.051300384	-0.024290191	-0.043038882	-0.008916528	-0.031292964	-0.00818134	-0.014707357	0.062161274	0.024253152	0.0761641	0.062154155	-0.030230513	0.031334553	-0.059877194	-0.0063725254	-0.009071785	0.0348331	0.0017944516	0.020182695	0.014614001	-0.08672825	-0.012138324	0.035231482	0.00044106675	0.029188743	0.04078391	-0.08981389	-0.0039828895	-0.024884786	-0.08409106	0.028175797	-0.035231356	0.028525798	-0.021799129	-0.032096405	0.00022388433	-0.04904266	-0.022286797	-0.030656671	0.017359192	-0.029226441	0.059001856	-0.008379483	-0.0072711576	-0.07954635	0.049204763	-0.029953124	0.01410464	-0.014835047	-0.03175153	0.024481028	-0.035396542	-0.054156054	0.050609723	-0.0012671698	-0.057973985	0.14875834	-0.022781866	0.013918223	0.0022970052	0.005326767	-0.0014898372	0.058831196	0.041143056	-0.015139007	-0.060222883	-0.034522273	-0.03675102	0.00577083	-0.0627251	-0.008350149	0.30362287	0.0056131827	-0.001539779	0.024665799	0.0043549114	-0.00033408983	-0.047774162	0.015043709	0.11904108	0.048021644	-0.008082659	0.04440528	-0.021767687	0.012928768	-0.0026583634	-0.015709803	-0.0019911544	-0.0069473702	0.06194701	0.025717987	-0.0631483	0.09911634	-0.007949999	-0.18553731	0.014330443	0.035270568	0.028514525	0.003000055	0.10205023	0.005321835	0.025411602	-0.073962	0.07158019	0.013875549	-0.0031200747	-0.02762986	-0.059724197	0.0072810855	-0.03749842	-0.010654637	-0.025604598	-0.012900527	0.05047528	0.048004493	-0.0035665452	0.009237707	-0.030008221	0.08060963	0.0126422	-0.039211012	-0.055129163	-0.012891863	-0.11799078	0.03877231	-0.020096654	-0.08667539	-0.033681486	0.03196409	0.009757643	0.009687171	0.020596132	-0.042913646	0.03506828	0.006200814	-0.023749823	0.042240072	-0.0023648196	-0.0019872151	0.025664309	0.015590516	0.027088748	0.024805771	-0.0075805057	0.03429483	-0.013985432	-0.007793038	0.05690694	-0.08083781	0.026510285	-0.01292125	-0.04113899	0.017463325	-0.02431729	-0.051095717	0.07607387	-0.023439413	-0.029677438	-0.041648775	-0.05141788	0.03637238	-0.047652062	0.008614847	-0.020973802	0.08464231	-0.01579767	0.01296466	0.05768817	0.07262601	0.035345852	0.028086854	0.010318122	-0.009300965	-0.016230335	0.059887297	-0.021014774	0.0062636025	0.020770917	-0.01955821	-0.016701024	0.02612685	0.022970004	0.009680984	0.04380746	0.050938267	0.0063595367	0.0436141	-0.06509327	-0.04415894	-0.006603539	-0.008868041	0.03314492	0.027857339	-0.007175256	-0.014907261	-0.07109167	0.04445519	0.03628099	0.039816223	-0.013765978	-0.0037216535	-0.030476805	-0.0065130834	-0.028149452	0.018686729	-0.04153023	0.0072718603	-0.029876806	0.03502959	-0.07485266	-0.060537286	-0.011319329	0.014675359	0.009288766	-0.09320975	-0.09940948	-0.13079104	-0.008093742	0.005298752	-0.010971274	-0.009680038	-0.01359171	0.009063149	0.04423148	-0.010921174	0.03103917	0.034273442	-0.00026469913	-0.06393032	-0.024770169	-0.046005663	-0.0013434906	-0.07688297	0.0052347775	-0.018414116	-0.02554333	0.03149389	-0.0017168472	-0.014089089	0.01734458	-0.0005509204	-0.09073249	0.017624116	0.048641086	-0.0020001947	-0.017308675	-0.003805464	0.04871149	-0.0028068225	-0.056775223	-0.014709301	-0.07343477	0.027087308	0.038673524	-0.0014892012	0.013806335	0.021915186	0.045548197	0.019688588	-0.023033759	-0.051169112	0.0016707659	0.005753122	-0.00778865	-0.04923508	0.045412183	0.094463825	0.01164775	-0.032640785	0.02665602	0.025459843	-0.022930767	-0.045421276	-0.06268193	-0.011164077	0.039722078	-0.0612944	-0.024878703	-0.04256905	-0.023183368	-0.08332811	-0.020753069	0.039679207	0.046648562	-0.046136867	0.028834168	0.06481566	0.047448292	0.060005616	0.040386125	0.02062603	-0.040905707	-0.017732652	-0.034878805	-0.056544237	-0.03362625	-0.015670612	0.014793579	0.03232115	0.04391251	-0.035497375	-0.013130134	0.006248903	0.027815497	-0.01924361	0.030396296	-0.00050054246	-0.045925803	0.014628836	-0.029526608	-0.0003196955	-0.08138377	0.033283733	-0.01268234	-0.054945633	-0.0028482438	0.055338245	-0.0121768145	-0.00018224561	0.0495431	-0.010999684	-0.025551448	0.06530063	0.017675616	-0.065981515	-0.029693136	-0.03480983	0.0003266122	0.01629157	-0.03449091	-0.024247235	-0.022097206	-0.026769107	0.0042992895	-0.023080824	-0.0090357615	-0.03355055	-0.005094552	0.04271324	0.03607192	-0.023953384	0.003039592
stratified-bar_p_0_sw_0_7_s_0_7_cc_0_query.txt	-0.035260197	-0.009659211	-0.013349415	0.01098272	0.035046104	-0.03994788	0.026856843	0.002918945	0.0109260455	-0.012118144	-0.004188563	-0.051103998	-0.01248164	-0.032297272	0.024541723	-0.06835269	0.018735535	0.0006847713	-0.0061146445	0.0079851495	0.042770218	0.031722736	0.038863804	0.0556192	-0.031577885	-0.033670414	0.019042011	0.008768302	-0.0036781267	-0.036674622	0.018134825	0.031676102	-0.023602324	-0.008818483	-0.025023475	-0.041044846	-0.020394243	0.017344695	-0.0017886168	0.025154635	0.030511172	-0.0040773433	0.010840019	-0.00879031	-0.031454355	0.0042098807	-0.039470214	-0.011327835	-0.0122897895	-0.024824804	0.016199736	-0.04549949	0.008339898	-0.06642992	-0.047209695	-0.015173145	0.012198705	0.0016212864	0.052122135	0.033170052	-0.027617587	-0.017006854	0.02380614	-0.016571451	0.08108448	0.008253493	-0.029922627	0.0007247893	-0.0131720165	-0.009345807	-0.04136711	0.04545722	-0.020528084	-0.02495442	0.02382492	0.017736517	0.013584774	-0.031210966	-0.03096301	-0.07662704	0.036680616	0.073172525	-0.037977863	0.028555557	0.056201514	-0.0069920383	-0.093015045	0.029450003	-0.04225031	-0.041269645	0.02919446	0.018577913	0.036279485	-0.033571288	-0.04718397	-0.015777556	0.0061042476	0.06989502	0.33352786	0.0009386502	0.013028876	0.007893348	0.0008580403	0.0022614643	0.035120208	-0.02266878	0.01632854	0.009544568	0.026775546	0.028266309	-0.027262531	0.032913703	0.041713275	0.0018782718	-0.04920423	-0.022698501	0.023813946	0.048801802	0.015669104	0.0035976483	0.016894465	0.03503028	0.04133492	0.012601572	-0.014354286	-0.004847435	0.04584085	0.017473727	0.03721694	-0.13659933	0.04401374	-0.022272784	0.03622058	0.015454685	-0.058857594	-0.013583704	-0.03452823	-0.02474803	-0.030316804	0.022466175	0.009668526	0.027152281	0.016214225	0.05841922	-0.06408671	-0.0845065	-0.011063824	-0.0075711403	0.049635082	0.019108873	-0.0018084266	0.014140344	0.023327034	-0.02854061	-0.09448437	0.033391275	-0.03830552	-0.06837041	0.010888228	-0.009383661	-0.02920724	0.047969364	0.039647676	0.009489846	0.017634552	-0.04332262	-0.051314577	-0.033019118	-0.0056728213	0.024437124	-0.043615356	-0.0038223586	-0.049029984	-0.01404094	0.014256311	-0.013658918	0.016345024	0.031274106	0.0063413675	0.03555835	0.060354147	-0.0006620304	0.024071774	-0.05501875	0.048233245	-0.020950625	0.01401282	-0.006640413	-0.020465918	0.016937511	-0.040330313	-0.008434679	0.0011067339	-0.010185021	-0.009135354	0.05014857	-0.04751238	0.032470614	-0.029112797	-0.089871086	0.019187925	-0.09698353	0.023932016	0.0047493414	0.0021802618	0.000742976	-0.062299114	0.027143225	0.018510787	0.012364285	0.03240259	0.046935543	0.02889237	-0.0077224257	-0.06566152	0.04716452	-0.08999294	0.06371735	-0.002131111	-0.04510108	0.047952246	-0.029253447	-0.07159604	0.075134665	-0.00020414693	-0.037628032	0.11178156	0.025321735	-0.006278494	0.041117966	0.016572447	-0.0012794934	0.039718993	-0.0036638603	0.0035487975	-0.028475333	-0.046464678	-0.05884981	0.022532681	-0.039836638	0.015345203	0.39370608	-0.029136835	0.0046654562	-0.011993386	0.04938861	-0.051367544	-0.04680937	-0.033651114	0.09249773	0.006614701	-0.047320306	-0.02218856	-0.036530666	-0.019653933	0.00017656783	0.003080563	-0.024378834	0.00045157256	0.0054685227	0.022135956	-0.02540611	0.06710554	-0.036843024	-0.21223468	-0.00851956	0.06463602	0.06410309	-0.024955017	0.053366277	0.025084706	0.0076950756	-0.03419004	0.050183598	-0.012126889	0.04260449	-0.010862879	-0.031062432	0.014420514	-0.039895754	-0.0067094583	-0.0014104525	-0.05493248	0.004452789	0.050724328	0.026821826	0.021223169	-0.033966158	0.049808778	-0.0033299788	-0.005844164	0.001739895	0.00696944	-0.10522663	0.04902068	-0.0877916	-0.046585172	0.021970829	-0.01514028	0.022840288	-0.035099763	0.007120686	0.0022124958	0.00556627	-0.009511657	-0.027599363	0.01637096	0.004130039	-0.022706099	-0.0011293167	0.032376505	-0.008331735	0.0066640563	0.008662298	-0.018760815	0.018008644	-0.017136632	0.029084794	-0.08331105	0.043206044	0.028906273	-0.012323286	0.014987578	-0.045830853	-0.050076358	0.054683913	0.014031786	-0.019606482	-0.019288234	-0.05013173	-0.007173916	-0.007542487	-0.043546252	-0.01615838	0.061129835	0.009865143	-0.0032618842	-0.0122689195	0.015581543	0.021450618	-0.044425044	0.024660457	-0.04660297	-0.0027601984	0.091306016	-0.035670776	0.03067599	-0.008892378	0.030728063	0.0029584146	0.021309504	0.00768912	0.0010843128	-0.053341612	0.038896225	0.042455632	0.03435328	-0.044674862	-0.01810562	-0.00545959	-0.058438312	0.049736995	0.039611813	-0.031785622	-0.055852197	-0.10524798	0.019380625	0.024488987	0.043000143	0.029909931	-0.03885639	-0.05853298	-0.019492159	-0.0011740945	0.046485204	-0.06548853	-0.02146429	-0.08168163	0.0055028633	-0.03533184	-0.056374293	0.05176301	0.007611246	0.023156151	-0.07224901	-0.047561985	-0.074024275	0.014503803	0.0084192045	-0.017576266	-0.06453825	-0.03998984	0.057271127	0.014325356	-0.025585463	-0.0076545114	0.034481775	0.0335935	-0.029469041	-0.02869056	-0.03911815	0.040252782	-0.04683703	0.01899981	-0.029238725	-0.048524078	-0.004226082	0.03306363	0.015162594	0.040135834	-0.012337521	-0.05475433	0.021140449	-0.0011362612	0.015572085	-0.01784925	-0.025351815	0.06201058	-0.020720096	-0.06457494	-0.051827338	-0.01707383	0.044034604	0.030699145	0.07121976	0.017552353	0.05106295	0.05620176	0.0538639	-0.008633808	-0.035390634	0.014750135	-0.014770929	0.02728254	-0.04230182	0.025159221	0.033039954	-0.04070704	-0.029760247	0.02442947	0.030671947	-0.07308599	-0.027551059	-0.013816765	-0.048852134	0.073261544	-0.009073491	-0.019168846	-0.023258181	-0.027006492	-0.047033936	0.0026938408	0.012853918	0.022820154	-0.062317643	0.035812907	0.042599767	0.025704874	-0.015645126	0.051999502	0.055180404	0.0011151163	-0.0036481025	-0.011357372	0.022036307	0.01418933	-0.0050793733	-0.006538889	0.0015331949	-0.0250778	-0.019647758	0.0029550327	0.01927287	-0.0017084465	0.03558197	0.03947111	0.009741	-0.075137556	0.0021797467	-0.018274093	-0.026847005	-0.056867167	0.017827358	0.009726239	-0.023489526	0.021417998	0.029921513	0.031174483	0.04663665	0.047303315	0.0043687676	0.03709394	0.07772472	-0.02906345	-0.012297277	-0.03627784	-0.018042848	-0.0068114502	0.02383041	0.045873534	0.03851143	-0.006592009	-0.011896365	-0.016147383	-0.0022764655	-0.0069825035	-0.054869603	-0.01201905	0.063144185	0.033611104	0.0014145798	0.060169276
basic-link_p_0_sw_0_7_s_0_7_cc_1_query.txt	0.0029321406	0.015841296	-0.015326487	0.01343248	0.07830031	-0.03703453	0.025195168	-0.024964169	0.019328287	-0.0019423751	0.0027919796	-0.051526695	0.014077681	-0.0028711264	0.0049660015	-0.08440416	-0.013594299	0.0002289281	0.02230601	0.0278924	-0.0014822184	-0.0011833902	0.030176973	0.0444436	0.013645425	-0.015396549	0.032966122	-0.015697164	-0.02822852	0.017928101	0.061956696	-0.015482674	-0.004357388	-0.01399589	-0.040764242	-0.0069007897	-0.040073868	0.0125212455	-0.020120826	0.023723045	0.0044907993	-0.0069735153	0.013937919	0.0054968963	0.010019054	-0.017679809	-0.0055572954	-0.010371533	-0.014200074	0.0003299905	-0.008745479	-0.01828037	-0.022037042	-0.046505764	-0.0487552	-0.08304257	-0.022187179	0.050873224	0.06964605	0.058966655	-0.02449768	-0.019332137	0.040974617	0.02043064	0.027454464	0.028068068	-0.012222119	-0.0753701	-0.014490361	-0.034553837	-0.047161456	-0.003659736	0.027393118	0.010561304	0.0057387063	0.059023894	-0.012576049	-0.021377182	-0.02076486	-0.040928062	0.052348725	0.029036582	-0.03057692	-0.0054310374	0.00786443	-0.10007707	-0.026641464	-0.046267614	0.03236242	0.024985593	0.0591675	-0.024779433	0.025294356	-0.040896554	-0.03993291	-0.060250025	-0.022258563	-0.055294134	0.34650043	0.04981572	-0.025652196	-0.009520202	0.031033613	0.0035484738	0.02424416	0.022472464	-0.0090232445	-0.014149014	0.014578498	-0.011040009	-0.053298518	-0.06845367	0.07517996	0.0061168326	-0.005534041	0.027268436	0.03447465	0.016473744	0.031125035	0.03875979	-0.006096737	0.046518378	0.024483092	-0.007998814	-0.013547273	-0.05387988	0.08535708	0.006431992	0.018475244	-0.14566088	0.022092558	-0.0636799	0.011461433	0.032441657	-0.0370771	-0.06367286	-0.005924787	-0.04556864	-0.018812204	-0.028721897	0.029151544	-0.01913326	-0.0054748137	-0.014251397	-0.030173138	-0.008973818	-0.044670876	-0.05175922	0.037771635	0.009711008	0.02948878	0.046294052	0.040119037	-0.057727795	0.038158856	0.054768343	0.034720447	-0.05744494	0.052098528	0.018563649	-0.023863338	0.028169632	0.039046742	0.043896485	-0.0019122451	-0.023766842	-0.015899003	-0.049885143	0.013169091	0.028132752	0.0013984658	-0.012569714	-0.0021155316	-0.055134434	-0.05451162	0.02218188	-0.033507407	0.03143848	-0.013262059	0.04277019	-0.013955155	-0.015388262	0.06593778	-0.047125217	0.032347966	-0.01685446	0.014867095	0.023662148	-0.0043134163	0.01987474	-0.023390153	0.023475204	0.046817407	-0.007770802	0.011497939	-0.03806676	-0.030781735	-0.009283278	-0.033722278	0.006308825	-0.036917597	-0.045303643	0.0005965134	-0.017549511	0.0024772128	0.017628757	-0.036739647	-0.004258937	-0.011632476	0.030747036	0.042856473	0.012761255	-0.003362204	0.025445212	-0.05480108	-0.0069137723	-0.02297615	0.02988933	0.04613152	-0.011128051	0.041231003	-0.033980425	-0.029678458	0.028605267	0.04585076	-0.038792953	0.11485842	0.0034416297	-0.0035187511	0.05904934	-0.017214559	-0.06643535	-0.033978485	0.03591654	0.012780455	-0.0107337525	-0.07903076	-0.000587938	0.04734508	-0.07317538	-0.048601314	0.4220131	0.014221614	-0.023368668	-0.033951797	0.01170799	-0.008587342	-0.050249185	0.0065507535	0.117133334	0.0015669971	0.0029677786	-0.03397728	-0.019628149	-0.018331528	0.06769805	-0.019889832	-0.033940956	-0.044213194	0.040901616	0.039732285	0.017455319	0.028759226	-0.002648434	-0.22163099	-0.022109851	0.019014109	0.022225697	-0.039989673	0.046401512	0.036555164	0.005188675	-0.0067370282	0.047063783	-0.07514283	0.015848255	-0.040320083	-0.036034882	0.0028947785	-0.034569982	-0.03297391	-0.05906015	0.0024312935	0.009568839	0.040918786	0.039297927	0.047628324	-0.0053833188	0.0452481	-0.046503797	0.07798443	-0.05288955	-0.025747113	0.012184947	0.01986589	-0.03392388	-0.03210774	0.02063079	-0.019007646	-0.0074666166	-0.056155942	0.04669133	0.04793058	0.018562218	-0.030784268	-0.010044405	0.0318698	-0.03747545	0.04443429	0.05107348	0.014111708	-0.012960043	0.03960638	0.012332086	0.011531009	0.029440057	0.009462452	-0.0016650484	-0.04843205	0.008087425	0.028242059	-0.0054493453	-0.004001844	-0.018774124	-0.04164707	0.08618508	-0.026921926	-0.031806484	-0.04001628	-0.07208206	0.0008064383	-0.05081284	-0.046378035	-0.009402771	-0.0041674008	-0.0040859543	0.04653188	0.04507308	-0.0035324725	0.055149157	-0.091826975	0.0033195124	0.0038802929	0.023198746	0.035894234	-0.023548234	0.009052156	-0.060722355	-0.029042507	0.016547142	-0.021305297	0.0145868	-0.020779932	-0.02726083	0.006951901	0.043671135	0.046201862	-0.008192759	-0.050676644	0.06032941	0.02608057	-0.042840313	0.02333026	-0.01917723	-0.04112213	-0.043232173	0.032425623	0.03661953	0.01761965	-0.0045119724	-0.012179827	-0.030230021	0.013659591	0.05618809	0.053590104	-0.0024083531	-0.019614022	-0.059580345	0.011032586	-0.04122015	-0.086621806	0.00469445	0.012173755	0.03942524	-0.030273361	-0.002350825	0.0010743245	0.0042515225	0.047974356	-0.06965004	-0.049849752	-0.042278398	0.020833211	0.05985739	-0.045084763	0.042362947	0.03609598	0.015603957	-0.013902528	0.002880424	-0.026508234	-0.013676856	-0.058406156	0.035810143	0.036384143	-0.09069039	-0.010651035	0.0024272965	0.014210026	0.010238817	0.03478495	-0.04111945	-0.047419023	0.052104473	0.037153162	0.008812196	-0.014758801	0.049016114	0.014908936	0.017442137	-0.048248157	-0.055434786	0.059197973	-0.0077165444	0.04193406	0.021256996	-0.023928296	-0.0062157162	0.020194147	-0.014269064	-0.016031332	0.012964611	0.011742163	-0.0054992563	-0.029606616	0.0055315387	0.04942458	-0.0024360225	-0.041168097	-0.040107355	0.017939102	-0.042732064	0.0072468566	0.052624244	-0.047316395	0.029532528	0.004677203	0.017738543	-0.0077915345	-0.074681774	-0.074009694	0.022349633	0.08026408	0.021176422	-0.05630739	0.02876024	-0.001120563	-0.011790578	-0.0032532155	-0.021466559	0.03498381	-0.0076549836	-0.04646925	-0.039321467	-0.014156113	0.032468304	-0.04872631	-0.011674859	0.016483715	-0.024783947	-0.011383973	-0.015748322	-0.011327011	-0.046859767	0.022808453	0.003697101	0.005907461	0.03722439	0.00215137	0.01980795	-0.008542121	0.006928107	0.037522394	0.012565976	0.042835884	0.0054569794	0.023557143	-0.014203889	-0.008507386	-0.015648965	-0.064276196	0.013443537	0.08343238	4.197595e-05	-0.016250135	-0.056478426	0.032146625	0.009295507	-0.0070760325	-0.018656407	-0.018634047	-0.016660817	-0.01829109	-0.0027258126	-0.054243352	-0.015684292	-0.02282844	0.00048262664	0.015218661	0.01708308	0.0065325885	0.021246003
EX_SPEC_MATRIX_sw_0_7_s_0_7_oc_query1.txt	-0.012049068	-0.04159404	0.0100444155	-0.0018587951	0.022890965	0.014680723	-0.010437027	0.010525648	0.0061613014	-0.043369137	0.014475842	-0.03269375	-0.03076735	-0.03976748	-0.0028757849	-0.05356374	-0.007926019	0.02884727	-0.017508406	-0.0045626825	0.018272463	-0.006895065	0.06276886	0.008609447	-0.092772774	0.0029369995	-0.030211272	0.0076269726	-0.027707148	-0.016155835	0.002485377	-0.02603932	0.013505491	-0.0318451	0.012216146	-0.03524096	-0.0644859	-0.043354444	0.02339157	0.01502717	0.014262198	-0.045845833	0.03160077	0.0069329054	0.012746852	0.0022965632	0.02208982	0.0048028193	0.0059736567	-0.028480267	0.031680364	-0.04142375	-0.02034755	-0.070083454	-0.03556908	-0.024618506	0.0056536035	0.035324704	0.029905485	0.0142377075	0.016967213	-0.030240012	0.055395987	0.016248867	-0.0056899283	0.00043104505	-0.032467466	-0.0058396836	0.052148893	0.0013047366	-0.017228134	-0.050316375	-0.016290851	0.018315887	0.032308	0.062963955	0.005281689	-0.050812602	0.00172996	-0.008939437	0.052892324	0.033676192	-0.0008013771	-0.010716895	0.061655257	-0.08365033	-0.052391306	-0.0030615507	0.0017493833	0.02975495	0.074025586	-0.10072591	0.03486233	-0.059430614	-0.124787696	-0.03340835	-0.02113016	0.022037929	0.28527638	0.00788515	-0.03805468	-0.06259059	0.017434457	0.004170635	0.07056283	-0.018411513	0.0058726287	0.03322765	0.08767315	0.0373931	-0.08630266	0.008561971	0.07602595	0.043381307	-0.022854384	-0.048231192	0.04710206	0.032881003	0.04080093	0.018409284	-0.031996503	0.07426698	0.008658523	0.032153066	-0.029829707	-0.0023072895	-0.0025358307	0.0005636393	0.012355029	-0.13687265	-0.010166846	0.029296188	0.040515088	0.02196063	-0.09064688	-0.028426426	-0.004706739	-0.03687311	-0.02533768	-0.03543523	0.01596438	0.009579134	0.031916324	0.039669126	-0.025642775	-0.057013273	0.04403342	-0.0074785235	0.029311474	0.018781662	0.089080624	0.03268929	0.019210488	-0.07336321	-0.045532003	0.055892337	-0.019365251	-0.047763802	0.04201807	-0.0041672466	0.005072607	-0.005654014	0.041125055	0.018929655	0.043148424	-0.04055541	-0.017587062	-0.0371219	-0.013186281	0.048538145	0.0023746334	-0.016414486	-0.04135033	-0.02166652	-0.019826274	-0.0032942838	-0.0049307975	0.08182184	-0.00740427	0.06677992	0.043363787	-0.030901378	0.012856715	-0.0419909	0.0067088786	-0.019154217	0.0013167994	0.015285426	0.034033798	0.01391096	-0.07350282	-0.04279619	0.023369765	0.0241647	0.0113613	0.0028056013	-0.043639287	-0.00836169	0.021300608	-0.039427217	-0.028958652	-0.016683055	0.024421489	-0.026588699	0.0012713588	-0.0056734863	-0.007952578	0.056690354	-0.03306239	0.0041036587	-0.027149824	0.059772056	0.01536815	-0.0459001	-0.0942871	0.041727103	-0.012162763	0.07043527	-0.025153628	-0.06948546	0.044276234	-0.01145727	-0.012875464	0.051977612	-0.025596071	0.0052269404	0.14648405	-0.026039595	0.059212063	-0.008137249	0.011708968	-0.06617945	0.00062932255	0.015872102	-0.008542779	0.0024321596	-0.058163773	-0.0032898637	0.03145764	-0.047996167	-0.009602148	0.33804312	0.03837594	-0.0067349835	0.000906989	0.046008646	-0.0007504285	-0.021304158	-0.0027654937	0.11288378	0.05402431	-0.035276905	0.025780078	-0.003168729	-0.017085193	0.0019793888	-0.0013657534	-0.045129146	-0.040172666	-0.013863167	0.019191682	-0.014904472	0.07544111	-0.015866565	-0.19028641	0.027143378	-0.013715746	-0.035095625	-0.036514916	0.06430608	-0.0003507693	-0.011352532	-0.05875956	0.079530016	-0.036236018	0.0022915285	0.011064232	0.0113211125	-0.032687895	-0.01941028	-0.0004618207	-0.03968021	0.0052396525	0.040823128	-0.005767844	0.027977996	0.015361228	-0.023656363	0.09982986	-0.041900262	-0.01802043	-0.070585616	-0.016209044	-0.04540258	-0.0049073496	-0.033650957	-0.06410453	0.036826972	-0.0022762874	-0.006511049	-0.043538116	0.01246141	-0.027232444	0.074093305	-0.015095242	-0.053623963	0.04574874	0.028535275	0.034281947	0.0413402	0.084226884	-0.016522795	-0.002877184	0.055247627	0.013770914	0.008984848	0.0018364361	-0.004408514	-0.052743137	0.016612867	-0.017750893	-0.016686298	0.025756707	0.036342762	-0.009701816	0.03620485	0.016183272	-0.05605619	-0.032950636	-0.062675014	0.030325348	-0.047325592	0.019446524	0.013873933	-0.0031971934	0.014870558	0.011146659	0.041277938	0.020734964	0.04174211	-0.014306788	-0.040904433	-0.0079145795	-0.010146935	0.10390259	0.030029636	0.02594655	-0.031531226	-0.028028933	-0.037606955	0.00034158505	-0.038608644	-0.013307466	-0.017308163	0.05431619	0.04085554	0.06046404	-0.00808192	-0.048204444	0.03431473	-0.02100526	0.014983806	0.032888204	-0.073728815	-0.015555575	-0.08368784	0.043966454	0.012641655	0.055959903	-0.04080935	0.01578937	-0.039454754	-0.02144077	0.054426223	0.06822382	0.018358396	0.0039948374	-0.06995909	0.035626188	-0.03923761	-0.03232988	-0.01875223	0.0014172152	0.040999833	-0.08810235	-0.04091487	-0.07725394	0.031085668	0.045368534	-0.07935003	-0.037947357	-0.047215022	0.013683276	0.105866715	0.026501236	0.021613462	0.044275	-0.0015962424	-0.015856601	-0.03085879	-0.017335521	-0.046773847	-0.0978988	-0.0019886035	0.0057062283	-0.0709349	0.004412458	-0.012228315	0.0070078354	0.010746513	0.024927936	-0.057485912	-0.012437322	0.022812655	0.047420386	-0.030672634	0.01193903	0.046338055	-0.0009893648	-0.013302512	-0.040144827	-0.04321078	0.026012529	0.024849216	0.049335305	0.03665937	0.016861849	0.035875205	-0.033900566	-0.031295776	-0.047007233	0.05480194	0.02051996	-0.067204505	-0.064035214	-0.005806943	0.045990985	-0.017430138	-0.030974234	-0.006425632	0.05627703	-0.014677798	-0.02608634	0.01095065	-0.004549374	0.014710084	-0.019572396	0.0073481724	-0.016758997	-0.047342878	-0.07527713	-0.002177484	0.036050495	0.02496518	-0.04090728	0.030075315	0.0031396695	-0.026026173	0.0016326271	0.0034718034	0.045501266	-0.051696	-0.034518596	0.046930138	-0.06408168	0.0036160978	-0.048171118	-0.0032068037	-0.004333318	-0.039285723	0.011520695	-0.01920867	0.04995104	-0.054253243	-0.011605716	-0.01586353	0.0068088938	0.06496484	-0.0014228793	0.02080813	-0.008207276	-0.040602207	0.011081303	-0.0072305845	-0.01361338	-0.023586465	0.048260685	0.016456466	-0.0015472547	0.02480493	-0.033999953	-0.0066210274	0.08882451	-0.055904713	-0.014442932	-0.038709477	0.022175098	0.0168893	0.0591406	-0.0090306895	-0.019476356	-0.052426968	-0.027675137	-0.012796738	-0.057114135	0.003704408	-0.05059687	0.00463383	0.05588552	-0.017528703	-0.0020021657	0.027972464
rule-mark_p_0_sw_0_7_s_0_7_cc_0_query.txt	-0.0027821949	0.014247764	-0.0018610003	0.04514271	0.06047289	-0.07319578	0.017117316	-0.0034736865	0.0023568708	-0.020556571	-0.026887385	-0.037385643	-0.025710462	-0.04835782	0.026872437	-0.05735206	-0.006223173	-0.072735496	-0.023124443	0.008974882	0.021370921	-0.032056298	0.0344226	0.0624579	-0.034006108	-0.060981054	0.010201249	-0.01594199	-0.009601561	-0.007085937	0.009932416	0.009539067	0.016702179	0.008373393	-0.023421252	-0.005003904	-0.053179234	-0.01388509	-0.0061064814	0.030843219	0.0019218874	-0.041570567	-0.015427631	0.055002585	-0.06481387	0.00407762	-0.041934248	0.002627732	-0.022199376	-0.025758918	0.01306874	-0.03522115	-0.032462876	-0.041162938	-0.078342214	-0.037856102	-0.030663101	0.019987877	0.07853818	0.027745862	-0.022060622	0.02168456	0.027108591	0.018498424	0.019351818	0.0026162039	-0.0035669198	-0.06690579	-0.007130714	-0.011756392	-0.02806981	0.0055033155	-0.0048441407	0.004973225	-0.022765769	0.09587989	-0.007892289	-0.0149041675	-0.010383862	-0.03417139	0.034043316	0.010454897	-0.0491139	-0.025874678	0.085787974	-0.0558674	-0.05277902	0.0028089317	0.006559002	0.042438902	0.0657775	-0.049639188	0.006628889	-0.046472084	-0.07921122	-0.0174557	-0.021783758	0.010750434	0.29006878	0.021963099	3.792337e-05	0.0017396715	0.0064432276	0.04650258	0.05248902	0.016537303	0.017606486	0.038778964	0.021388043	0.022364093	-0.03003536	-0.034999974	0.08820663	0.01735218	-0.0014780054	-0.002208021	0.067480706	0.018235497	0.027841983	0.025562402	-0.029144624	0.056268252	0.01646959	0.05065352	-0.015142558	-0.03818414	0.04333774	-0.0073826476	0.017283717	-0.13233943	-0.039409027	-0.00015308475	0.04011809	0.0019093174	-0.093982235	-0.03294488	-0.044157855	-0.054052643	-0.047754746	-0.025295345	0.015789745	0.024385417	0.015454713	-0.011436424	-0.040986374	-0.07428812	-0.02803346	-0.0002456714	0.050244637	-0.0032563766	0.04597238	0.006739662	0.035376288	-0.05688127	-0.007911597	0.03797989	0.022637246	-0.0438208	0.0051436187	-0.025915863	0.022298561	-0.01376286	0.02628741	0.01119397	0.014319038	-0.03200531	-0.03501343	-0.029278038	0.003752679	0.0066357027	-0.039118856	-0.041574713	-0.025108552	0.024535393	-0.022573411	0.015977856	-0.025829324	0.039425287	-0.010500216	0.07292995	0.007200354	-0.009145204	0.08224671	-0.05513712	0.04798101	-0.020849025	0.033775687	-0.0048509752	0.020009486	-0.03168755	-0.027661748	-0.043866538	0.06080051	0.026948368	-0.008638171	-0.026773168	-0.016307663	0.013815322	-0.026122542	-0.06922847	-0.010199658	-0.05328572	0.043114964	-0.0069442485	-0.0132412035	-0.009919939	-0.05793157	0.012498254	-0.018726714	0.032371264	-0.006471502	0.050034776	-0.013955139	0.044813547	-0.03622288	0.017648045	-0.026776321	0.012447026	0.032014303	-0.013400092	0.085409895	-0.021573314	-0.02230662	0.041146234	0.03742564	-0.00798813	0.13661383	-0.029769175	0.015573101	-0.0079435455	0.06105626	-0.068324044	-0.010689845	0.006154488	-0.014569914	-0.0011266186	-0.06383248	0.027531896	0.02268662	-0.06237591	-0.036649123	0.34410807	0.026728837	0.008277313	-0.033947043	0.034621876	0.0014780182	-0.055750847	-0.011406227	0.11632138	0.053755853	-0.05093414	-0.020867134	-0.049361907	-0.07122897	-0.003194294	-0.03819963	-0.05001085	-0.012476489	0.0034783343	0.02636206	0.003890756	0.009497078	-0.0061632507	-0.1889392	-0.0018158975	0.051581115	-0.0075686695	-0.024244795	0.060397506	-0.0117645245	-0.00684378	-0.03697273	0.09374093	-0.057970952	0.005708041	0.0023130577	-0.03190604	-0.034707334	-0.070618846	-0.027800197	-0.070112154	0.0046055974	-0.0043306043	0.06460768	0.03387039	0.0052977824	0.01773253	0.075408354	-0.0517331	0.011932065	-0.0469782	-0.008102027	-0.017412173	0.011142164	-0.019286172	-0.009712368	0.016433485	-0.011678946	0.020857729	-0.05228773	0.008183371	0.0173158	0.0355109	-0.04707552	-0.07038492	0.11699051	-0.03832673	-0.028464666	0.015224491	0.040954318	-0.020510782	0.01063778	0.046266247	-0.004472059	-0.01770904	0.007894809	0.021321492	-0.07240961	0.042870134	0.03530344	-0.0101760635	0.019632122	0.035596084	-0.07366374	0.043143723	-0.0438085	-0.016000126	-0.0408824	-0.090618454	0.01961135	-0.014345129	-0.0369057	-0.007141547	0.043212082	-0.04966185	0.06721341	0.034064688	0.05683495	0.073072955	-0.039188396	0.009154201	0.009376185	0.036200706	0.058743928	-0.060153097	0.008075485	-0.035085697	-0.0034987598	-0.009237927	-0.0088081965	0.0472054	-0.04709114	-0.02070682	0.0389421	0.029037947	0.048635907	-0.035755564	-0.031262517	0.031725053	0.017210409	-0.028977118	0.055368226	-0.04355847	-0.04161096	-0.06783907	0.065282986	0.04787364	0.05726933	0.0142189255	-0.01734122	-0.040164158	0.0014487592	0.003964378	0.049020965	0.002897123	0.021579808	-0.09513984	0.023075245	-0.020636221	-0.051562313	0.033678435	0.011752835	0.07975819	-0.0866531	0.016868934	-0.05328977	0.010057006	0.054938037	-0.07609478	-0.059009504	-0.012479238	0.016148593	0.0578242	-0.055453647	0.052806105	0.027251115	0.012085087	-0.020592794	-0.023965616	-0.02164842	-0.027171042	-0.056973215	0.06320213	0.03724046	-0.045721922	0.014990524	-0.026137242	0.0347991	0.05430579	0.03667994	-0.061103757	-0.026168166	0.0029300677	0.0050791283	-0.0036508057	-0.011267904	0.06479155	-0.021749739	-0.016587883	-0.07297927	-0.069472305	0.011769404	0.019975493	0.015303637	0.0893917	0.013438289	0.051045217	0.025750928	-0.02464213	-0.014525496	-0.02310863	0.034252476	0.02494266	-0.04225145	0.002682219	0.09334219	-0.024841364	-0.028611174	0.017166616	0.030237611	-0.058773104	-0.041573904	0.0017865736	-0.053015914	0.024405813	-0.024384312	-0.005913051	-0.026799724	-0.078556344	-0.035763673	-0.0014960106	0.058802724	0.034324635	-0.019104395	0.025518907	0.007770538	-0.02711745	0.025847768	0.00928763	0.049308002	-0.03557173	-0.011839283	0.01611134	-0.017396865	0.0028991094	-0.023332277	0.01565858	0.02836532	-0.0008929888	0.0051821372	-0.036909644	0.028772432	-0.029743524	8.796954e-05	-0.0026682348	-0.053517178	-0.016544841	0.020851571	0.018870205	0.011339322	-0.014135572	0.04024222	0.009669849	0.0486246	0.048974525	0.02711165	0.0043173116	0.0035787672	0.04205226	-0.00016973433	-0.007976443	0.09638405	0.037022557	-0.025820782	-0.024496967	0.00936761	0.006865647	0.0047599752	-0.006047326	0.008976305	-0.021384701	-0.0138828745	-0.027944382	-0.012374161	-0.04824931	-0.035875984	-0.048384927	0.06053466	0.0036140971	-0.0019799643	0.029076727
BRUSH_sw_0_7_s_0_7_cc_1_query2.txt	0.032239635	0.052307893	-0.018596804	0.042422596	0.08779363	-0.044930536	0.0017733236	0.026117874	-0.011030968	-0.024373034	0.0019559523	-0.061849974	0.0060679843	-0.049012553	0.043023676	-0.059256155	-0.023865871	-0.030232804	0.004289393	0.032195657	-0.01569889	-0.01761401	-0.02429438	0.070214175	0.0065156966	-0.0022163214	0.0083733555	-0.035613548	0.018158795	0.028729755	0.0060356627	0.030224808	0.058732077	-0.0069677625	-0.056186523	-0.028128933	0.025251945	0.0028017107	0.026975207	0.04025853	-0.029364798	-0.07378669	0.020051273	-0.014901692	0.030561266	0.008321072	0.029696226	0.03268183	-0.03679955	-0.015884878	-0.003459629	0.029496444	-0.006065568	-0.055720072	-0.03185335	0.007960715	0.044737294	0.034466043	0.042333882	0.017511414	-0.0012538536	-0.025670033	0.04961763	0.021704093	0.08037273	0.027956456	-0.049029786	0.0065527074	-0.003733792	-0.0069816234	-0.023221757	0.016033214	0.058235332	-0.0056494363	0.028002607	0.04200932	-0.002494425	-9.64145e-05	-0.0039100186	-0.017240856	0.080714606	-0.013030277	-0.04431979	-0.028901383	0.073391035	-0.07432062	-0.041218244	-0.025651557	-0.023692498	-0.00869749	0.0833942	-0.042233113	-0.016329031	-0.060248684	-0.057401113	0.0006361945	0.011416295	0.019211087	0.30512744	0.048928995	0.0021801263	-0.050560497	0.000926796	-0.0061058155	0.029818045	0.02481835	0.03867134	-0.0025652484	0.02467955	0.0083308	-0.0024326409	-0.027914034	0.10068292	0.013107693	-0.003713732	-0.002692041	0.049529787	0.04268008	0.018613515	0.024095025	-0.035775837	0.020143274	0.018767579	-0.0066979625	0.0015011112	-0.04817129	0.057196736	-0.0118907355	0.049085654	-0.11311714	0.011471566	-0.01632662	0.06801614	0.018511197	-0.06858156	-0.044209577	0.00092176103	-0.048668172	-0.05097295	0.0062216045	0.045572594	0.0029183559	0.036135204	-0.018349426	-0.0120797595	-0.1004522	-0.010237769	-0.090490445	0.07126736	0.0057766307	-0.015105303	0.019871728	0.043098062	-0.013784062	-0.04108786	0.06737065	0.016224807	-0.0057518845	-0.010873812	-0.046733353	0.010807491	0.045733172	0.06763782	0.023731086	0.039846107	0.04932066	-0.019986888	-0.04195603	0.029517278	0.05184533	-0.035778467	-0.034712527	0.028126363	-0.024214244	-0.013442792	0.02224096	0.017226223	0.06277549	-0.025222275	0.09582406	0.031595763	-0.0017070203	0.080460265	-0.062095862	-0.006000836	-0.04137155	0.03967615	0.010094192	-0.035445437	-0.019172195	-0.029945266	0.041645706	0.020970926	-0.03152116	0.021166855	0.03812913	-0.08350932	-0.02851911	-0.0018662236	-0.009204822	-0.018018689	0.003282149	-0.018974904	-0.0072129252	-0.006056856	0.037670508	-0.042382974	0.012695691	-0.02138243	0.0026686403	0.011458247	0.08598102	-0.031409625	-0.02922199	-0.09846837	0.030898916	-0.015294478	0.032362048	-0.008858323	-0.017842801	0.025334772	0.0041633244	-0.046269666	0.058402248	0.054181978	-0.042335156	0.09451937	-0.012669313	-0.023155196	0.033122677	0.02338668	-0.029103292	-0.036791038	0.025548397	0.048653405	-0.0035480086	0.0058396976	-0.0015005828	-0.0025934034	-0.06910949	0.04016427	0.37631512	0.0019232299	-0.039666735	-0.030921778	0.036105674	-0.036046494	-0.041205727	-0.016583435	0.075401366	-0.040764075	0.006874659	0.052043416	-0.007208999	-0.02106985	0.01672229	0.019887676	-0.01762905	-0.049514733	0.017833123	-0.019539012	0.030018155	0.0034591744	-0.013842974	-0.18704396	-0.031813476	0.0069373385	0.027629664	-0.0046817493	0.027983699	0.027684325	0.061089896	-0.05419367	0.052453432	-0.022938	0.039973997	-0.034977093	-0.027126493	-0.02365195	-0.046021424	-0.07083955	-0.026117941	-0.02378143	0.066487275	0.069318004	0.027116006	-0.019821147	-0.027429707	0.037655596	0.022843223	0.05333671	-0.101001464	-0.03736375	-0.023295667	-0.00067942525	0.0031519667	-0.018415492	0.043137465	-0.007489196	0.046779756	-0.027739989	0.056523964	0.0019140127	0.015407224	-0.015990786	-0.043895118	0.06357815	-0.045231942	0.009048966	0.018522246	-0.033451095	0.031523727	0.028963229	0.03745357	0.006426636	-0.008902303	-0.0013260355	0.06627829	-0.03265573	0.02275323	0.010412915	-0.0008825834	0.0076431483	-0.01404498	-0.027595513	0.09531862	-0.023390714	-0.02673618	-0.08801577	-0.02713715	-0.0067083086	-0.015930792	-0.026175382	0.036794756	0.0073810075	-0.03054321	0.05183103	0.037712242	0.03705149	0.053727794	-0.0452075	0.00934072	-0.016688785	0.054562703	0.0069501703	0.009963395	-0.03634759	-0.0036018216	-0.014451237	0.015259319	-0.044607054	0.022244478	-0.008952729	-0.014934683	0.051737007	0.045591537	0.039909564	-0.019239584	-0.05084508	0.0301394	-0.0092086475	0.014864118	0.107046485	-0.025655288	-0.03890296	-0.058697768	0.0421071	0.061205268	0.026296347	-0.038331322	0.020393072	-0.011141325	-0.033110898	0.024948683	0.048109498	-0.021897016	0.017545274	-0.07433986	0.036309287	-0.0619187	-0.05407848	0.013921156	-0.0036500052	0.07368619	-0.070904605	-0.032717876	-0.0039069704	0.023219047	0.0089470325	-0.09046534	-0.07173601	-0.007502481	0.033048946	0.024963642	-0.0055105654	-0.013640229	0.028485201	0.018301755	-0.004528777	-0.007947712	-0.047588058	0.016471926	-0.032651078	0.016201776	-0.004859676	-0.04415774	0.04746874	-0.009672659	-0.01966455	0.025865871	0.012527689	-0.039998963	-0.050836246	0.03699279	0.028017653	-0.06058949	-0.062756	0.043439344	0.0059217657	-0.047731422	-0.046636596	-0.02643048	0.019129544	0.03505048	0.024904503	0.03985807	0.008878411	0.010137395	0.02177368	-0.0146941	-0.032040693	0.038789533	0.01704238	0.010634473	-0.08075463	0.021635493	0.009751244	-0.034201864	-0.02716175	-0.018886866	0.027011944	-0.046313267	0.0046912637	0.008935416	-0.05307544	0.023364136	-0.007627401	0.042748176	0.012977682	-0.036812972	-0.07398986	0.013125931	0.007967384	-0.04975543	-0.07751533	-0.021887247	0.032083362	0.011302465	0.039378747	0.03490294	0.047915075	-0.034169376	-0.0392407	-0.05583645	0.0015967148	-0.06037463	-0.02369799	-0.0018341565	0.020049518	0.020845864	0.0006925719	-0.022015836	0.018505145	-0.017789768	-0.012205848	0.060720608	-0.00428182	-0.0176008	-0.010929046	-0.011159555	-0.006116659	-0.012993848	0.05134918	0.033129036	0.021083558	-0.00027075317	0.018132228	0.03309336	-0.026372857	0.034266394	0.0010319768	-0.031223273	0.08473804	-0.03241546	-0.0071158623	-0.10913918	0.016959306	0.015859487	-0.00095668336	-0.041840114	-0.024775432	0.0027969885	-0.052554615	0.00041623245	0.0024384963	-0.05759554	-0.011907205	-0.019716296	0.05057934	0.009813209	0.0013089406	0.04376668
EX_SPEC_CIRCULAR_OVERVIEW_LINEAR_DETAIL_sw_1_2_s_1_2_oc_query2.txt	-0.035665844	-0.060068827	0.0062895017	0.04820441	-0.0012299767	-0.036321584	0.029004987	-0.028404906	0.054449633	0.012627389	0.006459001	-0.033462103	0.019625753	0.011623964	0.035037708	-0.07645171	0.075196065	-0.009821557	0.0028226818	0.045474876	0.05930049	0.019448003	0.030294593	0.03645342	-0.06930408	-0.044037987	0.009713205	-0.0056025344	-0.027726859	-0.0060222205	-0.003577958	0.0031523197	-0.00499892	0.01334143	-0.020856338	-0.013757238	-0.03356306	-0.00247648	0.014561886	0.06169965	-0.026193006	0.03577903	-0.0013456891	0.015702188	-0.085647225	-0.029586984	0.0016187686	0.027506243	0.03496551	-0.024543907	0.030054055	-0.04717797	-0.018674813	-0.03276526	-0.03998654	0.008428424	-0.016967036	0.025837818	0.06416625	0.003841669	0.0026901683	0.018684732	0.051686727	-0.013504695	0.06804407	0.000118311815	-0.007695909	-0.014300884	-0.011707241	0.0034968848	-0.031768963	0.029945532	-0.059252996	-0.04429458	0.029377708	0.038423248	0.025143696	-0.05640864	-0.05218903	-0.051251836	0.035788245	0.105966166	-0.02300539	0.008501872	0.030244388	-0.059520703	-0.06483538	0.022146057	-0.0431185	-0.0379118	0.03183462	-0.0144071765	0.055058613	-0.012821053	-0.092614606	0.0048272735	-0.02685973	0.024027416	0.2881047	0.010027184	-0.015611565	-0.017723657	0.022288434	-0.031383935	0.019823741	0.03255161	0.006177225	0.00020909235	0.01992475	0.018658783	-0.0678782	-0.019629918	0.08136363	-0.021198157	-0.04202782	0.014475413	-0.010531269	0.005245977	0.039094906	-0.03965288	0.029127974	0.048497032	0.01617897	0.03547846	-0.04298168	-0.042282075	0.030030906	-0.016983407	0.04146658	-0.12821482	-0.03381838	-0.009786913	0.04205371	0.075627044	-0.048725702	-0.011140504	0.015709922	-0.02298965	-0.009073261	0.011647401	0.0071402756	-0.01014172	-0.021709278	0.06455965	-0.075856805	-0.059207465	-0.016500466	0.033791553	0.014042079	-0.011856481	0.040145684	0.04033656	0.040808726	-0.0071036695	-0.06524054	0.013276148	-0.0047618183	-0.007830525	-0.017321298	0.025346631	0.0053873896	0.054100893	0.100776866	0.022122968	0.046068214	-0.009767938	-0.07144643	-0.013541146	0.0070629055	0.006151526	-0.07479564	-0.026604421	-0.085561335	0.0052746674	0.010101562	-0.004312476	-0.021697223	0.07913645	0.019724919	0.02833288	0.02738291	-0.04986683	0.083411835	-0.036660112	0.047888875	-0.043279614	-0.009823906	0.0051651094	0.01538553	-0.008787139	-0.07180352	0.01220958	0.0059738085	-0.014352541	0.02763002	0.0022477773	-0.01422574	-0.008951903	-0.038527627	-0.111994594	0.032253627	-0.06974266	0.0025220066	0.02661851	-0.051281963	-0.025680462	-0.0635784	0.0021153581	-0.020025924	-0.0127819665	0.05688632	-0.02187018	0.005308399	0.010956086	-0.05951632	0.015578712	-0.08880513	0.048833862	0.0046043852	0.01827905	0.017064989	0.0037398275	-0.082300715	0.0966371	-0.04444962	-0.0016057332	0.12278415	0.02209035	0.0012798267	0.05210869	0.0086661	-0.0067213904	0.046849288	0.037317835	0.004729929	-0.03180767	-0.037138283	-0.014760557	0.02119118	-0.018538622	0.014613538	0.32828546	-0.049139164	-0.054758765	-0.031673163	0.05653572	-0.044388823	-0.047980066	-0.019004412	0.109923735	-0.0008598048	-0.056589384	-0.025554564	-0.027253129	-0.022054844	-0.027828284	-0.0010906124	-0.023078248	-0.028143615	-0.02843672	0.051929098	0.0043626083	0.059633464	0.018894881	-0.18879537	-0.007506953	0.05738063	0.011202217	0.009519198	0.10837533	0.01461033	0.01453981	-0.059725787	0.040372156	-0.00094204175	0.018415904	0.0010230441	-0.01283499	-0.014052471	-0.08137678	-0.026159178	-0.033701826	-0.008077077	0.034041896	0.041745145	0.054409195	0.037766833	-0.030543186	0.06490539	0.012291011	-0.040420353	-0.0103514055	0.014097176	-0.026597118	0.07876026	-0.025148269	-0.042628847	-0.003246708	0.060002614	-0.010563669	-0.021891452	0.0025010144	-0.028302256	0.021464879	0.010658991	-0.06775495	0.056855146	0.002236628	-0.017267589	0.02256636	0.044412535	-0.046665907	0.022717798	0.010990874	-0.038732234	-0.031972557	0.005458487	-0.02832232	-0.079355024	0.06986866	0.022285048	-0.0034796046	0.005036353	-0.020290278	-0.018548505	0.063241325	0.001283148	0.05866936	-0.022443583	-0.082525946	0.012729952	-0.033251356	-0.014890523	-0.007019582	0.010370451	-0.06773178	0.015688296	0.014482589	-0.029553609	0.0577716	-0.033322673	0.0064290375	-0.036812346	0.014119231	0.07331825	-0.041252468	0.031523332	-0.004773678	-0.022539726	-0.024054108	-0.0070272433	0.0059195445	0.0033634815	0.008684757	0.012525706	0.011508921	0.0322854	-0.007593599	-0.026594382	0.051587593	-0.014137877	0.021539835	0.07158966	-0.031055382	-0.021127505	-0.10267346	-0.0030197052	0.039488308	0.067880735	0.012733423	-0.06885	-0.032620095	-0.009596993	0.034404196	0.02102171	-0.0634501	0.0065802517	-0.02233771	0.05906288	-0.06414737	-0.065221354	0.01504142	-0.04786479	0.024505775	-0.07258528	-0.03847429	-0.025507867	-0.0065597347	0.022571694	-0.043663193	-0.06166739	0.011841288	0.011884243	0.027452517	-0.0014737783	0.0030232873	0.056148294	0.032811873	-0.010694828	-0.010617637	-0.017652094	0.010314447	0.005945827	0.048388433	0.044727765	-0.100519516	-0.025403973	0.02285246	0.03709525	0.05172062	-0.0016740387	-0.07164874	-0.02570187	0.0045746733	-0.010882236	-0.0052395584	-0.047884125	0.0076499954	-0.03862694	-0.00235122	-0.022041524	-0.02815119	0.062794924	0.065149955	0.0755489	0.045611292	0.031248968	0.08182003	0.0039581438	1.9622645e-05	-0.0040075663	0.020000841	-0.029761642	0.023640065	-0.07074407	0.020935128	0.072128475	0.022513932	-0.0031337093	0.034951832	0.01200286	-0.06410271	-0.03355855	-0.0056413873	-0.046977155	0.052187826	-0.08945869	-0.026293823	-0.01539945	-0.0255074	-0.061045595	-0.0013383043	-0.01067306	-0.0022421048	-0.052284375	-0.026642963	0.03654616	0.0058018467	-0.012636354	0.039066114	0.04101638	-0.00032184596	-0.016442873	-0.018347912	-0.0026176164	-0.005887689	0.029527774	0.05241947	0.016018057	0.008970921	-0.03638989	0.02655836	0.020565303	0.003927619	0.0061306613	0.04265692	0.035513144	-0.020611111	0.02962073	-0.029193038	-0.015864946	-0.045517314	0.06416357	-0.016157946	0.0024968402	0.02370603	-0.0016551927	-0.002088321	0.055176273	0.03161156	-0.0028035769	0.010261922	0.043128587	0.0013743564	-0.024427652	-0.0021868777	-0.007931789	0.034211498	-0.0054752287	0.034796134	0.017957738	-0.04267167	-0.012294066	-0.032696597	-0.013428624	-0.050759356	-0.043791503	0.012628734	0.08166382	0.016200654	-0.007479321	0.02617356
EX_SPEC_CIRCULR_RANGE_sw_1_2_s_1_2_oc_query.txt	-0.013013213	-0.008169049	-0.027121523	-0.016255094	0.006402862	-0.02497345	0.023237217	-0.021170592	-0.021229958	-0.053957872	0.011567989	0.007321266	0.031849384	0.05262518	0.015556035	-0.09936357	0.017890468	-0.057210904	0.012869044	0.033640258	0.04302796	0.026419498	0.0063155936	0.038391482	0.021786612	-0.051314484	0.027123647	0.020529144	0.012295964	0.013685115	0.017423948	0.06426141	0.021072444	-0.02808964	-0.018776502	-0.048455764	0.019831426	-0.028153425	-0.0059055486	0.0127741955	0.010286581	-0.02249258	-0.011072174	0.011569275	-0.042238183	0.0038371447	-0.0024857258	0.030224724	0.016346538	-0.022313075	-0.03524631	-0.041405834	0.02243911	-0.05974065	-0.003075177	-0.05083125	-0.027148701	0.007256155	0.06298293	-0.020139692	-0.04735673	0.022159534	0.006070866	0.009402414	0.032647632	0.045327738	-0.022298196	-0.038964055	0.0033539338	-0.03820811	-0.033853225	0.0023984069	0.015366341	0.0022933576	-0.005125308	0.03602632	0.0019650133	-0.05040652	0.06992477	-0.034622967	0.0078093926	0.03916092	-0.027827336	0.04154977	0.03043451	-0.021972427	-0.06733851	-0.00018640223	-0.03621751	0.026708765	0.025632264	-0.027562572	0.020784887	-0.029479222	-0.023042424	0.02264208	0.023539873	0.002544052	0.33250058	0.0032798427	0.00065142335	-0.0049855607	0.048990604	0.030519255	0.046483118	-0.04147533	-0.019098798	-0.0136150755	0.028430993	-0.0023843525	-0.0064607654	-0.007824961	0.06858716	-0.004517412	0.04608328	-0.039562356	0.048671864	0.024618782	-0.011758776	0.05800782	-0.035903383	0.06299947	-0.0122276535	0.0016466331	-0.010050511	-0.0619969	0.042542946	0.031279467	-0.01032076	-0.13468899	0.029098721	-0.046478212	-0.051493347	4.9054834e-05	-0.052085906	-0.0068894126	0.017344851	0.0032514	-0.068450876	0.029455954	0.041379243	-0.039530322	-0.030795665	0.05268524	-0.0015605672	-0.0052752625	0.007806167	-0.045381416	0.07305343	0.042002138	0.00028523864	0.061654568	0.028480232	-0.095256016	-0.03163544	0.039858397	0.022135451	-0.049916904	-0.007092678	0.043411117	-0.033222258	0.030074878	0.029790517	-0.01455307	0.030000368	-0.00818262	0.0037963183	-0.005506905	-0.026155356	0.036560696	0.03188678	0.024064377	0.011419504	0.022188514	-0.053684786	0.027022937	0.00011878507	0.03010807	0.0074965423	0.059354372	0.047274698	0.022279214	0.03235114	-0.011509317	0.050889514	-0.035522107	0.0018154753	-0.03501323	-0.05836329	0.019163642	-0.037705015	0.015593184	0.0024665976	0.009025165	0.08250809	0.0071854275	-0.03095679	-0.015132194	-0.036491115	-0.043455075	-0.01598502	-0.029990744	-0.0020757262	-0.0794075	0.0015145865	0.006364991	-0.043875895	0.0048730676	-0.017529776	-0.006240473	0.04016321	0.0063144118	0.06838607	0.051331222	-0.045737915	0.037063595	-0.0014047658	0.022725692	0.034052905	-0.023505969	0.053730346	-0.026505446	0.015152036	0.016618233	0.023349734	0.0071867006	0.10362662	0.009950905	0.05608279	0.021596888	0.013975735	-0.05585006	0.02098415	-0.04002269	0.03592546	-0.033105835	-0.058832884	-0.043038942	0.0542576	-0.07145285	-0.043198608	0.41015592	0.01259114	-0.013156701	-0.0012135908	-5.1473537e-05	-0.06023519	-0.013611258	-0.031554732	0.09909483	-0.029416146	0.0062868632	0.0039821467	-0.03942524	-0.03702828	0.016021196	0.055538107	0.054558683	-0.026600838	0.022854786	0.029791133	0.013128945	0.06186217	-0.0170293	-0.20924912	0.05708407	0.023984274	0.046582393	0.010461518	0.025884748	0.043335833	-0.001520898	-0.014260433	-0.023903273	-0.0859745	0.026032858	-0.008339484	-0.03561595	0.024453113	0.03070936	-0.018044485	0.008646923	-0.054808438	0.0020009065	0.021919092	-0.0114963	0.04676783	0.032542907	0.07030336	0.006061382	-0.007701579	-0.07210579	0.0064672795	-0.04752706	0.017374609	-0.050442543	0.020862332	0.05185291	-0.0017881362	-0.0045540775	-0.03934772	0.042830423	0.09378337	0.04337202	0.0014461976	0.040481456	-0.017304776	-0.03209349	0.054154977	0.051878378	0.01552285	-0.020497708	-0.009305155	0.054712605	-0.015796602	0.07547957	-0.023246275	0.010394348	-0.07257091	0.055575404	0.02093177	-0.04279072	-0.007447053	-0.025318319	-0.09303111	0.047214277	-0.008171205	-0.042170685	0.009938307	-0.054937832	-0.009793217	-0.030160451	-0.002398667	-0.02819584	0.01741751	0.018937824	-0.005832452	-0.013128066	-0.013530335	-0.010748532	-0.0060285036	0.0010522595	0.013139929	0.03483503	0.02878954	-0.036784075	0.019578887	-0.047197472	0.005324656	-0.0032055047	-0.030606946	-0.01741905	-0.019381756	-0.05103591	-0.03938711	0.031181522	0.014484437	-0.022583619	-0.047941945	0.0072536324	-0.00866088	0.017230026	0.04325077	0.008734021	-0.06708947	-0.05686598	0.033835396	0.034789078	0.012970538	0.0015753709	-0.027704015	0.02770625	-0.016947983	0.024958907	0.0031088148	-0.02179428	-0.0025480506	-0.070494056	0.01100695	-0.0033900568	-0.019935915	0.018571222	-0.0031440572	-0.03454519	-0.046603967	-0.009281063	-0.04802127	-0.0122946305	0.035512805	-0.041517265	-0.048026267	-0.074864104	0.078588955	0.04258334	0.05249404	0.018394703	0.0109648965	0.03142482	-0.001353393	0.038585905	0.014522237	-0.013953916	-0.0116249835	-0.006071613	0.013862608	-0.03279169	0.018982485	0.0046128514	-0.0004901995	-0.023976311	0.017047424	-0.041990113	0.0025008412	0.064293794	0.009029798	0.055352837	0.011207295	0.05317739	-0.04230922	-0.0027155695	-0.034389216	-0.08550545	0.059840363	0.072886646	0.03736133	0.015451967	0.02764388	0.0781086	0.07505004	-0.020586023	-0.01109743	0.007573151	-0.0027317607	-0.018532645	-0.040835828	0.021855544	-0.007227205	-0.055654336	-0.030192927	0.00813476	0.054843277	-0.071963474	-0.017536074	0.027498169	0.011912967	0.06711979	-0.03206318	-0.021758368	0.019349083	-0.047424313	-0.014360262	0.03181774	0.057472967	0.049445067	-0.05757634	0.032705393	0.00797667	0.02496093	0.051292732	-0.04478615	0.070941985	-0.007963649	-0.01927774	-0.057152413	-0.010339868	0.0041919746	-0.04443203	-0.027318584	-0.009676732	-0.024236726	-0.02235982	-0.038777612	0.018867081	-0.020046415	0.03594964	0.012096837	0.029968835	-0.042072643	-0.044492964	0.05941666	-0.028933445	-0.03647799	-0.0041855113	0.024240844	0.026884252	0.011306098	0.043369927	-0.014468542	-0.03100757	-0.015268132	0.037561838	0.009772227	0.08684038	0.02490269	-0.0033323185	-0.02733733	-0.0025199186	-0.06220665	0.036498133	0.023387745	-0.018849676	0.020014096	-0.039253205	-0.030379156	-0.057101138	-0.00063051627	-0.08763603	0.01766266	0.0074239387	-0.0011750915	-0.03894126	0.0043811155
EX_SPEC_CIRCULR_RANGE_sw_0_7_s_1_2_cc_1_query.txt	0.012789979	-0.025374083	-0.036274448	0.011732098	0.05927901	-0.036839902	0.013452119	-0.0430484	-0.006282034	-0.04142036	0.012039083	-0.005699132	0.035335213	0.027398227	0.050669823	-0.08494458	0.02909144	-0.045541417	-0.010025393	0.05647615	0.030472802	0.019171646	-0.009901574	0.021281965	0.0047773216	-0.072665654	0.0027878622	0.011088057	-0.012200104	0.023340037	0.031971566	0.033275314	0.016131058	-0.005198942	-0.061693814	-0.04530034	0.014790928	-0.006774318	-0.01482561	0.019616976	0.0021429209	-0.024375424	-0.040613834	0.008546029	-0.027335558	-0.0021303694	0.01118525	0.031227011	-0.027801482	-0.020507535	-0.0523222	-0.06610506	0.025966752	-0.036897384	-0.003987021	-0.06669987	-0.008516204	0.020339854	0.06511868	0.005371384	-0.044828776	-0.0007828902	0.00838057	-0.0045607635	0.04943	0.029993968	-0.0074594696	-0.09372191	-0.017926747	-0.01134313	-0.04807221	0.017969359	0.020694481	-0.028094335	-0.027884508	0.021296142	0.03358751	-0.027004693	0.0663747	-0.054448776	0.053677067	0.048201412	-0.0037327833	-0.014715492	0.04393493	-0.035122927	-0.037255153	-0.00838584	-0.03444901	0.047917563	0.02875727	-0.043693773	-0.01072671	-0.022464318	-0.049890026	-0.002095432	0.023631837	-0.007864381	0.36594713	0.029719632	0.007890614	-0.08697136	0.035175838	-0.016902348	0.03043599	-0.009271134	-0.01260138	0.018067248	0.010983825	0.014412415	0.012778743	-0.014292699	0.06000726	-0.019239627	0.019209556	-0.0514184	0.026801681	0.04940666	0.004902321	0.045734942	-0.026953662	0.057259463	-0.015326873	0.031447854	-0.029245483	-0.04898585	0.029356593	0.028043963	0.003957079	-0.13266918	-0.005653587	-0.027993876	-0.02885072	0.0074096136	-0.050707802	-0.03152225	0.011007734	-0.041745573	-0.030348362	-0.0148380175	0.02861367	-0.04493578	-0.025016014	0.030702777	-0.017338429	-0.008410948	-0.015250356	-0.032716602	0.04930672	0.039008584	0.010157072	0.08301609	0.05619212	-0.082553566	-0.010770421	0.03938629	0.0086019365	-0.046597764	0.020577695	0.052075237	-0.029966235	0.025041096	0.027526664	0.042340025	-0.0064056264	-0.008684108	0.010621559	-0.009435296	-0.010148675	0.02030194	0.011123579	-0.004676816	-0.0006938793	0.017720124	-0.052310616	0.010791932	-0.02211765	0.053279486	0.02264777	0.06644188	-0.0005363184	0.029479139	0.0411154	-0.03837568	0.04979125	-0.029040933	0.004202591	-0.038555913	-0.03661791	0.031687237	-0.03775032	0.024251422	0.02299865	0.044036116	0.058926955	-0.0024928236	-0.033094894	-0.067024186	-0.025178658	-0.023884721	-0.0045807143	-0.056496687	0.0027124982	-0.041594647	-0.012998222	0.023630818	-0.027741652	-0.021585228	-0.005806857	0.008653553	0.016891804	-0.001474141	0.038628846	0.055317834	-0.0667276	0.013881706	-0.001069931	-0.007448429	0.018111372	0.003226929	0.053469986	-0.00011301266	-0.0008514645	0.022857696	-0.02295962	-0.015421031	0.08713208	0.0007461126	0.02064749	0.06789501	0.012037956	-0.08278047	0.010427762	-0.011920878	0.028507296	-0.022514801	-0.06732129	-0.020563902	0.055628434	-0.047014005	-0.034124702	0.44525158	0.00360112	-0.033525195	0.00094688626	0.024965866	-0.046812914	-0.0141297355	-0.011665258	0.06729232	-0.030236445	0.024821289	0.04050654	-0.021063464	-0.050270997	0.016822487	0.029727422	0.045950294	-0.031667426	-0.005551993	0.04187009	-0.02443788	0.082326606	-0.0404984	-0.22312747	0.012834744	0.015301911	0.039675675	0.024852196	0.036297463	0.04785523	0.017805813	-0.018946214	-0.0067020655	-0.07022843	0.03920342	-0.005907258	-0.021102237	-0.019139854	-0.0015515016	-0.0489048	0.00065982563	-0.013088781	0.0091933105	0.050731804	-0.005749446	0.024940705	0.06320026	0.07131654	-0.0038944983	0.028362725	-0.03711773	-0.026459299	-0.0113880765	0.020445548	-0.0483464	-0.02516305	0.04226965	0.0007589686	0.016358588	-0.034484133	0.04499836	0.048008326	0.03901474	-0.0048946296	0.0034399882	0.005927311	-0.046452712	0.039785888	0.03261614	0.020235712	-0.010552532	0.030319229	0.019641103	-0.011108296	0.07050237	0.011183082	0.0076178154	-0.0739864	0.040383033	-0.0022651262	-0.028433891	0.008611401	-0.031421635	-0.055935066	0.0456716	-0.0025582411	-0.04323242	0.0108381715	-0.03931023	-0.016039047	-0.031106977	-0.010793765	0.006919554	0.014762294	-0.0076714996	-0.0004453443	0.025188359	0.011726061	0.021928461	-0.019697724	0.030313646	0.02151346	0.021647563	0.020266967	0.0051758485	-0.029651113	-0.052720957	-0.029032925	0.03144838	0.002408401	-0.030811908	-0.02767397	-0.005713461	-0.011724813	0.012843832	0.027617611	-0.041551135	-0.08129839	-0.00056696864	-0.013971644	-0.010561042	0.027308552	0.01371306	-0.0827673	-0.028674848	0.027243726	0.072137624	0.0040325685	0.00063069526	-0.031516094	0.0061325016	0.033127043	-0.0043925736	-0.008466453	0.033643503	-0.024289494	-0.061585385	0.019048775	-0.014286716	-0.0601382	0.008907414	-0.0026409295	-0.006104665	-0.05626919	-0.014158869	-0.03250713	0.014287105	0.03266923	-0.046509676	-0.07887001	-0.0281136	0.0687334	0.03579169	0.038549278	0.025933791	0.0146025205	0.03139643	0.010696796	-0.002226874	-0.013048427	-0.022921015	0.0050787874	0.033429533	0.023176724	-0.045699477	0.036359105	-0.013585534	0.0017918977	-0.038169783	0.00624447	-0.072420046	0.014586697	0.009656167	0.029241657	0.0018575252	-0.018225232	0.030762708	0.0024409245	-0.019705808	-0.035978325	-0.050233148	0.025926676	0.03839496	0.04022229	0.03591531	0.01897317	0.021440398	0.059693873	-0.0076907207	-0.029533755	0.037093423	0.020731388	-0.013323783	-0.043488994	0.040368877	0.06598496	0.030719453	0.013121845	-0.00050440425	0.016080914	-0.06432044	-0.017728338	0.021705125	-0.025433721	0.0860402	-0.026955236	-0.0076533663	0.013369475	-0.06867558	-0.049818967	0.011399489	0.02918564	0.049587563	-0.04753174	-0.01116958	0.019117383	-0.01569004	0.028865108	-0.041801892	0.03274174	-0.017140575	-0.00699812	-0.07631183	-0.03186677	0.0056306003	-0.041482657	-0.006794266	-0.0030064085	-0.025544263	-0.007445103	-0.01857627	-0.014531354	-0.016716918	0.04655435	0.027092395	0.028587636	-0.010633307	-0.020057974	0.022119284	-0.020218495	-0.044875376	0.047487404	0.00464537	0.014818398	0.017079307	0.030515347	-0.035888843	-0.02853315	-0.043606732	0.02060028	-0.009067886	0.07101011	0.050864074	-0.0354006	-0.04663098	0.0028013547	-0.048185922	0.020551952	0.026308121	-0.020838948	-0.011771838	-0.066620596	-0.03607465	-0.05144175	-0.028336102	-0.06510374	0.00641315	-0.03414095	0.013250262	-0.048186064	0.011037758
multi_layer_circular_m_2_s_0_5_cc_0_query.txt	-0.07378964	-0.067336954	-0.0034919519	-0.015907908	0.029795442	-0.054940335	0.016998706	-0.057135798	0.06374612	-0.048168484	-0.014114129	-0.023195067	0.03790837	0.06101937	0.035926957	-0.10636157	-0.010843769	0.03221026	0.0022920244	0.0242886	0.044528075	-0.0075029554	0.0146378195	0.029541677	-0.0067317276	-0.022587825	0.05539812	0.032245625	-0.005557075	0.00016171916	0.012485594	0.031537313	0.06460964	-0.0039750836	-0.08081449	-0.09280747	0.028881771	-0.0034218123	-0.0040080207	0.062472668	-0.010431756	-0.014207143	-0.024282282	0.010116728	-0.0056318226	-0.0046671364	0.024647864	-0.053461	-0.032501232	0.04072068	-0.017458864	0.03984517	0.035837412	-0.053966768	-0.038188044	-0.029457295	-0.011994602	0.03977902	0.065709494	0.044883803	-0.036015436	0.010042547	-0.031990726	-0.009643143	0.06904597	-0.031140367	-0.017248923	-0.006813026	0.010129581	-0.022534717	-0.02808551	0.006254025	-0.03439197	-0.010392753	0.007139558	0.03881336	0.03142992	-0.018290557	0.07305297	-0.03424212	0.00080748857	0.027148802	-0.04855008	-0.0043774643	0.036041044	-0.03135379	-0.072097585	0.012160014	-0.031506818	0.00628538	0.043831132	-0.025330516	0.04102828	-0.04554082	-0.046503816	0.0026439177	0.027570108	0.028259868	0.32558432	0.03400592	0.0058389767	-0.013704244	0.049516376	-0.01326955	0.07175158	-0.012360607	0.007463526	-0.029490726	-0.02438205	-0.0116502	0.02556037	-0.048555035	0.016156787	-0.012272017	0.012267114	0.023911968	0.04184828	0.06637842	-0.0013784696	0.019784583	-0.013469031	0.032056592	0.0029669479	-0.017364882	-0.004639264	-0.02386494	-0.009538761	-0.033316907	-0.015584238	-0.13445108	-0.0031228247	-0.03828811	0.005996856	0.005708621	-0.047880158	-0.0024059054	0.015043993	0.016209511	0.0006521962	0.009884704	0.038237777	-0.06975363	-0.04689657	0.05149214	-0.01687782	-0.038208824	0.01485099	-0.07275115	0.04369794	0.038468644	-0.0073395907	0.09139342	0.05581782	-0.0798391	-0.032784395	0.081199005	-0.0026210055	-0.04493003	0.055788126	-0.0033359039	-0.023628062	0.011592839	0.046231948	0.023306152	0.028473789	-0.01798419	-0.0800659	-0.04530489	-0.059739023	0.020499637	0.066935346	-0.016637461	-0.059867878	-0.0051852684	0.0037912978	0.005048885	-0.017889123	0.05419053	0.0026218502	0.04533683	0.04133233	0.010393418	0.028744567	-0.03771637	0.011633624	0.003368629	-0.042670783	-0.040654834	-0.047201414	0.020029545	-0.018853882	0.0131956665	0.046975557	-0.031401005	0.06503489	0.017614212	-0.043159813	-0.036831398	-0.009335507	-0.0018296991	-0.026526468	-0.029656807	-0.017333426	-0.0056727026	-0.00071327924	0.03787499	-0.025814317	0.004595186	0.01696841	0.05332758	0.031594872	-0.027088935	0.057803504	0.013338902	-0.10510433	0.035238784	-0.034174833	0.048015106	-0.013305021	-0.0057928073	-0.012540233	0.01631813	-0.07097375	0.050956544	0.005430058	-0.015410697	0.11197067	-0.03453016	-0.000548584	0.06004519	0.031923406	-0.03390795	0.0074399593	-0.055992275	0.033979714	0.0044395933	-0.07022913	-0.08631648	0.062094223	-0.023794785	-0.027242178	0.3876985	-0.008304085	-0.03559607	-0.006708187	0.054105353	-0.010659058	-0.028039312	-0.01487162	0.08573353	-0.024347777	0.022375645	0.009307743	0.025448505	-0.025604464	-0.012550647	0.057222635	0.042463854	-0.054494984	-0.069807194	0.06336819	0.001965639	0.0531101	-0.018411158	-0.20680511	-0.0136363525	-0.0066811834	0.012844385	0.01824979	0.045457322	0.051642686	0.03131736	0.008839812	0.06804038	-0.034134977	0.008576609	-0.012512111	-0.04223134	-0.027147986	0.003547519	-0.03065817	-0.017964767	-0.02184515	0.004756795	-0.00023799314	0.0073262104	0.06263376	0.0043498287	0.050460577	0.05108076	-0.032264102	-0.036967795	-0.017574891	-0.05115906	0.040170476	-0.05470054	-0.057456013	0.039878286	0.041619994	0.03149068	-0.02592182	0.035464667	0.0298626	0.07301727	0.040243	0.003227654	-0.022925856	-0.05046821	0.0040223612	-0.018597262	0.01990535	0.016749132	-0.021060629	-0.032688823	0.0115168225	0.042004593	0.011470076	0.0011548646	-0.06433146	0.042738937	0.047054637	0.017916253	-0.03346474	-0.01071686	-0.04442076	0.025712902	0.034517866	-0.018966554	-0.03728386	-0.02322527	0.010047563	-0.06309088	-0.01421412	-0.014371691	-0.011383564	0.0023432306	-0.05203264	0.00024889363	0.027216202	0.03415652	-0.005068629	0.012135475	-0.015281715	0.010088914	0.058435313	0.0037190244	0.002096314	-0.06871617	-0.03917006	-0.014722423	-0.03500163	-0.053406708	0.042222213	-0.03651608	-0.010199329	0.04562821	0.028608438	-0.06040556	-0.071219325	-0.020195058	-0.0283987	0.018648278	0.06089801	-0.01920632	-0.04510539	-0.049962755	0.012309756	0.03470442	0.022156175	0.022743372	-0.005792469	-0.0069422596	0.009825827	0.016615251	-0.036133077	0.0059082787	0.039467484	-0.04259046	0.02402502	-0.03323225	-0.041623455	-0.008787682	0.0069437656	-0.021337014	-0.03325243	-0.05858325	-0.040195864	-0.016516654	0.0066869496	-0.019812603	-0.055102143	-0.0038837637	0.061855067	-0.019373279	-0.001079378	-0.0003783669	0.05181708	0.026024893	0.016957538	-0.017093938	-0.032814868	0.0057438263	-0.010577265	0.0037536938	0.030736664	-0.04296305	0.04434256	0.016843114	-0.025285069	-0.005643533	0.009263022	-0.083663166	0.02650878	0.014156579	0.06281411	-0.0123781115	-0.017818127	0.043210175	-0.032215	-0.0047959043	-0.043630037	-0.047445428	0.05017937	0.0533832	0.022194762	-0.029539118	0.0563679	-0.023180794	0.030565063	0.018561497	-0.025850005	0.036866385	0.0096435705	0.008635223	-0.075804025	0.036489468	-0.010348161	0.040006716	0.023210509	-0.015894853	0.019502476	-0.047561098	-0.0007498095	-0.019407572	-0.028552648	0.07166206	-0.043503173	0.0308389	-0.04500372	-0.05998922	-0.061147735	0.028458407	0.026283065	0.023977987	-0.055988763	0.017929334	0.010972692	0.012591781	0.010420844	-0.03771542	0.030988703	0.016533013	-0.009278131	-0.057726175	-0.04182044	-0.012636874	-0.03683896	-0.019570176	0.02248354	0.0006182239	-0.008756752	-0.002296459	0.011417054	-0.04614502	0.0025258719	0.05183264	0.070401475	-0.054484934	-0.031401478	-0.025491036	-0.042285528	-0.032264	0.05149516	0.015137432	-0.000121667974	-0.047753684	0.04527824	-0.023162827	-0.0133266095	-0.0075372173	0.029245215	0.0076299375	0.05803668	0.013399875	0.0041959938	-0.04694997	-0.0013015642	-0.014514199	0.04155353	-0.0135820275	-0.014066579	0.021711566	-0.04697278	-0.058807272	-0.03168791	-0.0073772804	-0.055212013	0.008660658	-0.036560405	0.019723943	-0.03753473	0.022120358
