file_name	dim_0	dim_1	dim_2	dim_3	dim_4	dim_5	dim_6	dim_7	dim_8	dim_9	dim_10	dim_11	dim_12	dim_13	dim_14	dim_15	dim_16	dim_17	dim_18	dim_19	dim_20	dim_21	dim_22	dim_23	dim_24	dim_25	dim_26	dim_27	dim_28	dim_29	dim_30	dim_31	dim_32	dim_33	dim_34	dim_35	dim_36	dim_37	dim_38	dim_39	dim_40	dim_41	dim_42	dim_43	dim_44	dim_45	dim_46	dim_47	dim_48	dim_49	dim_50	dim_51	dim_52	dim_53	dim_54	dim_55	dim_56	dim_57	dim_58	dim_59	dim_60	dim_61	dim_62	dim_63	dim_64	dim_65	dim_66	dim_67	dim_68	dim_69	dim_70	dim_71	dim_72	dim_73	dim_74	dim_75	dim_76	dim_77	dim_78	dim_79	dim_80	dim_81	dim_82	dim_83	dim_84	dim_85	dim_86	dim_87	dim_88	dim_89	dim_90	dim_91	dim_92	dim_93	dim_94	dim_95	dim_96	dim_97	dim_98	dim_99	dim_100	dim_101	dim_102	dim_103	dim_104	dim_105	dim_106	dim_107	dim_108	dim_109	dim_110	dim_111	dim_112	dim_113	dim_114	dim_115	dim_116	dim_117	dim_118	dim_119	dim_120	dim_121	dim_122	dim_123	dim_124	dim_125	dim_126	dim_127	dim_128	dim_129	dim_130	dim_131	dim_132	dim_133	dim_134	dim_135	dim_136	dim_137	dim_138	dim_139	dim_140	dim_141	dim_142	dim_143	dim_144	dim_145	dim_146	dim_147	dim_148	dim_149	dim_150	dim_151	dim_152	dim_153	dim_154	dim_155	dim_156	dim_157	dim_158	dim_159	dim_160	dim_161	dim_162	dim_163	dim_164	dim_165	dim_166	dim_167	dim_168	dim_169	dim_170	dim_171	dim_172	dim_173	dim_174	dim_175	dim_176	dim_177	dim_178	dim_179	dim_180	dim_181	dim_182	dim_183	dim_184	dim_185	dim_186	dim_187	dim_188	dim_189	dim_190	dim_191	dim_192	dim_193	dim_194	dim_195	dim_196	dim_197	dim_198	dim_199	dim_200	dim_201	dim_202	dim_203	dim_204	dim_205	dim_206	dim_207	dim_208	dim_209	dim_210	dim_211	dim_212	dim_213	dim_214	dim_215	dim_216	dim_217	dim_218	dim_219	dim_220	dim_221	dim_222	dim_223	dim_224	dim_225	dim_226	dim_227	dim_228	dim_229	dim_230	dim_231	dim_232	dim_233	dim_234	dim_235	dim_236	dim_237	dim_238	dim_239	dim_240	dim_241	dim_242	dim_243	dim_244	dim_245	dim_246	dim_247	dim_248	dim_249	dim_250	dim_251	dim_252	dim_253	dim_254	dim_255	dim_256	dim_257	dim_258	dim_259	dim_260	dim_261	dim_262	dim_263	dim_264	dim_265	dim_266	dim_267	dim_268	dim_269	dim_270	dim_271	dim_272	dim_273	dim_274	dim_275	dim_276	dim_277	dim_278	dim_279	dim_280	dim_281	dim_282	dim_283	dim_284	dim_285	dim_286	dim_287	dim_288	dim_289	dim_290	dim_291	dim_292	dim_293	dim_294	dim_295	dim_296	dim_297	dim_298	dim_299	dim_300	dim_301	dim_302	dim_303	dim_304	dim_305	dim_306	dim_307	dim_308	dim_309	dim_310	dim_311	dim_312	dim_313	dim_314	dim_315	dim_316	dim_317	dim_318	dim_319	dim_320	dim_321	dim_322	dim_323	dim_324	dim_325	dim_326	dim_327	dim_328	dim_329	dim_330	dim_331	dim_332	dim_333	dim_334	dim_335	dim_336	dim_337	dim_338	dim_339	dim_340	dim_341	dim_342	dim_343	dim_344	dim_345	dim_346	dim_347	dim_348	dim_349	dim_350	dim_351	dim_352	dim_353	dim_354	dim_355	dim_356	dim_357	dim_358	dim_359	dim_360	dim_361	dim_362	dim_363	dim_364	dim_365	dim_366	dim_367	dim_368	dim_369	dim_370	dim_371	dim_372	dim_373	dim_374	dim_375	dim_376	dim_377	dim_378	dim_379	dim_380	dim_381	dim_382	dim_383	dim_384	dim_385	dim_386	dim_387	dim_388	dim_389	dim_390	dim_391	dim_392	dim_393	dim_394	dim_395	dim_396	dim_397	dim_398	dim_399	dim_400	dim_401	dim_402	dim_403	dim_404	dim_405	dim_406	dim_407	dim_408	dim_409	dim_410	dim_411	dim_412	dim_413	dim_414	dim_415	dim_416	dim_417	dim_418	dim_419	dim_420	dim_421	dim_422	dim_423	dim_424	dim_425	dim_426	dim_427	dim_428	dim_429	dim_430	dim_431	dim_432	dim_433	dim_434	dim_435	dim_436	dim_437	dim_438	dim_439	dim_440	dim_441	dim_442	dim_443	dim_444	dim_445	dim_446	dim_447	dim_448	dim_449	dim_450	dim_451	dim_452	dim_453	dim_454	dim_455	dim_456	dim_457	dim_458	dim_459	dim_460	dim_461	dim_462	dim_463	dim_464	dim_465	dim_466	dim_467	dim_468	dim_469	dim_470	dim_471	dim_472	dim_473	dim_474	dim_475	dim_476	dim_477	dim_478	dim_479	dim_480	dim_481	dim_482	dim_483	dim_484	dim_485	dim_486	dim_487	dim_488	dim_489	dim_490	dim_491	dim_492	dim_493	dim_494	dim_495	dim_496	dim_497	dim_498	dim_499	dim_500	dim_501	dim_502	dim_503	dim_504	dim_505	dim_506	dim_507	dim_508	dim_509	dim_510	dim_511
rule-mark_p_0_sw_1_0_s_1_0_cc_2_query.txt	-0.005283302	-0.016074164	-0.010707398	0.032162882	0.029425437	-0.044068556	0.017705556	-0.025969993	0.02636176	-0.020065863	0.0039385357	-0.029651184	-0.007539033	-0.031385597	0.002483334	-0.02967223	0.04948644	-0.03744596	0.009098522	0.044106543	0.034053974	-0.023032432	0.024664989	0.04547183	-0.002171548	-0.042663157	-0.0057242997	-0.027268386	-0.007865463	-0.015687471	0.017034123	0.005397166	-0.0019297033	0.0100614345	0.0016104181	-0.008370269	-0.0298514	0.012881112	0.010729615	0.028992089	-0.0069639077	-0.018199693	0.010972083	0.048860528	-0.028268209	0.006303423	-0.002497618	0.013891112	-0.023829475	-0.030417526	0.011988119	-0.069405645	-0.010061995	-0.03559624	-0.045031834	-0.06763336	-0.02629654	-0.036293	0.034459256	0.029671771	-0.024040723	0.026874958	0.047355868	0.0039858846	0.04874789	0.03431664	0.03217528	-0.07453063	-0.034939155	0.0060546394	-0.04086907	0.037114274	0.027565073	-0.0016049758	-0.0013504918	0.035349686	-0.059319127	-0.04358631	-0.041605957	-0.06136402	0.06515993	0.023321424	-0.029699795	-0.056835596	0.03514084	-0.037057776	-0.0697551	0.031022182	-0.0070600966	0.028334668	0.03391806	-0.028849242	0.015563448	-0.009089872	-0.04983335	-0.02684349	-0.0340483	0.020190362	0.314213	0.03335088	0.008852696	-0.006174205	0.021851005	0.03746935	0.0025897685	0.03128501	0.01522868	0.04402912	0.038973972	0.004591989	-0.06649643	-0.032296777	0.07042468	0.011676113	-0.019603247	-0.023481859	0.07097246	-0.015655914	0.02158898	-0.013237063	-0.027438883	0.028547062	0.01299337	0.007861027	-0.015409381	0.015501058	0.06645687	0.028686123	0.03676219	-0.12327987	-0.026941296	-0.037689038	-0.002328353	0.02002352	-0.084453635	-0.008819024	-0.01763149	-0.03581352	-0.05477427	-0.033889536	0.007795982	0.04492973	0.011020577	0.04366077	-0.055914667	-0.08254582	-0.029905777	-0.0066910563	0.050538845	0.022088995	0.028245294	0.020711994	0.023774689	-0.024755705	-0.061188497	0.014764352	-0.0037432243	-0.033370703	0.03301694	-0.0007190167	-0.018074503	0.033981573	0.03245342	0.017550005	-0.0013264696	0.014418068	-0.03933027	-0.035409514	0.037450332	0.012041048	-0.062289912	0.0017872019	-0.03355959	0.008027034	-0.010905399	0.017378842	-0.047281254	0.058306593	0.0032338498	0.024580885	0.033073027	-0.045512624	0.07695367	-0.04331585	0.057832684	-0.021423016	0.035666667	0.0033198849	0.041062266	-0.034688435	-0.058959343	-0.019629616	0.08886351	0.015629685	0.0015200087	0.009072611	-0.035930887	0.00031624865	-0.056540243	-0.036520652	0.050406225	-0.059320476	0.041240133	0.0066026617	-0.011866978	0.027118884	-0.08338915	0.031064736	-0.029608987	-0.008563189	-0.01674791	0.056103285	-0.016433094	-0.0012721298	-0.009474406	0.042221375	-0.039559048	-0.023759538	0.01836015	0.0033724546	0.0604364	-0.03173018	-0.06573317	0.049784213	-0.0012912188	-0.024381272	0.10266159	-0.029584982	-0.014104306	0.03276187	0.04788765	-0.059035514	-0.016563177	0.018268077	-0.018562326	-0.018747138	-0.0484367	-0.015410709	0.0022276747	-0.062592685	-0.05278132	0.3761266	0.00737164	0.02833279	-0.004621559	0.020447895	-0.02138851	-0.07355186	-0.0044181785	0.09423498	0.012744114	-0.04927887	-0.008729054	-0.06881173	-0.0649789	0.0010370548	-0.006315435	-0.05280479	-0.0047535785	-0.035678625	0.048863813	-0.011900846	0.03182583	-0.011509303	-0.19440904	0.02257618	0.06517828	0.020085435	-0.002063839	0.0845773	-0.008826261	0.007034693	-0.033690605	0.05711092	-0.009515016	0.024248723	-0.0072155255	-0.04256484	0.017286899	-0.05509804	-0.023000123	-0.05956851	0.0046604583	0.0056670373	0.05090125	0.0059848092	0.011904415	0.0019985242	0.07570879	-0.0251325	0.018891567	-0.037248265	0.024939153	-0.052471247	0.045310814	-0.032685407	-0.029004175	0.0136579955	0.028548446	0.031226596	-0.03062418	0.0017174035	0.028273022	0.023059845	0.013781024	-0.034549974	0.06241705	-0.03384392	-0.044157747	0.038639214	0.041209314	0.005761058	0.02231378	0.030659527	0.010629057	-0.02659854	0.007033858	0.023588024	-0.04117206	0.0518887	0.001676198	-0.028834729	0.049214955	0.042638198	-0.07022736	0.051120363	-0.04559829	-0.010553456	-0.054753456	-0.060485896	0.0017580155	-0.014948012	-0.041396867	-0.0043017897	0.07786869	-0.0010669996	0.057677355	0.030143637	0.03331347	0.07743337	-0.045705136	0.0017296114	0.006143333	0.033726867	0.05638921	-0.06360634	-0.017521067	-0.024662415	-0.009132858	0.028724147	-0.011868621	-0.005460926	-0.005165216	0.004336438	0.027684828	0.0020331843	0.06128701	-0.033513978	-0.008336164	0.014598141	0.031008821	-0.03767175	0.07071039	-0.05286966	-0.045601852	-0.077427626	0.029498085	0.044555377	0.071203284	0.0017520586	-0.025166608	-0.026790764	0.017430624	-0.010283156	0.10235324	-0.05932768	-0.0022679067	-0.07387733	0.013273441	0.0060660783	-0.112876676	0.017676892	-0.00023149767	0.05716223	-0.04156945	-0.016021186	-0.041029908	0.03479005	0.07156881	-0.122437134	-0.021408753	-0.020978369	0.020881565	0.03852664	-0.06267112	0.03918517	0.013854265	0.023164812	-0.006784149	-0.05064311	-0.0004614007	0.010322171	-0.05895633	0.023036785	-0.009924934	-0.07382012	0.026225021	-0.00023608055	0.007747954	0.043415908	0.0071455124	-0.008849485	0.020618549	0.016090015	-0.038616184	-0.0015918085	-0.0050758985	0.08108357	-0.014428506	-0.04907731	-0.07460166	-0.05525326	0.048413754	0.02460903	0.04160493	0.06101621	0.014527909	0.008556449	0.051736847	-0.01756034	-0.03125625	-0.0064650825	-0.0034900857	0.020265628	-0.061054286	0.0087211365	0.12631336	-0.030879794	-0.026509836	0.008653681	0.017421518	-0.05895703	-0.061463427	0.015511259	-0.06662441	0.0056444644	-0.024602454	-0.029798996	-0.011729508	-0.022720378	-0.03400704	-0.016858866	0.0437146	0.020655565	-0.06006453	0.0098021785	0.011451056	0.00807094	0.04189076	0.019767791	0.043182045	0.02649504	-0.0255409	-0.017740134	0.01209274	0.0077694203	-0.0013601594	-0.00013587442	0.033895444	0.008710041	0.014700683	-0.0010818983	0.029166076	-0.019443188	-0.016138619	0.0037263103	-0.04995034	-0.043408662	-8.587179e-05	0.04002237	-0.00083628856	-0.03607327	0.06920502	0.018816821	0.035153598	0.072637476	0.00742543	0.019223139	0.040759873	0.019971425	-0.0029922137	-0.026750011	0.09063914	0.017643083	-0.016182356	-0.027847558	0.011462761	0.012554842	-0.01649041	0.010782786	-0.013225738	-0.03173546	-0.015052888	0.019863658	-0.019067204	-0.07149781	-0.011432781	-0.017470192	0.030920748	0.01758633	-0.02136516	0.033835012
EX_SPEC_RESPONSIVE_COMPARATIVE_MATRICES_sw_0_7_s_0_7_p_0_sw_1_0_s_0_7_cc_0_query.txt	-0.020330142	-0.009691977	-0.011342561	0.036991213	0.02366342	0.019144906	-0.02564877	-0.010894447	0.02070553	0.0008695644	0.04104188	-0.031114029	-0.0011526516	0.01178045	-0.031026782	-0.032210514	0.024783298	-0.020487798	-0.013318473	-0.019385535	0.04371972	0.028888948	-0.005506394	0.0061836666	0.012185221	0.05773846	-0.02647328	0.008041236	0.030848665	-0.0432346	0.014890608	0.025316628	-0.007702686	-0.026556322	0.049721643	-0.046333175	-0.083087444	0.010375472	0.02788141	0.040344298	0.020067932	0.009928681	-0.027556308	0.059261758	-0.034033738	0.013287899	0.04138818	-0.030333942	0.03905758	-0.049660508	0.059858195	-0.040822443	0.01691228	-0.04946122	-0.029346362	-0.046513326	0.00144921	0.022659194	0.035085537	-0.02347933	0.024219122	-0.018405238	0.025182849	-0.0102799935	-0.0290189	0.03889072	0.025136018	-0.018677695	-0.008587964	0.017643109	-0.055552006	0.047195733	0.077511325	-0.040521804	-0.013227002	-0.02366053	-0.02287881	-0.02486942	-0.05580269	-0.06351043	0.050885387	0.083809	-0.03219751	-0.0014312282	0.012143046	-0.04430758	-0.060295768	-0.026109377	-0.012771787	0.07277469	0.05014891	-0.03635307	0.05287617	-0.026725573	-0.07509602	-0.060521867	0.0015623469	0.016608233	0.34603053	0.0062007112	0.0071208896	-0.04942945	0.0258053	-0.02558854	0.0016051785	0.048095196	0.020838702	0.03280548	0.017532382	0.004248615	-0.08858369	-0.013294704	0.029298032	-0.026674928	-0.04760793	-0.016404718	0.015808325	0.041496463	0.041755073	0.01165819	0.02001856	-0.040131643	0.0077399737	-0.0005907816	-0.008905167	-0.004907221	-0.0010354484	0.0348429	0.019370899	-0.13285188	-0.021556139	0.044965565	0.04796032	0.028770609	-0.06195746	-0.031329766	0.028558765	-0.026644578	-0.047265094	-0.03281265	0.011093935	-0.020222116	-0.005840396	0.089333445	-0.017787317	-0.0802159	0.017640604	0.035176802	0.023269298	0.016063534	0.0660672	-0.012585675	-0.0013888523	-0.01972467	-0.05679464	0.004037212	-0.014261708	-0.06520515	0.045750707	0.032742463	0.005028076	0.024692642	0.015383027	0.0025900896	-0.019685341	-0.037306357	-0.057115763	-0.014959376	0.06617364	0.06326823	0.007783325	0.07629575	-0.094720446	-0.040201135	-0.026122408	-0.020395566	-0.028889375	0.045128025	-0.0049846107	-0.0056871385	0.032383237	-0.025632717	0.056320686	-0.041820586	0.028097024	-0.060116097	0.025518568	0.02185676	-0.002830468	-0.010359451	-0.06006187	-0.040347	0.024734806	0.025924828	0.06691097	-0.0008744211	-0.032711506	-0.04075004	-0.049420577	0.016519414	0.039054833	-0.03188796	0.01798759	-0.00075659464	-0.01823091	0.028855791	-0.03502687	-0.0034352806	-0.038838908	-0.00026559146	-0.0029497137	0.09125464	0.008438297	-0.020154439	-0.021464542	0.036635417	0.01969013	0.0106870495	-0.026024487	-0.0233351	0.006493331	-0.04260364	-0.031767603	0.038682315	-0.031589136	-0.052613385	0.08864374	-0.049446773	-0.009767842	0.007267467	-0.0480383	-0.011101686	0.00072736625	0.030910522	-0.0027929822	-0.039356418	-0.10574666	-0.010851413	0.05579299	-0.040643375	-0.008503184	0.41262394	-0.015731486	-0.019721922	-0.01683917	0.017304158	-0.0007544107	-0.03778916	-0.00638085	0.098378934	0.0023129475	-0.016659558	0.029617354	-0.07051297	0.006833546	0.019533534	0.026537009	-0.014283754	-0.013256086	0.02719653	0.05336646	0.0048414622	0.06241652	-0.020747298	-0.2191757	0.016413972	0.01190983	-0.039917085	-0.015461988	0.085625164	0.021452522	0.03681067	-0.046055395	0.054455865	-0.06528946	0.019585703	0.005498684	-0.03247179	0.017277362	-0.01777913	0.024907382	-0.037390657	-0.005923775	0.027480548	-0.018658854	0.005758418	0.038871605	0.00810078	0.0677586	-0.02944814	0.010693202	-0.047054764	0.011863337	0.00019175457	0.028037917	-0.02402151	-0.054534856	0.008419066	0.013190844	-0.01875869	-0.009555235	7.214703e-06	0.0057020863	0.04711798	0.033953488	-0.01924969	-0.0071188663	-0.025520746	-0.03524808	0.07527083	0.04847878	-0.020101603	-0.022329312	0.02787171	0.026195219	0.04186019	0.024649965	0.004593076	-0.013926857	0.003788062	0.005159516	-0.03254951	0.02357957	-0.01841855	-0.04773952	0.024633868	0.02323507	-0.02030375	0.0035541195	-0.037482932	-0.0049018436	-0.101849005	0.0045948825	-0.014334744	0.044795554	-0.041771077	0.049453128	0.031342175	0.029521326	0.01104816	-0.029347107	-0.04212656	-0.010341684	0.0067591043	0.06850214	0.0035937848	-0.026442625	0.04392304	-0.01846989	-0.04665995	0.034544423	-0.04757968	0.043581273	-0.0038498137	-0.013452786	0.009303809	0.090582766	-0.00789553	-0.047957405	0.037374154	-0.018524135	0.002884558	0.0044204406	-0.012374556	-0.011239202	-0.04156754	0.015543077	0.02375115	0.04485336	-0.0049368255	-0.028976241	-0.020338232	-0.010843544	-0.0020450565	0.058664728	-0.026246672	-0.002077705	-0.0005686095	0.041155268	-0.07262894	-0.058609236	-0.032378674	-0.016826129	0.03261433	0.008483958	-0.023562053	-0.035638284	-0.02097645	0.024308788	-0.08480611	0.014024861	-0.0060494	0.0006704679	0.025438601	-0.020455005	0.014282327	0.057328813	0.028008472	-0.009890458	0.029522633	-0.060116824	-0.037869006	-0.0800779	-0.023337482	0.031434935	-0.042861056	0.006676531	0.020606577	0.050481442	-0.03691001	-0.013028822	-0.038179763	0.02065107	0.045940798	-0.0005663415	0.029791446	0.004012854	0.010498102	-0.033691816	-0.018111343	-0.0217979	-0.026332155	0.036066405	0.019708255	0.007925072	0.00011246952	0.006731128	0.006566355	0.0036705884	-0.029990524	-0.028824158	0.056412376	-0.03216072	-0.030372612	-0.06130874	0.032093044	0.058516603	-0.035699762	0.016968748	0.04250519	0.030822644	-0.03875472	-0.05761127	0.014910673	-0.034652725	0.021028297	-0.059674215	-0.04354453	-0.049890377	-0.008540909	-0.09731314	0.010291695	0.034449413	0.055051666	-0.05102856	0.022412762	0.05141893	0.011188924	0.025289608	0.0069951043	0.026204452	-0.030894035	-0.039872803	-0.035314847	-0.035732195	0.014258892	-0.060417645	0.017100789	0.04202985	-0.0053160246	-0.028371697	-0.056791447	0.0035823353	-0.014508651	-0.0064088856	-0.009469256	-0.018927159	-0.011734814	0.034616888	0.030357813	0.048341382	-0.037492324	0.046211716	-0.04019633	0.018426437	-0.027221665	-0.008014488	0.024643881	0.01813722	0.008189117	0.0020334572	0.018037157	0.060240705	0.02771965	-0.055579774	-0.046545565	-0.0033958512	-0.028359642	0.034856386	-0.002835385	-0.045794196	-0.030360786	-0.03482642	0.017224355	-0.0111696385	-0.03178303	-0.018270161	0.005391445	0.0374663	-0.0020234615	-0.019295845	0.03548355
multi_layer_circular_m_2_sw_1_2_s_1_2_oc_query.txt	-0.08724718	-0.028455824	-0.019061746	-0.021910554	-0.0019400355	-0.004088916	0.03957038	-0.07518728	0.052818973	-0.05415485	0.040283587	0.03440442	0.014089445	0.039837144	0.010288619	-0.1124529	0.016475648	-0.03088056	0.0063562347	0.02791867	0.027867634	0.037250612	-0.0075640483	0.00451933	0.016690778	-0.050655615	0.015877543	0.023941064	0.0056024157	-0.012914218	0.03778257	0.029368805	0.07378283	0.0015704242	-0.051759306	-0.07928723	0.013703386	-0.02700889	0.021939171	0.07690676	-0.052842442	-0.0015388458	-0.012786077	0.017144658	-0.0035466088	0.040368076	0.041111488	-0.029186301	0.0025747034	-0.0030848612	-0.020548187	-0.042910736	-0.0047454373	-0.063763514	-0.0015752558	-0.010425027	-0.024174135	0.016170042	0.040995225	0.02055787	-0.030030321	0.039651938	-0.02451356	-0.015043521	0.049689665	0.027295213	0.014339363	-0.04397549	0.002807809	-0.03069655	-0.08498311	-0.0047731744	0.04643334	0.009528	0.0037470236	0.012638958	-0.00043460738	-0.0574306	0.05071572	-0.017932381	0.06845702	0.035301384	-0.011841955	0.006687112	-0.010004098	-0.019575981	-0.039663874	-0.02184143	-0.056078605	0.027856281	0.04084569	-0.03898585	0.054456603	-0.04080717	-0.03383003	0.009636408	0.024494845	0.010256361	0.35106426	0.04873869	-0.0005422104	-0.0010373482	0.04328918	-0.0049542515	0.042899337	0.0014508339	0.018760944	0.0059620547	0.009694521	-0.03453496	-0.004251328	-0.016260836	0.05767147	0.0027776521	0.036439657	-0.020998467	0.028678583	0.0014487694	0.021453861	-0.014411301	-0.026405301	0.020127505	-0.011243618	-0.005274412	-0.02091785	-0.0498563	0.028405013	-0.0011069151	-0.00557187	-0.11202761	-0.017433798	-0.03032864	-0.059059594	0.03332371	-0.060788274	-0.027766494	0.00861672	0.0064758193	-0.03926488	-0.023397949	0.06079184	-0.034300767	-0.08020695	0.052108712	-0.057071324	-0.038502276	-0.014654366	-0.054085948	0.04154394	0.02332019	-0.0057327687	0.07318796	0.035184458	-0.06394173	-0.062678315	0.040579528	0.015762702	-0.0016588587	-0.010657516	-0.012953319	-0.0012935065	0.009926101	0.009651588	-0.012894059	0.013371583	0.05616722	-0.04631009	-0.026985154	0.01912359	0.026809093	0.052154638	-0.0059768376	-0.031352755	-0.00938749	-0.004728239	-0.024863454	0.0017593938	0.044993434	-0.013471889	0.037675224	0.058545433	-0.017480703	0.039508995	-0.012589705	0.020938393	-0.0016465972	-0.048426636	-0.029022884	-0.025824035	0.0058998642	-0.046891503	0.032287735	0.04106693	-0.0010763175	0.09205013	0.010769379	-0.05166612	-0.053674072	-0.04960619	0.0011081346	-0.029452424	-0.030947516	-0.022929532	0.022757564	-0.005450031	0.04400359	-0.0074283187	0.0017630189	0.0045021167	0.0060943407	0.05283124	0.011457225	0.022270009	0.026472053	-0.04842421	0.009454547	-0.047256727	0.021226436	0.016699845	0.012515812	0.019482816	-0.0034524144	-0.0530717	0.07329467	-0.015085793	-0.020491345	0.057685643	-0.02715795	0.043373924	0.06432496	0.015711997	-0.08252871	0.013714787	-0.05358103	0.036269214	0.003950544	-0.050920628	-0.08944086	0.04281633	-0.030408204	-0.052606076	0.4386042	0.006213508	-0.076500855	0.0032209705	0.029757932	-0.029452033	-0.0042599537	-0.02872661	0.03279143	-0.04531327	-0.019800333	0.0052804328	-0.014713856	-0.0278377	0.010692413	0.041685335	0.020872088	-0.05026207	-0.040430628	0.07088708	0.0060646003	0.049901225	-0.013471087	-0.20787972	-0.003568137	0.04125044	0.004126667	-0.0060229176	0.030238258	0.014891122	0.07472916	-0.01631147	0.010581872	-0.045560893	0.02206999	-0.0032418673	-0.041998714	0.0030791007	-0.009990886	0.005926791	-0.026841914	-0.01157647	0.011665064	0.031238921	0.018392475	0.05561769	-0.011906127	0.05817209	0.022041991	-1.8676026e-05	-0.044374477	0.0027844417	-0.010724381	0.020408269	-0.047683015	-0.047575172	0.06110895	0.020453528	-0.038285747	-0.020509642	0.014832435	0.05698565	0.033042718	0.014183781	0.024464428	-0.016642626	-0.03577074	0.0065816045	0.009172591	0.06305724	0.046935245	0.0024192347	0.0046865693	-0.003271053	0.03565364	-0.012348504	-0.028557621	-0.032214325	0.020780275	0.05313303	-0.015041494	0.01135446	0.0051141083	-0.045734823	0.020834679	0.037260376	-0.043725252	-0.02741743	-0.057962038	-0.01142504	-0.08748836	-0.011090089	-0.012193519	-0.004466238	-0.021562317	-0.02746585	0.027172485	-0.037774093	0.0494584	-0.016757008	0.015808972	0.001753245	-0.008122822	0.029386034	-0.032738194	0.036097966	-0.072632454	-0.03801384	-0.024594598	-0.032817114	-0.066477716	-0.016052263	-0.000288932	-0.027099326	0.009262997	0.029451236	-0.054508325	-0.07716471	-0.023974394	0.007483997	-0.0062011653	0.07042599	-0.0010946929	-0.04102361	-0.10856835	0.023069087	0.025198936	0.016779855	0.029300516	-0.0075161885	0.0024849093	0.024469418	-0.008760111	0.05522299	-0.0278662	0.021590237	-0.055334948	0.07060496	0.00586051	-0.07547214	0.0042426176	-0.012042636	-0.019936454	-0.024924848	-0.036269717	-0.071694046	0.028254928	0.032238573	-0.040622983	-0.00018958666	-0.02962059	0.03934405	0.05370763	0.023709219	-0.01778873	0.020075902	0.036945455	0.022583084	-0.010076222	-0.022134546	0.0013183875	-0.014362944	0.004010116	-0.013942422	-0.03571282	0.049963143	-0.0002681638	0.053817786	0.010814426	-0.007966205	-0.03629919	0.0062085455	0.06430437	0.041858066	-0.0076809004	-0.0047154045	0.027094776	-0.05865522	-0.009932936	-0.023527574	-0.026129594	0.045925632	0.05607609	0.017306747	-0.0321292	0.0428421	0.04014627	0.0443597	-0.025009621	0.0069303983	0.008370735	0.016719105	0.006573921	-0.05531008	0.030345649	-0.008667081	0.025277253	0.027669972	-0.0048674783	0.016471649	-0.06707128	-0.051416755	0.013312704	-0.01246021	0.0808979	-0.07090757	0.017582338	0.014504488	-0.026203271	-0.03489636	0.019904638	0.071768075	0.006942507	-0.04962966	0.0020021137	-0.010440642	-0.00035916868	0.01927834	-0.015478144	0.04642756	0.042577073	0.007404428	-0.061504073	0.02291842	-0.016038831	-0.032632515	0.0044409647	0.036746163	-0.023225982	-0.028785564	0.018701846	-0.023986943	-0.036364976	-0.08776347	0.009301843	0.024923675	-0.029014507	-0.017987521	-0.00500658	0.0028346577	-0.02357611	0.0001558167	-0.004832975	0.027160095	-0.0045751086	0.012337604	-0.0054075047	0.0023398544	-0.03370556	-0.00094096735	-0.015089286	0.053775612	0.004243701	-0.001790066	-0.046201866	-0.023213059	-0.0018224942	0.007975229	0.032259375	-0.027311888	0.0046894094	-0.03695772	0.031784885	-0.037258986	-0.031603344	-0.054040145	-0.012716392	-0.04140529	0.0024830021	-0.044585977	0.011853023
gene_annotation_single_4_s_1_0_oc_query.txt	-0.057129182	-0.0018990532	-0.026038496	0.00486725	0.05631071	0.03741745	0.040862598	-0.038934194	0.0030945702	-0.006106923	-0.013066542	-0.018421924	-0.015586617	-0.046735063	0.041184265	-0.0660956	-0.008731795	-0.03783676	-0.012427393	0.036208894	0.02060329	0.016055465	0.031861406	0.039864436	0.020258471	-0.020372039	0.009612059	-0.014291223	0.002247935	-0.046137393	0.048015837	-0.022851774	0.0073426734	-0.019337969	-0.041384224	-0.025663817	-0.03796996	-0.009373063	0.007920112	0.056257807	-0.012428604	-0.015594496	-0.006067162	-0.029616738	-0.014141747	0.033386406	0.0118951	-0.013043733	-0.016350143	-0.0053606364	-0.0027879823	-0.053734556	-0.037846193	-0.063706845	-0.028413655	-0.05968495	0.005467064	-0.006774846	0.040501676	0.0668066	-0.06465005	0.016499508	0.013957461	-0.011322008	0.057074435	0.025691403	-0.04814809	-0.031754076	-0.015505331	-0.009102227	-0.040640015	0.033258986	0.035672396	0.013772044	-0.012112508	0.0554513	0.0026089111	-0.060046367	-0.035117395	-0.05733619	0.06823195	0.055147987	-0.07306093	0.012250604	0.020902706	-0.061529987	-0.015901094	0.0037482376	0.01412444	-0.015247307	0.09437551	-0.014189811	0.02473738	-0.050265763	-0.06680642	-0.022826048	-0.02948028	0.036750127	0.32802522	0.050877545	-0.019011652	0.0314354	0.014320794	-0.011000564	0.038590025	-0.009165852	-0.0001578528	0.016010929	0.013090814	0.002434898	-0.04485742	-0.026556294	0.08424812	-0.0012849063	-0.07266021	-0.026236422	0.0068247654	0.017258141	0.03364134	0.008551269	-0.038734563	0.0016788859	0.02089329	-0.019860642	0.008439436	-0.039921753	0.04748225	-0.0029009674	0.044259757	-0.12092248	0.03169796	-0.00754716	-1.8014025e-05	0.05206578	-0.06918121	-0.06344332	0.003148533	0.009770346	-0.05058929	-0.029497838	0.054952685	0.000670511	-0.01596642	0.03372118	-0.039813425	-0.09301701	-0.024407677	-0.028339423	0.052222192	-0.011153928	-0.006379195	0.027678214	0.06937726	-0.06436815	-0.07758256	0.065347105	0.04751665	-0.0006402836	0.04002472	-0.006214843	-0.0057875086	0.01168435	0.004472609	0.013283529	0.022343833	0.024903592	-0.049383562	-0.024917545	0.0208138	-0.02120418	0.016693827	-0.005477426	-0.051646277	0.010634026	-0.024472509	-0.032920636	-0.034924652	0.03514188	-0.017664583	0.034869995	0.010202396	-0.008771491	0.061855752	-0.054148342	0.022279274	-0.060626216	0.01973466	-0.0059395125	-0.006041435	0.0006148612	-0.059274837	-0.01661988	0.051620528	0.013621861	0.02947613	0.0042174207	-0.036757134	-0.020184394	-0.035331335	-0.010872484	-0.027599243	-0.059908602	0.035002843	0.026436998	0.008357292	0.021867244	-0.020420508	0.0058799563	-0.005628045	0.017708786	0.06439307	0.05406149	0.0058151144	-0.008647532	-0.036151625	-0.0041647507	-0.058000132	0.016767964	0.040205806	0.019057084	0.057769887	-0.031773716	-0.056121755	0.082552254	0.022007708	-0.04455663	0.086870536	-0.022821542	0.003776587	0.04190154	0.017566986	-0.030481802	0.014401299	0.021432279	-0.002178918	0.012577617	-0.09536176	-0.02470887	0.019280246	-0.04146203	-0.039773297	0.40564325	0.0062276823	-0.021702273	-0.03997014	0.031103494	-0.0073590577	-0.01167837	-0.016471738	0.069154225	-0.011718524	-0.0589379	-0.06424592	-0.018362608	-0.015496587	0.039814014	-0.010108607	-0.055801716	-0.038622055	0.017146401	0.02534025	0.009383914	0.029712394	0.004259178	-0.20354702	-0.020690115	0.06393214	0.011206358	-0.032317363	0.03086179	0.037979454	0.02365126	-0.006508378	0.10759256	-0.059112832	0.021141399	0.029942082	-0.021094793	0.05678541	-0.022676364	0.05438809	-0.033571515	-0.036518272	-0.022110406	0.041978266	0.028665533	0.052991416	-0.032796714	0.027272739	-0.026189486	0.021684216	-0.030046705	0.040878966	-0.008700312	-0.015201853	-0.07600656	0.010035371	0.035282113	-0.007253077	-0.017609516	-0.057101846	0.02837115	-0.0038604205	0.015782792	-0.033537097	-0.053470857	0.033464935	-0.0053503094	-0.019873442	0.052438915	0.055890482	0.009265071	-0.008051518	-0.015261252	-0.0060620056	0.009665137	0.015777117	0.013226884	-0.037218977	0.012157902	0.024589328	-0.017557576	0.012870527	-0.018336806	-0.024172423	0.077781476	0.005439417	-0.053756088	-0.033312954	-0.06551695	-0.008273735	-0.09013761	-0.06386913	0.0025375336	-0.03826807	-0.027164098	0.033894718	0.041320946	-0.012447254	0.051554453	-0.03854032	0.031080298	-0.01906637	0.023963282	0.053938136	-0.003322698	0.003680931	-0.01178768	0.010770504	-0.030959398	-0.0030477007	-0.018603195	-0.016702961	-0.03519372	0.015443357	0.0025498124	0.07356066	-0.037425585	-0.020701122	0.028194794	-0.027091596	0.0035778903	0.06946006	-0.08201201	-0.04033561	-0.08301939	0.031718023	-0.00180679	0.023097856	0.021854984	0.011470196	-0.04762915	-0.015002839	0.0014691347	0.053141233	-0.045049045	-0.016198227	-0.027207118	0.019542707	-0.02361303	-0.062213764	0.016596906	0.034409888	0.040203933	-0.04891844	-0.022481825	-0.03799605	0.024413045	0.015448177	-0.060237363	-0.07430522	-0.03836258	-0.0029614118	0.08536569	-0.040285073	0.0116401035	0.036791973	0.034171443	0.023273412	-0.0043538082	-0.018420523	0.006088517	-0.06374708	0.04632918	0.009339013	-0.0242819	0.01795007	-0.007261701	0.087524615	0.039431397	-0.009692949	0.0008450814	-0.0069575096	0.07290014	0.029557822	-0.0005271	-0.043037012	0.05873366	-0.009975951	-0.0221305	-0.05541154	-0.001932129	0.057829883	0.022661526	0.02414712	0.005596635	0.033421747	0.023577543	0.043058425	-0.029127443	0.0011605038	0.004063184	-0.012019955	0.0050215716	-0.029633975	0.0011129401	0.0167145	-0.02802281	0.0031056283	0.0048989104	0.035910904	-0.0701535	-0.018950433	0.05104599	-0.05380774	0.02181241	-0.0046338965	0.0044079167	0.016786736	-0.02427844	-0.066255875	0.0076630386	0.075233445	-0.013853059	-0.02988642	0.053243946	0.0254742	-0.009569286	-0.032898463	0.00200507	0.026476163	-0.013942887	-0.0073464904	-0.03318309	0.028916141	-0.01572719	-0.081871256	0.02668278	0.036179285	-0.0621591	-0.035568956	0.02218872	-0.02210277	-0.057477355	0.0027194056	0.02848974	-0.039085723	0.037235454	0.020867437	0.022618735	0.03734445	-0.028953783	0.015440491	-0.01830819	0.06274397	-0.008177971	0.017566137	0.03209342	0.020897012	-0.0017641904	-0.01526051	0.023021728	0.09342999	0.017908135	-0.029195467	-0.060645152	-0.037426107	0.023362735	-0.013713777	0.014871391	-0.02328481	-0.01714483	-0.010807912	0.007303513	0.012574438	-0.059059363	-0.04734937	-0.023825103	0.022435203	0.021418912	-0.0179295	0.040999386
viridis-heatmap_p_0_sw_1_2_s_1_0_oc_query.txt	-0.07279891	0.041616876	-0.024832271	-0.025293825	0.015257295	0.041698135	0.008191615	-0.03117703	0.052908015	-0.0030596512	0.01703926	0.028930932	-0.022835521	-0.012034581	0.008642763	-0.08097044	0.012390522	0.015396239	-0.011443031	0.022260506	0.018193223	0.032633997	0.011078321	0.006665824	0.009463128	0.029661313	-0.01211296	-0.023289908	0.02744146	-0.084209345	0.0031722486	0.0543851	0.058255136	-0.01464045	-0.0014539924	-0.056752607	-0.015258106	-0.029580083	0.0015852827	0.052912883	-0.027677758	0.00955949	-0.0026900556	0.019459307	0.013981149	0.084371194	0.051434934	-0.030108228	0.00033721753	-0.057550184	0.03533329	-0.02764912	-0.016494267	-0.035375006	0.0035624334	-0.015676172	-0.025725147	0.025422322	-0.010253414	-0.024528472	-0.0006628865	0.022204742	-0.025347698	-0.028092971	0.016886208	0.004819927	-0.015571704	0.019057654	0.015458801	0.021691624	-0.0890217	-0.008429135	0.038616564	-0.017259708	0.018558823	-0.00989923	-0.031625777	-0.027450055	-0.017144471	-0.02890307	0.06937818	0.049466126	0.004648986	0.012568729	-0.014218261	-0.03329693	-0.043924917	-0.028512388	-0.052819382	0.02479911	0.01987469	-0.024221137	0.053040642	-0.007695795	-0.048757486	-0.026262064	0.024703134	0.0071561695	0.37588087	0.008156779	0.0009557111	-0.016456312	0.056417268	-0.024402142	0.016144238	-0.023814341	0.050603706	0.006564264	0.020391982	0.03407329	-0.019192984	-0.0070454446	0.021924822	-0.009749313	-0.05185866	-0.020007003	0.009834009	0.032062296	0.029143807	-0.010366413	0.004752131	-0.021823378	-0.022296315	-0.029353492	-0.009641402	0.004489318	0.0018494475	0.009003858	0.010622114	-0.08899198	0.008146028	0.0037534747	0.0025603615	0.021497553	-0.034956396	-0.041857336	-0.009896182	-0.006381732	-0.08214547	-0.023716548	0.04081988	0.017112201	-0.036493495	0.084176764	-0.026058577	-0.04334986	0.0018341856	-0.01862393	0.0014050544	0.04020053	0.032835856	0.035590023	0.04581828	-0.03198371	-0.0688918	0.032216836	-0.06656654	-0.052557938	0.013361794	-0.04419655	0.01132005	-0.008005971	-0.011133683	-0.019523116	0.021186884	0.011754316	-0.006663418	-0.036896534	0.056155715	0.020528952	0.035070572	0.04887905	-0.04638504	-0.038552176	-0.011681376	-0.033993773	0.017832836	0.027761415	-0.013823224	0.010373519	0.058351472	-0.020105517	0.011240541	-0.016898662	-0.004775848	-0.03271951	-0.048464607	-0.0060570627	-0.025047049	-0.029405814	-0.042669103	0.0015830633	0.04181774	-0.0036573678	0.06495365	0.069671385	-0.085571185	-0.046212316	-0.037803	0.01274688	-0.022160295	-0.028418768	-0.007200455	0.025698217	-0.030122781	0.08469701	-0.017857669	0.008164112	-0.025757344	-0.03424159	-0.001822095	0.10521374	0.026411345	-0.053362455	-0.041485265	0.029915294	-0.0136914095	0.023918966	0.005740855	-0.019526966	-0.0075481134	-0.050636806	-0.06503001	0.044424914	-0.0034920434	-0.022137495	0.017027153	-0.054875784	0.021127848	0.050957914	-0.0039532427	-0.04112501	0.007276507	-0.024826497	-0.0038356562	-0.014692475	-0.044841573	-0.047015786	0.013687703	-0.019275703	-0.075155176	0.47112238	-0.020977003	-0.060036182	-0.0046939487	0.009565606	-0.057486754	-0.03664152	-0.01650519	-0.010289123	-0.0031982544	-0.056749742	0.001682965	-0.035067588	0.0033598633	0.0384685	0.03372592	-0.02682932	-0.012624993	-0.014847009	0.009248445	0.0042033065	0.029675756	-0.03461343	-0.20912172	0.008612774	0.013071003	-0.010762684	-0.036710612	0.022910042	0.02107385	0.080207445	-0.010990507	0.035043903	-0.07036641	0.035347473	-0.03868818	-0.0022817715	0.03808531	-0.017299056	0.003438818	-0.033943407	0.008731366	-0.00035719975	0.018942107	0.04096788	0.04440744	-0.01510441	0.040940545	0.0050261775	0.030253392	-0.0050902893	-0.018203659	-0.036548465	0.018995546	-0.061593056	-0.026025709	0.052707594	-0.025408745	-0.017185828	-0.023838365	0.005227789	0.03498426	0.024224699	-0.0061647305	0.00061521254	-0.054198284	-0.02730071	0.009953559	0.052238874	0.0804154	0.03358892	-0.041591085	0.018087562	-0.0350373	0.024112117	-0.0056028888	0.029367331	-0.008109694	-0.019400818	0.01971643	-0.012352898	0.027845781	-0.01548761	-0.001490439	0.046622366	0.053110443	-0.026767392	-0.012250987	-0.04119624	-0.027793953	-0.08924	-0.010063011	-0.006273012	0.030831313	-0.0027022364	0.0094154645	0.006593259	0.008669759	0.0043588085	-0.026386501	0.007859102	-0.021729764	0.010862841	0.054251347	-0.0101541355	0.025167309	0.010026391	-0.014687162	-0.05191609	-0.01203105	-0.024602888	0.010039568	-0.00038026428	-0.0065593305	0.017198022	0.04026471	-0.017647205	-0.027313333	-0.0185172	0.012828189	0.004508507	0.025827473	-0.020226099	-0.0018540692	-0.098247916	0.030399093	-0.016213086	0.006970035	0.011355543	-0.0067755575	-0.025905773	0.015424037	-0.014176944	0.0986462	-0.03713778	-0.0025436468	0.0011192717	0.024462001	-0.0065935724	-0.052641213	0.015534407	-0.018328512	-0.0020225383	0.0043040975	-0.029845454	-0.07693045	0.024026338	0.0017274887	-0.055487283	0.015026901	-0.032448314	-0.027797034	0.032546706	-0.008702549	-0.0237787	0.01586358	0.04099515	0.0058007557	0.013210796	-0.060353566	0.016006082	-0.06193481	-0.014815584	-0.0289748	-0.03497182	0.04308708	0.009247252	0.080450885	0.00579103	-0.023569606	-0.021033542	0.04005403	0.064250216	0.01865749	-0.026679264	0.0108627975	0.032391015	-0.038795777	-0.026539924	-0.022896998	0.04938759	0.035902575	0.049138937	0.0014958755	-0.07794417	0.05319426	0.037450466	0.04979945	-0.050309617	-0.004623804	0.028504603	-0.001599806	0.0027263	-0.058270514	0.027241379	0.021395098	-0.0151998075	0.02982364	-0.032035224	0.0065435027	-0.0867029	-0.060709994	0.023557708	-0.017370652	0.050873578	-0.009109072	-0.020133995	-0.0054421234	0.011907133	-0.093831435	0.03101837	0.043010205	-0.009319959	-0.06864427	0.023012264	0.037806086	-0.003268494	0.016682765	0.010306868	0.049664017	0.008381186	-0.015381941	-0.0025184464	-0.0037449212	-0.020739228	-0.03510299	-0.01916436	0.023196615	-0.04321246	-0.024213938	0.010119559	-0.045688793	0.0053279586	-0.061489657	0.0073326025	-0.033515546	-0.020199897	0.022333028	0.05636861	0.049763124	-0.03992352	-0.035583865	-0.050874867	0.038255095	-0.028328417	-0.010402644	0.033826448	0.050940316	0.0021558278	-0.019123746	-0.0022662387	0.036615986	-0.020237124	-0.031731028	-0.06675719	-0.003746972	-0.018621573	0.06716683	0.012254225	-0.02569773	-0.034943298	-0.021276433	0.027983414	-0.033771463	-0.004927389	-0.049160786	0.00096296356	0.0052931635	-0.041328166	-0.02217713	-0.008847637
overview-landing_cc_0_query1.txt	-0.042757314	0.072124906	-0.018207215	0.017385187	-0.010521404	0.026146334	-0.02960302	-0.025122693	0.01193819	-0.0051433733	0.0058637667	-0.053648934	-0.026340162	-0.024191901	0.0022251636	-0.06067427	0.050681945	-0.018491477	-0.047757287	0.00015247976	0.06370862	0.014334855	-0.004553877	0.068150595	-0.039876346	0.02775897	-0.012936715	-0.0048388354	-0.02168501	-0.045872267	0.016136177	-0.026167657	-0.028731976	-0.022466796	0.042269442	-0.062109485	-0.03077672	0.034142468	0.020303627	0.04894305	0.0065935142	-0.07628043	-0.0020896257	0.058787774	-0.023595022	0.09751206	0.034260716	-0.026076056	0.024718763	0.03421185	0.02106151	-0.044939216	0.029836638	0.0021652817	-0.016416317	0.018426852	0.06970418	0.052983228	0.0037041188	-0.029014653	0.034385312	0.014441064	0.047910884	0.01842288	0.030786503	0.059351254	-0.015220204	-0.0010243009	0.030507566	0.008486626	-0.07841752	0.04028225	0.037790872	-0.018704573	0.055872887	0.03613468	-0.025619067	-0.02718462	-0.07862511	-0.040229626	0.06125183	0.06469854	0.00496774	-0.01925412	-0.0117239915	-0.012822928	-0.04418469	-0.018545303	-0.025418634	-0.0016805994	0.03467356	0.0033161056	0.01831784	0.017648749	-0.06588921	-0.052642755	0.029419733	0.0090958	0.3153623	0.020096246	0.011163837	-0.030717243	0.024562625	-0.0336585	-0.023238262	0.017942851	0.01239666	0.0072962474	-0.0048613036	0.02212742	-0.018414099	0.014244594	0.073386334	-0.02091506	0.017759051	-0.0384682	0.0079708155	0.0103462525	0.08116889	-0.04180393	0.03662514	-0.03137946	-0.007232653	-0.009428812	-0.018999193	-0.042669382	0.020211592	-0.03537034	0.037341584	-0.087559626	-0.033962525	0.0009816794	0.030299686	0.02276319	-0.086380325	-0.02169555	-0.026759489	-0.06294108	-0.09166891	0.0053189076	0.0038305374	0.023956923	0.04927046	0.0793948	0.02016309	-0.095637105	-0.003043424	0.01931583	0.047060106	-0.040377334	0.033988643	0.026792798	0.033481922	0.027303008	-0.05835181	-0.024708755	-0.039889574	-0.052469105	-0.0038473136	0.011107255	0.023318438	0.043077596	0.024981398	0.045709275	-0.0051482483	-0.01395924	-0.061735544	-0.02561521	0.055529613	0.05968565	-0.068036035	-0.019916208	-0.05298653	-0.011278915	-0.0023072052	-0.051943984	-0.018227153	0.07354272	-0.0018884734	0.06338156	0.044342183	-0.03512785	0.07517311	-0.026356885	-0.016412493	-0.041445144	0.040157788	-0.027359163	0.035831388	-0.02978353	-0.112021536	-0.023984872	-0.001480857	-0.009445388	0.010883078	0.054508895	-0.028496612	0.03628752	-0.06787209	-0.041097205	0.030043527	-0.027819326	0.010160394	-0.028876437	-0.06327838	0.0037626259	-0.024975143	-0.029438058	-0.038379204	-0.016486563	-0.006752808	0.086336315	-0.01867667	-0.000779336	-0.05522797	0.059151817	-0.042169128	-0.015257568	-0.013789025	0.005612146	-0.02626112	-0.055512242	-0.03543305	0.047808364	-0.009683925	-0.033410996	0.040116787	-0.040600445	0.015430005	0.010383924	-0.009384733	0.009616394	0.061999187	0.026607206	0.0073284507	0.0031914657	-0.0037912566	-0.043928817	-0.017523859	-0.038215145	-0.02784091	0.37699825	-0.0011024617	-0.052241534	-0.0029241226	-0.013664529	-0.020553077	-0.02676091	0.008739531	0.022575954	-0.02248166	-0.028596304	0.04439472	-0.04753209	0.04498826	-0.00987231	0.01398317	0.021638636	-0.020717626	0.03500712	-0.013401472	-0.027738115	0.09439533	0.01722836	-0.17626528	0.017201578	0.032543212	0.040771533	0.03244439	0.06319979	0.03621759	0.07056542	-0.08922363	0.04132146	-0.017823143	0.022612067	-0.04587324	-0.038634285	0.025491087	-0.067686796	-0.01385164	-0.029785985	0.012253289	0.06696503	0.0542003	-0.024147587	0.011446721	-0.02745611	0.029399976	0.006875814	0.017505025	-0.018660998	0.013182489	-0.07693387	0.038232826	0.01769906	-0.05392881	0.028209848	0.022842236	0.004945735	0.0003951568	-0.016857864	0.01899022	0.039515454	-0.004513471	0.01888253	0.063777156	-0.0515879	-0.02682253	0.031159366	0.03160855	0.01139839	-0.026746137	-0.033261534	0.024018802	-0.012571484	-0.04980855	-0.003578259	0.0052070795	0.053709272	-0.035986897	-0.048982117	0.0127051575	-0.029786207	-0.06168003	0.084996045	0.0062379516	0.005814964	-0.009460772	-0.0801108	-0.009536292	-0.078568004	-0.012748089	-0.043617107	0.076204024	-0.04442432	-0.0018521658	0.034503736	-0.0036301827	0.005025662	-0.020874785	0.0071082404	-0.005040254	-0.042535555	0.036408283	-0.025361637	0.01691888	-0.012050431	-0.022544548	0.012843796	-0.011445096	0.024415782	-0.008779518	0.06271117	-0.0039920304	0.028297681	0.028943313	-0.025916247	0.0017493527	0.030133741	-0.033076674	0.012442851	0.018539794	0.047488283	-0.038151674	-0.0954565	-0.019764414	0.039899472	0.0491963	-0.025388913	0.036804702	0.05979876	-0.033454046	0.03499365	0.020750185	-0.03581649	0.0064323493	-0.012868232	0.049514774	-0.04186924	-0.064004846	-0.005951846	-0.017175961	-0.0028867302	-0.015425115	-0.055331215	-0.08918331	0.04917412	-0.013942844	0.0012499718	0.0123203695	0.01952402	0.020819841	0.0222731	0.022045312	0.050620075	0.06392794	0.027788647	-0.043922253	-0.043336254	-0.03047337	0.010313034	-0.06835724	0.00060215284	0.017250339	0.0050200033	0.013129259	-0.019910658	0.04694868	0.014102784	-0.03288935	-0.05690979	0.03140098	0.067755245	0.013003553	-0.015167855	-0.010597648	0.056119185	-0.034124553	-0.084986046	-0.015981229	-0.0034344299	0.097586736	0.0070636594	0.011534267	0.043555353	0.0018930202	0.05853402	0.013029566	-0.029773375	-0.009798155	0.019410763	-0.029236311	0.041502856	-0.029097902	0.0042960444	0.04933853	0.0014445412	-0.052666005	0.018420976	-0.010974724	-0.03208214	-0.023916997	-0.03738152	-0.025398925	0.06524207	-0.09946923	-0.009449031	-0.009722473	-0.0082154395	-0.07365458	0.016724186	0.022781983	0.012706634	0.012541805	0.040407475	0.03244374	0.057867073	0.048046626	0.050572414	-0.020003948	-0.007208818	-0.04300611	-0.08444313	-0.017528784	-0.060963083	-0.054287955	0.0046226364	0.067589	0.032243226	-0.06554312	0.012456839	-0.001111971	0.01738451	-0.06664388	0.035789672	0.025095265	-0.07848121	-0.0014314745	-0.017914163	0.03647707	-0.00916331	-0.015699677	-0.02176375	0.00040141915	-0.022967285	-0.028116249	-0.007351996	0.0055181514	0.0041030585	-0.0043937983	-0.025573913	-0.008437763	0.020787524	-0.028673679	-0.019260917	0.032371316	0.01849204	0.00824455	-0.014187554	-0.017630711	0.0020353694	-0.01480964	0.04600769	-0.017841104	-0.017177144	0.0032297387	-0.019681234	0.020906223	-0.0049526677	-0.04929865	0.0066200676
stratified-bar_p_0_sw_0_7_s_0_7_cc_0_query.txt	-0.07077944	0.028230134	-0.031160247	-0.003490812	0.006925989	0.003610068	0.046244126	-0.025967302	0.052746776	0.010003769	-0.0050680703	-0.010406781	-0.038159855	-0.059127487	-0.012068768	-0.073511064	0.04225977	-0.024292378	0.0065061357	0.03171842	0.034199465	0.06272317	0.027334189	0.054184664	-0.011561914	-0.020454003	0.008578534	-0.015286729	-0.02914095	-0.05711189	-0.0018013901	0.037156276	0.0050489004	-0.024118844	-0.023686271	-0.029671306	-0.009201669	0.007942438	0.011272188	0.061836682	-0.033223115	-0.015059951	0.003265763	0.002837227	-0.03494812	0.07375245	-0.0015168298	0.001960706	-0.016214684	-0.03412847	0.027646478	-0.070940666	-0.026956031	-0.04902033	-0.025158059	-0.0082063265	-0.0061673024	-0.008194935	-0.0028909734	0.042941686	-0.048905637	0.024650251	0.011775845	-0.034856964	0.05601168	0.00092269096	-0.002584249	-0.010896827	-0.015102274	-0.012744379	-0.08569156	-0.0022208847	0.017168593	-0.029054193	0.019067492	0.03171545	-0.042107463	-0.03438212	-0.054934144	-0.026565662	0.06491194	0.085443266	-0.0134564815	-0.0027760838	0.0028183253	-0.01975085	-0.048746146	0.022135334	-0.051356092	-0.025015946	0.05352634	-0.016924994	0.0370456	-0.0077564497	-0.044301942	-0.011504092	-0.016132928	0.04510208	0.35040265	0.016743429	-0.023554651	0.011235363	0.052819002	0.003068371	0.02418357	-0.004352263	0.0059495573	-0.0063590533	0.053696368	0.028303638	-0.022346081	0.018596034	0.07614905	0.008694439	-0.038188733	-0.015946135	0.040510915	0.0097441375	0.012820837	-0.029152596	0.00064535224	0.028027343	-0.00016472669	-0.008440595	-0.04601127	-0.021759413	0.02706282	-0.010384089	0.04095595	-0.07913534	0.017327534	0.0003866757	-0.012107096	0.02420219	-0.06711619	-0.037829924	-0.0038579018	0.012847716	-0.07460212	0.0071593313	0.07707067	0.0398004	-0.015584643	0.08969871	-0.033545543	-0.08274794	-0.011120637	-0.018141339	0.040772412	-0.0032356146	0.01312751	0.05137535	0.05927762	-0.012472949	-0.078403	0.02324936	-0.0062368102	-0.017618254	-0.027384616	-0.031385306	0.0019485623	0.029276785	-0.006505667	-0.016305452	0.022521097	0.021109486	-0.050323274	-0.03926808	0.026958948	0.012185586	-0.03444872	-0.0014920923	-0.028936893	0.010502536	0.017514082	0.0032145188	-0.018706223	0.026297629	-0.004190646	0.035545535	0.033508547	-0.030198619	0.027713526	-0.031355325	0.0022311194	-0.047002975	-0.0011505272	0.0042228503	0.030945078	-0.012733808	-0.04007012	0.003356732	0.056348324	0.019383106	0.029140433	0.032294642	-0.03741243	0.0005412374	-0.042055003	-0.04162578	-0.0026520249	-0.061895385	0.013276246	0.016196726	-0.024230938	0.024219157	-0.015545363	0.025323695	-0.04313636	-0.024258152	0.041098893	0.06325164	0.014801975	-0.028382376	-0.024644082	0.045947053	-0.079784535	0.031773638	0.017701017	-0.0150558045	0.026478894	-0.02166306	-0.074853264	0.070574835	0.0013699441	-0.024360359	0.018519204	-0.03655594	0.03055085	0.07041503	0.032037705	-0.04936687	0.029306885	-0.0045474092	-0.018868694	-0.012294663	-0.04069511	-0.041429404	0.0063235043	-0.02147426	-0.05056416	0.44225922	-0.028591149	-0.023635808	-0.010512811	0.0143010095	-0.046416465	-0.025530297	-0.05557455	-0.011603558	0.011876478	-0.09403463	-0.027860668	-0.028754111	-0.0010438577	0.029811691	0.01985575	-0.012316938	-0.014618789	-0.029482298	0.052890018	-0.008621898	0.036673587	-0.027017204	-0.19122054	0.02618482	0.06626158	0.029206874	-0.018311877	0.048974108	-0.0021248905	0.04703402	-0.03109577	0.040151607	-0.04199005	0.040382974	-0.024133263	-0.03126143	0.041342407	-0.035956584	0.022260744	-0.011461821	-0.023801113	-0.010811089	0.04781592	0.025606614	0.029399112	-0.013098969	0.020261154	0.015551284	0.0032816643	-0.021836275	0.019454323	-0.056143586	0.04038819	-0.068627745	-0.046799533	0.012300476	0.019567847	-0.010851505	-0.012871896	0.003201455	0.00142685	0.031666994	-0.02995216	-0.03484006	0.027879946	-0.0023893418	-0.03680748	0.02934091	0.068988875	0.01907709	-0.004820485	0.009245515	-0.01550577	-0.014672101	0.0029408163	0.03850993	-0.013471491	0.0075565805	0.021906842	-0.043109618	0.052278094	-0.013459834	-0.007081492	0.07292994	-0.005417357	-0.016596904	-0.012067215	-0.066661075	-0.027740233	-0.049405348	-0.043622095	-0.023088118	0.027966756	-0.0116644995	0.034215923	0.019235589	-0.032614164	0.02525064	-0.022820644	0.026853947	-0.02568784	0.016677193	0.055276923	-0.029346196	0.024679694	-0.013228781	0.005678486	-0.030619552	-0.04081504	-0.011604485	-0.021471791	0.005740164	0.030272458	0.021058043	0.06538916	-0.023350466	-0.0072637857	-0.01992876	0.007580498	0.029041827	0.07141393	-0.050495263	-0.0394385	-0.14278163	0.025976995	0.0045587667	0.061220724	0.039915565	-0.025930338	-0.012985732	-0.025396572	0.0061977403	0.09845618	-0.068712085	0.00040780817	-0.05873923	0.03253475	-0.009702348	-0.05995841	0.02694667	-0.030543838	0.0070859804	-0.06290448	-0.02832837	-0.073678784	0.034446537	0.03418179	-0.06596571	-0.037203632	-0.05770115	-0.012818897	0.028241158	-0.00795836	-0.0036550455	0.0012331853	0.048239935	0.016731925	-0.03015908	0.008383626	0.025180655	-0.04620595	0.040742364	-0.028875513	-0.05636077	0.0053011295	0.0055560735	0.03820246	0.04851421	0.017907213	-0.027917603	0.028692292	0.059369642	-0.03208708	-0.01727423	-0.041025005	0.038359474	-0.032445263	-0.05871236	-0.048860513	0.031535283	0.055059403	0.04714896	0.048985645	-0.011647527	0.03844044	0.06367107	0.05655031	-0.048362594	-0.003296865	-0.0074914633	-0.015783539	0.011231443	-0.060433295	0.0041578617	0.053944405	-0.012442413	-0.002374398	-0.013241064	0.00076170836	-0.06850716	-0.06850026	0.01682743	-0.03049331	0.043932278	-0.028282806	-0.028073926	-0.0042495425	-0.021314686	-0.034443114	0.038130675	0.05210311	0.024601992	-0.03106437	0.033975985	0.010435371	0.010191013	0.0043864613	0.028550038	0.10134314	0.040954944	-0.020486027	-0.02827397	0.0078860065	-0.028334146	-0.006575108	-0.010668273	0.009877424	-0.020221371	-0.008724574	0.053625166	0.00515261	-0.012823152	-0.04721535	0.0108825695	-0.022318449	-0.04089772	0.00013944699	0.04782743	0.031088099	-0.038442165	-0.018837396	-0.030614655	0.06236643	0.029757502	-0.02935032	0.038157467	0.059112914	0.042654566	-0.0112372665	0.010862025	0.07086	-0.035228338	-0.014841693	-0.017426115	-0.0014223977	0.023800459	0.0036713243	0.021816896	-0.02837229	-0.04064253	0.030423122	0.024379842	-0.007371574	-0.02550446	-0.064792685	0.0014645777	0.04251959	0.0013913853	-0.011347015	0.0122335395
basic-link_p_0_sw_0_7_s_0_7_cc_1_query.txt	0.0036163353	0.042389903	-0.05140361	0.027940635	0.053299617	-0.011716285	0.025277304	-0.06726609	0.03196847	-0.029287422	0.036410466	-0.0075904466	-0.006124373	-0.025779396	-0.0019034065	-0.09028696	-0.0035141772	-0.029093143	0.014328564	0.030503884	-0.0055307862	0.017204462	0.013829423	0.054914415	0.039661095	0.014532219	0.027484497	-0.0042067557	0.013084841	-0.04615553	0.035252474	0.02278989	-0.0038737261	-0.03499244	-0.03251737	-0.0022776152	-0.06385404	0.018997451	-0.0332003	0.020880463	0.019661026	0.012061827	0.0076108202	-0.009437356	-0.0059962957	0.048568282	0.013404862	0.0028176256	-0.043125615	-0.02455769	0.060671385	-0.02579697	-0.007942135	-0.049079057	-0.040879957	-0.047919367	-0.04730117	0.06142437	0.036180623	0.046396255	-0.014245817	0.0039987043	0.024449302	0.021232368	0.016886009	0.039871544	-0.040856667	-0.026777206	-0.012547316	-0.022770539	-0.088040434	0.021118218	0.030417066	-0.005417857	-0.0031983799	0.012191715	-0.036663156	-0.026972504	-0.07115296	-0.06223199	0.009603946	0.046049573	-0.048116837	0.02927198	0.0034709082	-0.043205447	-0.021505678	-0.026220666	-0.035978623	0.0047586495	0.065021105	-0.019166613	0.011388275	-0.005703187	-0.0023999724	0.012676335	-0.034120336	-0.029915756	0.35079223	0.019437544	0.009770206	0.01592227	0.03845051	-0.031150619	-0.008854762	0.02675385	0.007660227	-0.012090552	0.00910884	-0.019311707	-0.052155614	-0.019339804	0.05832858	-0.032924894	-0.052403435	-0.010223829	0.028695092	0.020781854	0.0062214206	0.017417865	0.011091317	-0.010029619	-0.0072031254	-0.011360204	-0.006202388	-0.022671647	0.04705774	0.015265808	-0.0025576877	-0.08731105	0.048927836	0.004704161	-0.017101519	0.05887259	-0.0726659	-0.0652938	-0.03105332	-0.01001822	-0.049174573	-0.019783918	0.095649965	-0.035698105	-0.0037978555	0.033740934	-5.1969884e-05	-0.016127633	-0.03190342	0.004235869	0.040746164	0.0021439793	-0.013520501	0.02528302	0.054810822	-0.015315768	-0.005492367	-0.0015056845	0.024718266	-0.018864041	-0.018861337	0.018904084	0.031427972	0.025708294	0.018447384	0.01739274	-0.040179253	-0.031924814	-0.021198226	-0.05015206	0.016548308	0.03908428	-0.0073209354	0.03198475	-0.06282464	-0.045461047	-0.023950703	0.010292049	-0.041165568	0.04417973	-0.025479319	0.012722543	-0.014470843	0.0146028055	0.065207176	-0.044614166	0.034392085	-0.046102148	-0.005303277	0.026009958	-0.013579903	-0.021921473	-0.0061098905	0.01998256	0.014541277	0.040413734	0.00019564052	-0.047324274	0.003067123	-0.038449965	-0.089988016	0.0049438826	-0.059354722	0.011677221	0.012861389	-0.016739324	0.0024359117	-0.0018552678	-0.012975713	-0.010512214	-0.015495147	0.030751443	0.038752485	0.024184193	0.049635082	0.005515649	-0.018917829	0.035612673	-0.01698215	0.04274246	0.050643705	0.0026829634	0.028462566	-0.049600028	-0.03495166	0.034141682	0.062081106	-0.008898886	0.00046077927	-0.0030729675	0.04546507	0.08534531	-0.01659823	-0.04034356	-0.023277089	0.0037084583	0.045079157	-0.009840165	-0.08061569	-0.024636015	0.015680568	-0.10178404	-0.051177036	0.44579732	-0.011628482	-0.024644177	-0.005460537	-0.036128417	-0.041078027	-0.04199034	-0.008607056	0.006860969	-0.042059865	-0.016870037	-0.023075279	-0.0070861513	0.022354953	0.08262339	0.02091772	0.0047652847	-0.033558723	0.008290015	0.0013825719	0.0146441795	0.028569404	-0.041059084	-0.20005395	-0.01431656	0.06462865	0.039656393	-0.039478347	0.04436605	-0.025734084	0.0036835466	-0.063558646	0.034547385	-0.06747524	0.049537603	-0.05002806	-0.041506734	0.05017051	-0.049314726	0.017586583	-0.016023273	0.012638757	0.01695966	0.055113256	0.068296246	0.058460664	0.011413155	0.036501583	-0.04195845	0.11772614	-0.0096882535	-0.012907772	-0.011775682	0.030384256	-0.025170675	-0.006049247	0.05136615	-0.039321594	-0.039703254	-0.05449791	0.045188013	0.07649332	0.029457096	-0.043588154	-0.025485465	0.02066298	-0.035772964	0.014117018	0.023741037	0.048576575	0.009755088	0.017345652	-0.00964923	-0.0109329475	0.002154704	0.0030624883	-0.011667277	-9.5819005e-06	-0.0028573663	0.013547277	-0.03342054	0.013622202	-0.06689746	-0.013854282	0.0834907	0.0073681935	-0.030554773	0.03024721	-0.029187223	-0.052893184	-0.07291076	-0.021708287	0.008387288	-0.022895029	-0.033388894	0.07588828	-0.0018111013	-0.0075754635	0.016149368	-0.10982911	-0.003613815	-0.035729736	-0.027837804	0.060733914	-0.060322367	0.018373173	-0.02261682	0.031981587	0.005101621	-0.015334793	-0.017622517	-0.022000428	-0.06468056	0.009217839	0.07567404	0.049375426	-0.009828047	-0.00093719136	0.08231527	0.017338354	0.0363096	-0.0248847	-0.014042408	0.024636813	-0.07918805	0.04964671	0.010015794	-0.004285085	0.01414136	-0.0075194323	-0.012088145	-0.014190178	0.016950278	0.0559026	-0.03881371	-0.058851898	0.0111938855	-0.025119517	0.0057432437	-0.008027077	0.029703343	0.0022987102	0.023420043	-0.013772146	-0.021641634	0.029856283	0.018200574	-0.011622126	-0.04575003	-0.040378638	-0.03907181	-0.024790248	0.042788815	-0.02187734	0.009675181	5.2487983e-05	0.071239166	0.02570009	-0.029148865	-0.047205437	0.013014145	-0.051107295	0.009123581	0.013309947	-0.07494956	-0.0029068184	0.0025334777	0.06001458	0.02797369	0.005428946	-0.008977199	-0.026975181	0.033989314	0.036493953	0.01640679	-0.034756716	0.024972472	-0.05641605	-0.030764155	-0.0021408312	-0.0018487258	0.06765071	-0.0010466081	0.038627733	-0.04688188	0.0321393	0.07447967	0.007821021	-0.03761527	-0.026821507	0.02562858	0.009421552	0.003959434	-0.0006757076	0.039705515	0.018179206	-0.016803782	-0.05300159	-0.0191614	0.04051663	-0.026441945	-0.017865185	0.07076747	-0.020442262	0.044953488	-0.007956395	0.0090289675	-0.024035802	-0.0024237558	-0.04304975	0.02617531	0.045864996	0.018536227	-0.018248636	0.06350435	-0.02409309	-0.00158581	0.028727682	-0.008917786	0.07979214	0.0022096157	-0.003003674	0.0058281664	0.042491857	0.0044386894	-0.052455295	-0.02364599	0.0357373	-0.05273258	-0.0017498384	-0.012119568	-0.00758518	-0.0070633385	0.0051940233	0.012532465	-0.0002506881	0.009620227	-0.011782277	0.060495775	0.037614055	0.037532486	0.020665094	-0.0020375538	0.058635145	-0.007825532	-0.0514673	-0.006515045	-0.015460104	-0.030066589	-0.016328325	0.032004695	0.052616555	0.023181533	-0.051338322	-0.013099298	0.010082676	-0.0044526416	0.0021058545	-0.008281646	-0.043232277	-0.02674688	0.022788553	0.0088122655	-0.034099955	0.038495794	-0.081167206	-0.033650655	0.03112602	-0.0049997526	0.0033706685	0.030902935
EX_SPEC_MATRIX_sw_0_7_s_0_7_oc_query1.txt	-0.030246085	-0.00044357945	-0.011022694	0.010901729	0.031170882	0.017936084	-0.027557135	-0.01856039	0.041245002	0.024876676	0.030200886	-0.031310145	-0.009115082	-0.014168868	-0.013298389	-0.030561939	0.0045326133	0.020672334	0.0029558053	-0.0014726084	0.04063155	0.040517997	0.019706147	0.0013754265	-0.0123484	0.032198694	-0.02193125	0.006771994	0.0041225255	-0.016355442	0.019727817	-0.013948017	-0.004283404	-0.0046505723	0.028462123	-0.031319793	-0.099012986	-0.010936685	0.010669517	0.020201096	0.03524738	-0.01716689	-0.022644576	0.03212348	-0.0008257412	0.029460344	0.019100573	-0.026728801	0.007415375	-0.013179469	0.032898568	-0.061036315	0.00045725662	-0.02431927	-0.035223253	-0.07263986	0.035417434	0.025063824	0.027413165	0.009914774	-0.01758685	-0.05737504	0.039702836	-0.0033861364	0.0088980915	0.028169878	0.016609805	-0.03348558	-0.0020450857	0.0064767664	-0.049619652	0.02921453	0.040833633	-0.00967507	0.0053779334	0.011824674	-0.03266028	-0.027206749	-0.06685099	-0.060975034	0.07616814	0.090312846	-0.0221156	0.0031938192	0.022780232	-0.02956124	-0.052297447	-0.0054112994	0.017287467	0.0594932	0.06723685	-0.027347686	0.05570515	-0.042550914	-0.072944045	-0.085094124	-0.011980269	0.030046923	0.3227806	0.031132676	-0.008090673	-0.024948478	0.023188764	-0.0011850822	0.016665092	0.023168432	0.014800803	0.033662938	0.03936902	0.016309833	-0.075952	0.0049799467	0.044923328	0.013369114	-0.057191417	-0.031097647	0.018474016	0.037908696	0.05940958	0.028130136	-0.0039043117	0.022738915	0.01764612	0.013703593	-0.02331501	0.0019494757	0.019570837	0.009236089	0.03247818	-0.1321576	0.009582808	0.030195246	0.017957564	0.026274297	-0.079871826	-0.04963126	0.007130718	-0.020406151	-0.03765933	-0.032867208	0.026020937	0.002329459	0.034765813	0.08223759	-0.030830842	-0.10062269	0.025553487	0.00992079	0.031135364	0.036605865	0.061571404	0.0072740726	0.026350252	-0.038657572	-0.08998349	0.014009959	-0.036563285	-0.07658485	0.064466335	0.006660251	-0.0063526575	0.02480549	0.024407377	0.03172565	0.0020060253	-0.04182299	-0.033530194	-0.028960694	0.030925281	0.035649292	-0.020580607	0.03997445	-0.081531405	-0.03018464	-0.040945765	-0.03184834	-0.039869588	0.07199892	-0.0027643682	0.03023952	0.03379738	-0.015519444	0.03545034	-0.07382761	0.039682306	-0.030333417	0.023743147	0.0055060135	0.01603341	0.018512083	-0.05728336	-0.047977787	0.026787318	0.009830133	0.05486771	0.010089118	-0.047659513	-0.025774257	-0.022943128	0.00070287735	0.018499814	-0.054120325	0.00909322	-0.0044017895	0.008024712	0.036672167	0.0021891904	0.0018159645	-0.030648632	0.0014126931	-0.0025885536	0.07249251	-0.0029521643	-0.025449801	-0.048368886	0.053833935	0.0022328498	0.027940745	-0.028095847	-0.037287004	0.015556588	-0.05528195	-0.07249015	0.0415683	-0.049450766	-0.07237802	0.10162252	-0.047649387	-0.01095535	0.03772231	-0.030085694	-0.029820636	0.008174691	0.050773762	-0.020014718	-0.032838188	-0.10092748	-0.035358224	0.053329296	0.004173048	-0.031714473	0.384129	0.0023006499	0.013848879	-0.022971785	0.04493191	0.022257041	-0.039397366	-0.009088027	0.092918396	0.003459274	-0.012133547	0.0034108248	-0.0572821	-0.0015687225	0.031439863	0.010063136	-0.005961852	-0.027018512	0.006906421	0.06851585	-0.014517389	0.094672665	-0.0139050605	-0.20624839	0.018179018	0.04256527	-0.008327077	-0.002069786	0.0932242	0.037834186	0.039058916	-0.029234223	0.07246233	-0.039081946	0.012708368	-0.010182623	-0.014771127	0.015767964	-0.001761226	0.03664811	-0.030337833	-0.020653654	0.0037853066	0.012480283	-0.0017199197	0.038524557	-0.023977086	0.07882779	-0.004907169	-0.012269644	-0.056378603	0.028651757	-0.044257995	0.022568144	-0.045393944	-0.056630284	0.001395818	0.012973664	-0.024097897	-0.015775548	-0.005982188	-0.01627974	0.061907124	0.014482241	-0.03994785	4.4186177e-06	-0.029898642	-0.016008459	0.044555843	0.03761367	0.014714564	-0.013039388	-0.006387275	0.02422194	0.039205678	0.017831685	0.02122375	-0.033911977	-0.0029869725	-0.00085850153	-0.033712894	0.039350532	-0.016108232	-0.038906552	0.055506896	0.0088079395	-0.05556715	-0.023766806	-0.051041503	0.009101528	-0.10144151	-0.010342616	-0.023628317	0.03444112	-0.01372768	0.030610722	0.020750804	0.02360694	0.019420145	-0.01569292	-0.009395816	-0.031141073	0.013790774	0.063810326	0.027908653	-0.0019962247	0.04813898	-0.0166219	-0.057106353	0.010570942	-0.06095449	0.030162282	0.035834428	0.012779188	0.0039553274	0.09724372	-0.037062168	-0.05771369	0.030419257	-0.031671003	-0.002437705	0.024691144	-0.030329347	-0.040031184	-0.09120419	-0.0019561648	0.030094076	0.03234744	-0.015673498	-0.012221726	-0.014112449	-0.017197205	-0.0045909104	0.06011167	-0.05465681	-0.014745891	-0.01663046	0.024168681	-0.04146861	-0.08827778	-0.040786494	0.020401347	0.02969121	-0.025996855	-0.06611776	-0.062673464	0.01020806	0.035877146	-0.07998962	-0.0065941545	-0.036655013	0.015748287	0.047527485	-0.02306375	0.0154857775	0.06647796	0.013150896	-0.0074657523	-0.016143424	-0.051358555	-0.0471704	-0.0903475	-0.014747075	0.019094415	-0.060889047	0.0024566608	0.038533527	-0.0071405186	-0.008354674	-0.01736239	-0.049656395	0.0419431	0.054862134	0.022404503	0.010946765	-0.011452279	0.030272592	-0.044706922	-0.026042124	-0.05111224	-0.023101037	0.04165935	0.005805385	0.025703048	0.0027514438	0.017299142	-0.007335254	0.01749713	-0.022825245	-0.056106143	0.063470036	-0.036252655	-0.01696268	-0.057210304	0.02811289	0.07293551	-0.016338345	-0.0031999995	0.014290308	0.006761173	-0.040666796	-0.04527919	-0.0045538964	-0.03998294	0.02985434	-0.07003203	-0.022863355	-0.051016863	-0.0071712183	-0.073983714	-0.015274734	0.052364215	0.05328998	-0.021793664	0.045014407	0.04325383	0.0055442704	-0.0057022073	0.018840598	0.019939408	0.003858887	-0.029363059	-0.023540527	-0.03805658	-0.018172797	-0.06717745	0.021351151	0.045510285	0.006044537	-0.037036214	-0.009458744	0.02405213	0.0012129415	-0.0032241074	-0.012579748	-0.016518516	-0.012455669	-0.0025415292	-0.018872056	0.047603518	-0.042990822	0.032850135	-0.032928217	-0.013569028	-0.02137161	0.019778894	0.027931185	0.0077703884	0.021801816	0.01598946	-0.013740846	0.086949505	-0.0034472304	-0.037895232	-0.052946456	-0.014630794	-0.011522891	0.016988456	0.017280476	-0.040558062	-0.057005726	-0.019135935	0.025230033	0.0055453624	-0.046887	-0.017773839	-0.010767254	0.03711334	0.03178888	-0.038328584	0.05023273
rule-mark_p_0_sw_0_7_s_0_7_cc_0_query.txt	-0.0064793252	-0.0053991536	-0.01128659	0.031115351	0.03243889	-0.043799594	0.017876035	-0.026950598	0.024945656	-0.014739071	0.006190586	-0.031688076	-0.010960929	-0.01658439	0.0043542273	-0.022863004	0.05070156	-0.034019947	0.010958743	0.0449815	0.043331005	-0.026284784	0.017720459	0.047514625	-0.00598834	-0.04643236	-0.000270514	-0.02315331	-0.004352507	-0.013044534	0.014841985	0.0027254098	-0.0023660394	0.008893415	-0.002495031	-0.009978386	-0.0355434	0.0043406263	0.007239355	0.028371079	-0.0072760093	-0.023995114	0.0072374935	0.049816374	-0.025945658	0.009124993	-0.0077556972	0.020410145	-0.025205072	-0.030745273	0.009313943	-0.068732545	-0.007987812	-0.027777024	-0.04529275	-0.07352512	-0.024721831	-0.021921255	0.036708616	0.029286524	-0.023800645	0.0267822	0.04743653	0.007782756	0.052018724	0.027659114	0.035860673	-0.081693545	-0.037219483	0.009968382	-0.04021131	0.031840526	0.016839547	-0.00011840558	0.0047327117	0.03854971	-0.060400635	-0.03605068	-0.0377267	-0.059478864	0.0645692	0.029290585	-0.024563862	-0.06004014	0.03648761	-0.04076539	-0.063148245	0.02546782	-0.0015888875	0.026389595	0.03136255	-0.037300758	0.01842371	-0.011254784	-0.05322035	-0.02805846	-0.032473326	0.014723102	0.3146113	0.03689746	0.005305547	-0.0010306765	0.015490462	0.04003457	0.0034667337	0.039494548	0.016474802	0.03648577	0.050015118	-0.002271307	-0.06412642	-0.039803606	0.0760884	0.004055056	-0.010906063	-0.01808148	0.06534592	-0.016006108	0.025445612	-0.0151884	-0.025623456	0.03781406	0.011682699	0.013704832	-0.0185936	0.009610104	0.056505397	0.035648935	0.034713477	-0.12386143	-0.026086256	-0.03944428	0.0033208316	0.025330275	-0.07893833	-0.005467883	-0.009366415	-0.03689509	-0.06495486	-0.03403072	0.008295695	0.039958086	0.0054642144	0.047152963	-0.05510496	-0.082223594	-0.029716607	-0.020980371	0.05448942	0.022847565	0.03863081	0.0233034	0.031277083	-0.028841231	-0.053828526	0.024186973	-0.0038306445	-0.036007084	0.029763088	0.0031042076	-0.01764483	0.024173334	0.03031419	0.019448005	-0.0037850905	0.012840404	-0.03007513	-0.028399551	0.04286657	-0.0023323877	-0.063439906	-0.0032089376	-0.032000855	0.013077911	-0.010897249	0.025902282	-0.045525163	0.061109148	0.0077101123	0.031845685	0.031693373	-0.04413458	0.08361728	-0.047034178	0.057426132	-0.023001378	0.034853257	0.004787354	0.032099545	-0.037195876	-0.063067466	-0.009124363	0.0930767	0.014234797	-0.0020070316	0.015092946	-0.019825919	-0.004708212	-0.066820785	-0.037848648	0.052828673	-0.06581613	0.028082296	0.010751715	-0.015285889	0.025484152	-0.0827143	0.025190257	-0.03638189	-0.013935638	-0.0138783315	0.051596228	-0.010696621	0.0004159235	-0.0115830945	0.035970632	-0.04508094	-0.025876893	0.0218957	0.0060024043	0.058751516	-0.03902462	-0.06707643	0.041985553	0.003831757	-0.026062079	0.10237371	-0.033804353	-0.018148564	0.036308076	0.051113393	-0.060871106	-0.012906378	0.016234972	-0.020748641	-0.01307613	-0.043286417	-0.008041268	0.013498147	-0.05319428	-0.053243138	0.377544	0.011216708	0.024271818	-0.010301956	0.021887919	-0.019825744	-0.06631226	-0.011633751	0.096472405	0.014726154	-0.037568245	-0.0132638905	-0.05966737	-0.048230797	0.00675818	-0.0032143092	-0.054162532	-0.013152994	-0.03014208	0.048943896	0.0021980917	0.032789454	-0.014169258	-0.19484204	0.02150662	0.060592476	0.020641819	-0.0027880888	0.07174145	-0.013310351	0.00267136	-0.034027588	0.055529673	-0.025896389	0.025293875	-0.014025921	-0.04373432	0.016209403	-0.060950823	-0.032785844	-0.06250111	0.010337367	0.0036427097	0.05205872	0.008956503	0.007865597	0.007332329	0.0731808	-0.031261362	0.026796032	-0.04616143	0.019454774	-0.04294521	0.052064333	-0.021962555	-0.026278231	0.009629648	0.020689763	0.03160758	-0.0292961	0.013201154	0.02946831	0.027441408	0.0047097118	-0.036362305	0.055996172	-0.03086134	-0.033847235	0.04967377	0.03599991	0.009971768	0.027069598	0.03874278	0.003687512	-0.027556643	0.007001504	0.028212463	-0.048168264	0.05109809	-0.0033682089	-0.03278276	0.041996796	0.039891146	-0.06713864	0.057070546	-0.050210632	-0.013726932	-0.0597024	-0.06809985	-5.7813766e-05	-0.023621224	-0.03757432	-0.009015166	0.07395384	-0.0024334874	0.07187371	0.03196657	0.026564356	0.06851467	-0.04906463	0.004120377	0.0043200753	0.040748388	0.052297935	-0.061329473	-0.019717323	-0.02938043	-0.014357493	0.028876744	-0.017536694	0.005594974	-0.010231232	0.018195864	0.027981313	0.0024238317	0.060161654	-0.03136698	-0.014276277	0.022003962	0.047197804	-0.03827207	0.08164404	-0.053450122	-0.04128899	-0.07498694	0.026706483	0.055700436	0.07528234	0.0056815282	-0.02941326	-0.020585585	0.012170159	-0.0016328488	0.10115353	-0.057733282	0.0003891694	-0.06557604	0.017470611	0.0009379259	-0.1182705	0.021455351	-0.0027550785	0.05832495	-0.04499119	-0.011739551	-0.047342323	0.026568884	0.067389436	-0.12611757	-0.027646637	-0.01944425	0.014449555	0.031973187	-0.059268266	0.04067175	0.017435899	0.023690866	-0.0002973993	-0.049661882	0.0056396695	0.009334765	-0.05978305	0.028199645	-0.009372202	-0.07888355	0.029258335	0.0043605417	0.00015717515	0.039658714	0.015534334	-0.011232339	0.010731658	0.014873492	-0.03882693	0.009047711	-0.007425158	0.073199816	-0.01002947	-0.0424233	-0.07449435	-0.046877533	0.04842642	0.021043394	0.036886316	0.055744972	0.009968714	0.006995382	0.049961586	-0.013851296	-0.02461143	-0.0025226404	0.00055454875	0.011492944	-0.058814183	0.009195525	0.12820046	-0.023083063	-0.0302275	0.0028398272	0.018060852	-0.05386458	-0.045607094	0.020881929	-0.048215855	0.003968909	-0.029285302	-0.034671668	-0.0078057945	-0.025741918	-0.031720184	-0.010920367	0.048217304	0.017240671	-0.062707275	0.017251458	0.011740244	0.003745803	0.053166527	0.014912178	0.044738308	0.03163254	-0.012078439	-0.033933163	0.009557418	0.00947522	-0.0025760843	-0.0020830766	0.03744277	0.0064532785	0.017084233	0.005089476	0.025018817	-0.022393014	-0.015034411	0.0010389644	-0.05389894	-0.035244804	0.0015197871	0.040758517	0.0034339847	-0.028136496	0.062128842	0.016520454	0.03293874	0.07550978	0.007885271	0.01482518	0.03326907	0.01885038	-0.006306601	-0.03493971	0.08749986	0.012207684	-0.02024499	-0.019205319	0.021976931	0.012367506	-0.018446743	0.0082572345	-0.020166276	-0.03799184	-0.021420138	0.021325104	-0.023756217	-0.071242526	-0.010157216	-0.01257444	0.02919626	0.020692576	-0.021081923	0.036650505
BRUSH_sw_0_7_s_0_7_cc_1_query2.txt	0.003866174	0.02934594	-0.052655257	0.0016288663	0.061233945	-0.04686435	0.02741993	0.009679177	0.0044865124	0.0009358168	0.018716611	-0.025553968	-0.010376566	-0.034394115	0.012693134	-0.052792065	0.04406835	-0.01558581	-0.009082807	0.036520492	0.052724347	-0.0008547902	-0.017420527	0.042021204	0.013276202	-0.03731839	-0.008073387	-0.024229087	0.02003721	0.007851365	0.025197726	0.030634297	0.002400513	0.0030688758	-0.03030322	-0.04519185	-0.009850751	-0.020577302	-0.015489384	0.022426594	0.022760784	-0.024007121	-0.0028444347	-0.0020032474	0.02123895	0.039158624	0.004547156	0.0056087566	-0.056871817	-0.02129592	-0.009771162	-0.04626549	-0.0038429163	-0.033728313	-0.036063425	0.007817139	-0.016443472	0.036559574	0.042548336	0.035468634	0.0043967245	0.018728005	0.032539956	0.0057239635	0.07756265	0.030645287	0.002660872	-0.019397667	0.0122269625	-0.021421032	-0.08635458	0.030450098	0.044781357	-0.02583904	0.017543186	-0.000834705	-0.0015390929	-0.004117827	-0.022485804	-0.050086554	0.066706195	0.03376253	-0.011607926	-0.0016999315	-0.0060892794	-0.0641443	-0.045429077	-0.04676756	-0.039476503	-0.00030694614	0.025318943	-0.015740987	-0.0067420267	0.012182778	-0.054002028	-0.04776216	3.8938928e-05	-0.033084646	0.3576621	0.057499077	0.00904211	-0.036115766	0.0076910364	-0.043886732	-0.052600805	0.075812146	-8.476111e-05	0.023001423	0.055212904	-0.0122939665	0.025184708	-0.009364644	0.05546141	0.009767013	-0.00041545328	0.0110111935	0.028748645	0.016467769	0.067110345	-0.008166988	0.037389137	0.033148605	0.019718284	-0.014420849	-0.028968748	-0.015240382	0.085285656	-0.013110874	0.03135652	-0.06295193	0.025720432	-0.02729357	0.053151943	0.076284476	-0.036692806	-0.047723774	-0.0004738797	-0.04434561	-0.056720488	-0.012687555	0.03206928	-0.0036195966	-0.044806276	0.024087917	-0.06602962	-0.050217167	-0.037619524	-0.03415884	0.02317169	-0.0059223482	0.026025625	0.04445487	0.029254554	0.022058388	0.0050385185	0.038514942	-0.007989109	-0.0012938263	0.00090103806	-0.02240627	0.00042071834	0.061638024	0.014489308	0.022774896	0.008297031	-0.0028653047	-0.04517209	-0.045317896	0.077162445	0.050386697	-0.03339833	-6.6572014e-05	-0.009347017	-0.02570226	-0.025159597	0.024105027	0.036601797	0.02944341	-0.010437465	0.06054785	0.027215945	-0.031696744	0.05712239	-0.043074578	0.052426036	0.0074279355	0.030368106	-0.013571191	-0.018484555	-0.015134062	-0.06468711	0.035747625	0.02030841	-0.007480491	-0.002271134	0.038169432	-0.033789393	-0.030527312	-0.06349646	-0.005629356	0.011138472	-0.08156816	0.0013191674	0.016211966	-0.032199476	0.041528035	-0.0070132734	0.04742981	0.009319539	-0.009091978	0.026378235	0.05575891	-0.008503265	0.02940135	-0.025495846	-0.00094046886	-0.024460623	0.007231662	0.06596927	-0.011434209	0.06341138	-0.015052176	-0.060536817	0.049360525	-0.0086011365	-0.028691841	-0.024634259	0.0364081	-0.0014481212	0.049813565	0.012754276	-0.05119067	0.00036924062	0.031894363	0.019301424	0.033909474	0.0036919385	-0.006414919	-0.0019792637	-0.0347227	-0.05070603	0.45276725	-0.012892285	-0.08485074	-0.040834986	0.014948608	-0.025532326	-0.06375543	-0.01523525	-0.044365812	-0.006923095	-0.024539001	0.010159913	-0.054340933	0.040907234	0.06751764	-0.0011057539	-0.024046382	-0.040964246	0.034913864	0.06933786	0.01424797	0.0680657	-0.0229532	-0.18875091	-0.026076686	0.049615867	0.07443003	-0.0036927294	0.057159904	0.03357633	0.04163084	-0.033114932	-0.009732238	-0.062381838	0.06565978	-0.034646135	-0.021396792	-0.025682164	-0.095498554	-0.05658382	-0.022743467	0.016596237	0.026139945	0.091553204	0.024309855	-0.0151786655	0.0008719969	-0.015548903	-0.05381954	0.1360857	0.008707613	-0.016145352	0.0033390592	0.06879589	0.016873678	-0.06063824	0.071451284	0.0054966826	-0.001161233	-0.0037197543	-0.012874508	0.018543497	-0.025239246	-0.040439215	0.021419857	0.018786825	-0.04182204	0.015724344	0.049429215	0.0059267017	0.008256507	0.043564	0.024739869	-0.014924734	-0.004340515	0.0020832634	0.014733002	-0.025025629	0.053069927	0.025510605	-0.038186595	-0.0019374052	-0.022120412	-0.031098668	0.075751394	0.008991995	-0.0018132649	0.0037134222	-0.048698146	-0.054628946	-0.053030808	-0.035645746	0.02964844	0.016591366	-0.0033951823	0.052867975	0.0066333152	-0.00887425	0.03625023	-0.0947703	-0.0007863241	0.011333236	0.020601531	0.022425596	-0.0023391019	0.008382776	-0.02324799	-0.025940264	0.04461613	-0.016316509	-0.035420068	-0.023202242	0.013026332	0.039650172	0.044028528	0.027874889	0.03849913	-0.04101184	0.054474372	0.0020197844	0.012619895	0.030462792	-0.030767573	-0.045461986	-0.060453124	0.029179215	0.07154703	0.035774294	0.021726301	-0.020415591	-0.01103763	-0.0073630135	0.035037648	0.0583389	-0.0020904597	0.0014878594	-0.06981448	0.03544394	-0.037210193	-0.080987215	0.049354926	-0.021758074	0.057316016	-0.06138566	-0.02060792	-0.019454831	0.033070087	-0.018267142	-0.053853773	-0.038043227	-0.01674353	0.008811369	0.010974779	0.0035019892	0.010550541	0.03850298	0.05018198	0.008695483	-0.03949068	-0.04638863	0.024276149	-0.019412199	-0.0020382695	-0.007148642	-0.08375943	0.027167672	0.01845909	0.030442528	0.009652787	0.019705124	-0.048903406	-0.051391356	0.02940761	0.005043379	-0.03414055	-0.029589819	0.037752315	0.00088983396	-0.008824966	-0.027004441	0.01902706	0.033259112	-0.042476755	0.062263686	0.033599693	-0.00333836	0.0011077476	0.012961176	-0.031378735	-0.025687337	-0.005181846	0.023506975	-0.0132895475	-0.02192837	0.0041051153	0.059384618	-0.025527867	0.015573419	-0.02184273	0.0020074898	-0.031530295	-0.0470077	0.052363597	0.00025463075	0.035418674	-0.027652038	-0.042383224	-0.004195069	-0.045270752	-0.082025446	0.02059401	0.03325783	-0.024018161	-0.05559147	0.0022740003	0.020446258	-0.007176755	0.036182143	0.009234551	0.031817466	0.02351545	-0.009679848	-0.05158687	0.022463903	-0.023401612	-0.0117348805	0.008352093	0.030263983	0.0021514958	-0.0030969789	0.020532465	-0.019503368	-0.025794158	0.008165452	0.043922074	-0.028761191	-0.029497165	-0.025799885	0.034691818	0.027848108	0.010368226	-0.0110376235	-0.012675419	-0.029633528	0.0072977943	-0.04789743	0.00062911666	0.0034751175	-0.023879806	-0.045420103	-0.039670702	0.022137104	-0.0162845	-0.0046916762	-0.066737816	0.054211147	0.02171175	-0.018433603	-0.02436019	-0.011356444	-0.038600665	-0.017770207	0.019551046	-0.014481899	-0.019632597	-0.03786075	-0.0029557238	0.0326298	0.015562859	-0.0030773636	0.058219194
EX_SPEC_CIRCULAR_OVERVIEW_LINEAR_DETAIL_sw_1_2_s_1_2_oc_query2.txt	-0.055139024	0.03118616	-0.03271556	-0.010527719	-0.0033053246	0.01550086	0.013427951	-0.01167416	0.046045877	0.035301466	0.016905997	0.0017591727	0.028978076	-0.033379957	-0.040178888	-0.08409788	0.077107705	-0.0082859965	-0.007244204	0.026907625	0.06651415	0.052361157	0.03093751	0.070227996	0.007070951	0.03762949	0.03501625	-0.021934906	-0.03541399	-0.05409319	0.051999908	-0.013404958	0.014302164	-0.025022017	-0.022646181	-0.029976938	-0.031062722	-0.012866545	0.011650049	0.065075144	-0.052089266	-0.00013592199	0.00438771	0.019211864	-0.04267704	0.043944392	0.024468496	0.010799426	0.025388375	-0.035749454	0.041888002	-0.06463543	-0.026379988	-0.062568165	-0.043051075	0.015779186	0.030706868	0.0052142926	-0.009795591	0.019338218	-0.0026082892	0.0009795942	0.026173374	-0.014233723	0.024218148	0.033808835	-0.010370928	0.010112908	-0.01684645	0.0137624815	-0.0544719	0.049060013	0.048332877	-0.0180797	0.012933495	0.05982798	-0.0029491377	-0.04593595	-0.048988424	-0.04422585	0.061647203	0.090442374	-0.0151826	0.01071243	-0.012340488	-0.013450358	-0.04465534	0.0031346257	-0.03995055	-0.011871298	0.0670784	-0.030556524	0.026569908	-0.022303028	-0.08628215	-0.008220458	0.0016826956	0.0044703525	0.31425995	0.021043504	-0.00056598056	0.009515841	0.06426414	-0.039549872	0.04086599	0.03111168	-0.007785963	-0.025279926	0.0033154038	-0.019800628	-0.029364085	-0.008530618	0.06981367	-0.028983649	-0.04472113	-0.033750378	0.0019328714	0.02355081	0.033765636	-0.018795697	0.025765914	0.00871562	-0.013254644	-0.023606297	-0.025514362	-0.07666336	0.063387126	-0.044129778	0.056838628	-0.10120811	-0.025478888	-0.04078678	0.016277926	0.024909656	-0.063519046	-0.0026783806	-0.014770968	0.025758699	-0.029966438	0.025563676	0.008402692	0.01527329	-0.011012503	0.07537445	-0.043138027	-0.0511112	-0.0079187965	0.0076504615	0.023347493	-0.0044140783	0.007947133	0.07023533	0.046501324	0.0066354894	-0.05923002	0.015459524	-0.0008541687	-0.015503991	-0.0191639	0.003133017	-0.0014106577	0.05813036	0.065852396	0.029994737	0.021153571	0.009256225	-0.054014698	-0.039185576	0.03386142	0.010501604	-0.051902868	-0.009553502	-0.0593557	0.035624776	-0.019749617	0.01158684	-0.043405235	0.061826266	0.025841761	0.045204185	0.009272177	-0.02395252	0.018988632	-0.021563929	-0.0123364525	-0.029847156	0.03492902	-0.019788519	0.020383798	-0.044286523	-0.040397562	0.008954763	0.053348664	0.012273207	0.09162861	0.04465661	0.0060772407	-0.006788606	-0.059438113	-0.052063435	0.028583527	-0.04451384	0.01348997	0.040904563	-0.061656673	-0.021175008	0.000930505	-0.027126502	-0.08290444	-0.06400178	0.02966767	0.059081238	0.016411392	-0.017031454	-0.048047084	0.061734583	-0.055497393	0.008478943	0.046488974	0.034142226	-0.025993098	-0.020613959	-0.0692486	0.06394837	-0.034864698	-0.037502293	0.06403949	-0.0204299	0.01875104	0.034606062	0.003424659	0.007294104	0.033730976	-0.018852387	0.030788425	-0.026804097	-0.03395949	-0.04791342	-0.0034917933	-0.015634416	-0.0026278798	0.37673265	-0.05174349	-0.047776245	0.0031905635	0.016097471	-0.057169933	-0.011360473	-0.010083342	0.05056966	-0.023192512	-0.062906705	0.00583603	-0.017497085	-0.014341946	0.017992752	0.011206217	0.019556828	-0.0013552757	-0.018100023	0.04176484	-0.016998284	0.0021102987	0.0047191507	-0.18105286	0.018189155	0.028332563	0.031510342	0.001530417	0.07691975	0.007638885	0.063620254	-0.06332575	0.10133329	-0.05449885	0.038200814	-0.022530252	-0.04354957	0.05055917	-0.058294635	0.03682434	-0.073359	-0.03844312	0.0075477557	0.033221994	0.02803191	0.09570256	-0.024738105	0.045954634	0.029825373	-0.03149255	-0.015838932	0.040485144	-0.030550627	0.024080364	-0.027932847	-0.06136472	0.016846938	0.079536386	0.008798216	-0.028440397	-0.0016391771	-0.0019228035	0.029097889	0.004169109	-0.06412351	0.04428845	-0.021464877	-0.028969422	0.032600604	0.044207674	-0.015849186	0.0034079046	-0.04714304	0.0075243195	-0.0028160086	-0.033248115	0.03929088	-0.009103275	0.033682592	0.011935186	-0.06015532	0.03421489	-0.042061377	-0.041737042	0.068229444	0.0010927154	-0.0132816555	0.0020510526	-0.050605062	-0.021944998	-0.06741397	-0.033862602	0.013782192	0.012960847	-0.027092624	-0.0113497805	0.028019954	-0.021050047	0.032660555	-0.007842639	0.002631886	-0.032709457	0.020734446	0.07563567	-0.072197884	0.028808447	0.0035742219	-0.009565961	-0.027506346	-0.031862184	-0.007954803	-0.012764657	0.020950558	0.015044367	-0.014137478	0.083035424	-0.027469398	0.0060122716	0.059220027	-0.049163047	0.0055628777	0.054356996	-0.008563535	-0.04779281	-0.14761733	-0.015430409	0.045603525	0.014835484	0.0049484265	-0.049833782	0.0045991424	-0.028714065	0.024222465	0.04605748	-0.043607578	0.03391887	-0.00424805	0.043346304	-0.037242636	-0.06437374	-0.0014625188	-0.062686995	-0.0076086232	-0.034329377	0.0040438366	-0.033042934	0.0047894525	0.03899107	-0.018399391	0.0006355816	-0.052948352	-0.017135192	0.020099308	-0.0054227486	0.016221222	0.047964282	0.05227786	-0.017640034	-0.026643092	-0.0016201085	-0.0033734303	-0.043232895	0.056741137	0.009282876	-0.050100196	-0.011679169	-0.03586627	0.056686435	0.05971203	-0.024834817	-0.007768958	0.016065536	0.08667214	-0.00634033	0.011389666	-0.050477047	0.03548684	-0.026199946	-0.05237709	-0.02543198	-0.012105487	0.06565365	0.051009927	0.06474282	0.01163964	0.007201592	0.072704196	0.0030142698	-0.025476677	0.0033556027	0.00525449	-0.012992074	0.029023606	-0.028474294	0.018256798	0.065493226	-0.010803708	-0.010107632	0.0021801721	-0.02037005	-0.08275509	-0.045712482	0.018090937	-0.05582156	0.041086957	-0.09892209	-0.026260527	-0.019768886	-0.02204124	-0.07923192	0.011219695	0.02649899	0.00882483	-0.041601952	0.0072841896	0.048723105	0.036019836	-0.04459316	0.025815075	0.053562954	-0.0048562908	0.0017589186	-0.0429053	0.008791554	-0.041409705	0.009457633	0.02616247	0.026942883	0.027399078	-0.054910738	0.04773667	0.0037473864	-0.00076851144	-0.05279471	0.050601553	0.043611526	-0.05718309	0.015247329	-0.0207938	0.055477154	-0.047100566	0.032580726	-0.055566266	0.024799064	0.00064458326	-0.031786975	0.012450895	0.044045985	0.0016479808	0.017457934	0.015556207	0.031455405	-0.0052370774	-0.050520852	-0.0067807506	0.018696865	0.021784639	-0.029162617	0.039538898	-0.01961839	-0.0074060997	-0.036301695	0.040925056	0.009397775	-0.020772072	-0.016641997	0.013504116	0.06195818	0.024915308	0.010200416	-0.014057043
EX_SPEC_CIRCULR_RANGE_sw_1_2_s_1_2_oc_query.txt	-0.0579585	-0.018177874	-0.056393642	-0.017704051	0.002896777	-0.052482005	0.00035543766	-0.018369935	0.062346283	-0.02783445	0.0049392325	-0.0154605275	0.011053036	0.044378143	-0.034223516	-0.091891125	0.021676907	-0.027667709	0.0051668254	0.021585617	0.04758007	-0.008430241	-0.003499539	0.016527241	0.008546065	-0.030445674	-0.01423124	0.0026506237	0.016658837	-0.046589613	0.0035635098	0.05941669	0.004519634	0.002883003	0.006212397	-0.072138615	0.039411053	-0.009936079	-0.004021963	0.021444332	-0.009697397	0.0034914638	0.028990274	0.021049019	-0.019358443	0.049720008	0.04545527	0.009378886	-0.008544708	-0.0051081832	-0.009654268	-0.029452417	0.012875466	-0.059138924	0.011612038	0.025128495	-0.031196017	0.031720195	0.022281023	-0.005421012	0.0076536303	0.027644867	0.010410191	-0.039203938	0.01505826	0.031936444	-0.00012840565	-0.053103637	0.0065430757	-0.016676288	-0.073788986	-0.025068682	0.022906467	-0.0045697307	0.022006718	0.03636475	-0.028175492	-0.031039046	0.048995156	-0.0061286623	0.028139157	0.020893382	0.012171853	0.019007176	-0.015217859	-0.05395731	-0.057165753	0.0056182034	-0.08987274	0.007668859	0.0040319716	-0.017371869	0.031785104	-0.0024595195	-0.041919976	0.000974521	0.026289372	-0.023328738	0.37879947	0.021420144	-0.009998975	-0.017961228	0.016195167	-0.008575526	-0.01720694	-0.008989642	-0.008442854	0.0033670142	0.033224788	-0.010695124	0.021848304	0.023667797	0.023036543	0.01305733	0.052341443	-0.031525947	0.06501253	-0.011111905	0.012867505	-0.0044015	-0.03417959	0.038742896	0.013938364	-0.031847347	-0.010516158	-0.044787887	0.04256272	0.0055430396	-0.0143231	-0.06995047	0.0024185928	-0.022517432	-0.021756653	0.01560101	-0.08155205	-0.041736722	0.008020652	0.03472347	-0.08326087	0.023009999	0.042549018	-0.04555575	-0.06568421	0.053177435	0.0055429246	0.0046661105	-0.014924567	-0.017608965	0.041913014	0.032773446	0.025880525	0.073356375	0.037038233	-0.018739436	-0.02719096	0.035486735	-0.017956123	-0.019846339	0.0054693744	-0.01435785	-0.007967727	0.027300125	0.0011993943	-0.016799847	0.024620987	-0.0035199812	-0.060598765	-0.02680947	0.017240077	0.065776095	0.031824168	0.005486871	-0.02342635	-0.027039502	-0.046628766	-0.0024756663	0.030909732	0.024990931	-0.020878606	0.02884446	0.06586597	-0.032765396	0.07813016	0.018048827	0.050993618	-0.025102416	-0.0075854356	-0.06554451	-0.023959603	-0.0043849014	-0.054096017	0.033911973	0.001286946	0.030919624	0.10407352	0.0112421075	-0.026307426	-0.005622418	-0.05254627	0.009798114	-0.0040860744	-0.0199951	-0.022394655	-0.044394005	-0.04203099	0.011791147	-0.027850477	0.02614458	-0.021295866	-0.03145563	0.02080954	0.021659432	0.05516522	0.03743194	-0.025725123	0.032429323	-0.0037946298	0.004440567	0.049866527	0.01769378	0.038142003	-0.016284542	-0.02722595	0.03538437	-0.00021270319	0.0124983145	-0.01733636	-0.014989519	0.04233611	0.041412257	0.04212325	-0.046558168	0.020856138	-0.0637459	0.03215876	-0.008687488	-0.030993035	-0.08050819	0.0519826	-0.0441612	-0.074156806	0.48436642	-0.012622028	-0.040081628	-0.008183302	-0.041874077	-0.033407643	-0.011790685	-0.02537546	-0.04232934	-0.023889845	-0.01599034	0.001452415	-0.026088748	-0.0018404988	0.03742279	0.040659215	0.033095308	-0.02035556	-0.020307992	0.06676342	0.04641214	0.06714259	-0.02973619	-0.20035124	0.027178064	0.03360073	0.05624164	-0.012246543	0.020697596	0.029856598	0.03382326	0.0041358485	-0.014603203	-0.05995483	0.05350561	-0.013675607	-0.050824404	-0.00036788222	-0.027999777	-0.018100336	0.012443855	0.0127698155	0.018735455	0.023082986	0.00079998863	0.043174233	0.018375386	0.047600187	0.016530536	0.05065842	-0.0038363086	0.014933593	-0.049623787	0.06399932	-0.02025883	-0.039191805	0.05446992	-0.0011346553	-0.0069741057	-0.023400707	-0.03352016	0.06261367	0.022365883	0.011060742	0.038347606	-0.018664788	-0.042567454	-0.0031803267	0.02727511	0.021493087	-0.012535031	-0.008729803	0.03262828	0.01755247	0.010217111	-0.03552105	0.0023090993	-0.029516492	0.023237797	0.0056403233	-0.056604333	-0.012495018	-0.011769343	-0.066010036	0.05244723	0.0032468385	0.010685279	0.0012403816	-0.038116395	-0.053334363	-0.059105355	0.0021041771	-0.03147568	0.06821306	-0.011434124	-0.014746779	0.0029357725	-0.019140178	-0.016125223	-0.01741127	0.011389278	0.025171235	0.023671273	0.025279466	-0.020482827	0.015271545	-0.03815434	0.011743292	-0.0030450772	-0.07674127	-0.053803876	-0.0037617404	-0.003909169	-0.0025778196	0.031488854	0.013856991	0.0046447855	-0.025805414	-0.0022957865	0.023454351	0.039923158	0.04876701	0.0016725952	-0.054491896	-0.09712882	0.03470778	0.04292531	-0.006119986	0.025095066	0.017513925	0.042821344	-0.038574915	0.013119268	0.06420544	-0.03795233	0.008317137	-0.07437365	-0.0015278215	0.0023963014	-0.025028244	0.027741041	-0.03705735	-0.019031867	-0.038184397	-0.044581182	-0.05959263	0.02407521	0.002713945	-0.044798225	0.00044847457	-0.05975625	0.052959625	0.029644893	0.065244935	0.0025541682	0.015539402	0.060656145	0.008645509	-0.012452731	-0.030518139	-0.013306074	-0.04292669	-0.0066542933	-0.02786841	-0.04371311	0.03521277	-0.014359622	0.007925872	-0.0114503885	-0.0051127654	-0.0362252	-0.005575373	0.049040828	-0.018896043	0.020695126	-0.0024032958	0.040967293	-0.046669148	-0.014224982	0.02187392	-0.004959932	0.07682386	0.030001562	0.030753825	-0.008978238	0.021355081	0.040221952	0.062018525	-0.04904012	-0.033939973	-0.00045735255	0.023392813	-0.03522065	-0.03303494	0.0073490995	0.009539549	-0.015403002	-0.011192318	-0.016415514	0.017614782	-0.033893928	-0.041586105	0.010630349	0.01082841	0.07531698	-0.036103185	-0.024083784	0.018333973	-0.0009052738	-0.010726406	0.02321649	0.055420894	0.036471844	-0.052085333	0.031277303	0.003780721	0.011589747	0.048616916	-0.04078926	0.053641647	0.038046475	-0.049438063	-0.062220782	-0.0038685943	-0.009397354	-0.04074749	-0.026580393	0.004878531	0.0042509097	0.0063019386	0.010196927	0.039855056	-0.017718362	-0.06649377	0.0055886908	0.022713175	-0.083341084	-0.027451104	0.06117568	-0.002663338	0.020833565	-0.018223569	0.00675901	0.018481834	0.031043842	-0.02405135	-0.026571361	0.03444133	-0.013105089	-0.0013356929	-0.022749959	0.06075621	-0.006335006	-0.0042840834	-0.018282544	0.036683112	-0.06151036	-0.001098807	0.021462355	-0.0042324946	0.003642786	-0.03407658	-0.02127003	-0.025381902	-0.021239847	-0.04063966	0.020597197	-0.01294876	-0.01169332	-0.06503862	0.0066602514
EX_SPEC_CIRCULR_RANGE_sw_0_7_s_1_2_cc_1_query.txt	-0.030118072	-0.0043969927	-0.06372351	-0.013912855	0.019377943	-0.061566807	0.013562374	-0.021794613	0.033062372	-0.019365693	0.0037289388	0.005799748	0.023563547	0.021396141	-0.022411017	-0.07449077	0.05895419	-0.029317224	-0.02258925	0.015662031	0.049130585	-0.0059980354	-0.03656602	0.015125426	0.0037047518	-0.07327265	-0.01226815	0.0048455144	-0.004642531	-0.02211329	0.028434237	0.06697003	0.009930182	-0.003922512	-0.012493496	-0.06951102	0.013220303	-0.027949665	-0.0110754315	0.0131915845	0.0059576225	-0.006987109	-0.019170593	0.032988455	0.0017720315	0.06220208	0.021616334	0.015472071	-0.035818692	-0.005090182	-0.05441504	-0.054962408	0.016567841	-0.014322705	0.009607771	-0.016810251	-0.035674613	0.019400135	0.043177933	0.007941345	-0.010047462	0.033339106	0.003968854	-0.035709728	0.045473162	0.032946184	0.03259081	-0.08737119	-0.002305622	-0.022726234	-0.10187456	-2.5475356e-06	0.029866023	0.01002652	0.0047320933	0.02958225	-0.02180265	-0.020034214	0.031742755	-0.01863538	0.038422756	0.04270499	0.012397335	0.0060021314	-0.01608465	-0.03962558	-0.021254204	0.00564566	-0.07202676	0.030610515	0.01124187	-0.049909975	0.027012892	0.0071565206	-0.044982936	-0.00444593	0.018232195	-0.008341586	0.37519276	0.032270838	-0.019411288	-0.04413864	0.02369562	-0.0019585802	-0.018416112	0.022553787	0.0073541487	0.022369646	0.039771188	-0.018133868	0.03141921	0.011264497	0.027233515	0.004094383	0.046681933	-0.017526703	0.04471286	0.0034821548	0.018271098	-0.0027422504	-0.026144752	0.05064226	0.0023625928	-0.004419455	-0.02789079	-0.05853695	0.03140498	-0.00325542	0.010549923	-0.06303026	-0.012567503	-0.030794933	-0.033764362	0.035681404	-0.05952307	-0.033258192	0.031699345	0.022411035	-0.081518464	-0.0023710362	0.038933285	-0.035249695	-0.07347283	0.058318872	-0.018968567	0.0068072593	-0.008771563	-0.046378314	0.036936183	0.025396414	0.031277526	0.07650528	0.061640963	-0.035678368	9.5106414e-05	0.02285734	-0.01916585	0.0014020979	0.00546052	-0.012642707	-0.022754155	0.032650106	-0.0041557914	-0.0024555698	0.0048906757	-0.005243428	-0.029015776	-0.022531617	0.049131557	0.024728516	-0.0020708696	-0.0044782977	-0.010214008	0.0018552206	-0.04602542	0.016271112	0.024697803	0.033737697	-0.0087397015	0.04254935	0.056657314	-0.03801053	0.062413193	-0.006529187	0.057329115	0.00038191152	-0.009255542	-0.049740244	-0.02051551	0.015234597	-0.054675426	0.046471722	0.019570924	0.02478757	0.06870158	0.02111632	-0.012613413	-0.02848618	-0.065644115	0.004467149	0.035787437	-0.054818887	-0.03196446	0.0056969356	-0.043002494	0.023908122	-0.02553487	0.020429283	0.011295286	-0.030186787	0.006920978	0.015377101	0.026827162	0.051049173	-0.01109606	0.0105243	-0.008121693	-0.028775306	0.054235727	0.012244378	0.06591717	-0.01023377	-0.029678874	0.029208578	-0.02804386	-0.0033964436	-0.026296532	0.014772868	0.00052047253	0.035724558	0.02938735	-0.084802076	0.01982157	-0.042754028	0.006906762	0.006501691	-0.029401409	-0.032771025	0.052089017	-0.018511534	-0.07352373	0.47770554	-0.015623529	-0.060080525	-0.017213969	0.011311633	-0.03231159	-0.026991887	-0.047730014	-0.051034447	-0.015380066	-0.0128223	0.013897693	-0.029738361	-0.0015532637	0.038474087	0.037246212	0.019925939	-0.032085642	-0.022043305	0.08804169	0.0331293	0.08716903	-0.036074065	-0.19394034	0.0044518868	0.042223997	0.064326875	0.011414333	0.017731745	0.023993382	0.04571885	-0.019309621	-0.026496029	-0.06719401	0.05791518	-0.012691368	-0.03583421	-0.027013995	-0.056200095	-0.034789998	0.002883639	0.015108195	-0.011763207	0.0679028	-0.0007059923	0.0049464204	0.038648915	0.017361734	-0.010478727	0.05630612	-0.012146207	0.007202711	-0.021665858	0.076277025	-0.020169508	-0.049375325	0.046515413	0.007750416	-0.016237322	-0.007898507	-0.017273381	0.057355907	0.0146185225	0.017035834	0.039876044	-0.021341756	-0.047152657	-8.809819e-06	0.03474346	0.015053553	0.03145675	0.00833351	0.034134656	-0.02190862	0.02232124	-0.036212597	0.009406207	-0.040806305	0.046956602	0.0027478323	-0.03212748	-0.019604217	0.010489817	-0.051680565	0.03618513	0.0024135017	0.025835449	0.016226947	-0.06318762	-0.05614357	-0.05976076	-0.014548786	-0.038745057	0.04513333	-0.01901919	0.0031774172	0.028068354	-0.010418056	0.0054071355	-0.026261343	0.015913252	0.026448734	0.023640277	0.0032945164	0.0005250774	-0.010887603	-0.040694345	-0.03352684	0.014411179	-0.05753574	-0.059292864	-0.024545442	0.040089205	-0.009184346	0.0061955294	0.0074567073	-0.004771522	-0.057565548	-0.0013324071	0.0281944	-0.011991199	0.053259745	0.008805975	-0.07397206	-0.087647244	0.0147191575	0.055980608	0.00031845013	0.049633063	-0.0077381525	0.046124455	0.0048537427	0.007180436	0.05636153	-0.017364526	0.015194495	-0.069788255	0.023615966	0.0148899695	-0.072789274	0.036611054	-0.019275822	-0.009032906	-0.053594697	-0.023692537	-0.058702283	0.009711721	0.0075481697	-0.04818892	-0.02822868	-0.031873997	0.055388622	0.0014682485	0.05129765	0.03250664	0.033088963	0.058007088	0.008477263	-0.023287157	-0.014745687	-0.007187482	-0.0072907964	0.013237563	-0.0066092154	-0.058748957	0.053625293	-0.0066158758	0.0028638246	-0.033178046	0.0062797256	-0.057127234	-0.00092237705	0.024700327	-0.011688639	-0.007745022	-0.020912956	0.038483273	-0.020724364	0.0004528282	-0.018307587	0.017809678	0.030827086	0.0072494913	0.03155156	0.024811516	0.0020660958	0.015097454	0.06484086	-0.039549667	-0.008541408	0.009093689	0.03801352	-0.017123457	-0.042973228	0.016190398	0.044795733	0.012876251	0.008600526	-0.016294543	-0.008369036	-0.052981757	-0.040860076	0.030369574	0.027953953	0.084167965	-0.07207752	-0.03846265	0.023484949	-0.011743221	-0.00814072	0.020010166	0.06720209	0.025270479	-0.049446814	0.01975532	-0.004681821	0.0020134456	0.031109793	-0.028454594	0.058099553	0.04824484	-0.02285748	-0.07324425	0.0012486207	-0.025877794	-0.022052417	-0.018826783	0.030154442	0.015223268	-0.008214231	0.029188422	0.008926934	-0.009831031	-0.030472763	0.010114605	-0.01923307	-0.049137726	-0.01963887	0.053791903	0.0022433787	0.004512465	-0.013890581	-0.021807099	0.0029316992	0.04162959	-0.035732884	-0.017721392	0.027983038	-0.021356165	-0.006081644	-0.043082826	0.05171352	0.0024732156	-0.0013301085	-0.035840172	0.033406597	-0.048695	-0.0015947544	0.030482968	-0.0101310285	-0.045593932	-0.04511614	-0.022742283	-0.015803317	-0.03965656	-0.04303174	0.024619598	-0.024720447	0.021165129	-0.07429553	0.018691424
multi_layer_circular_m_2_s_0_5_cc_0_query.txt	-0.08724718	-0.028455824	-0.019061746	-0.021910554	-0.0019400355	-0.004088916	0.03957038	-0.07518728	0.052818973	-0.05415485	0.040283587	0.03440442	0.014089445	0.039837144	0.010288619	-0.1124529	0.016475648	-0.03088056	0.0063562347	0.02791867	0.027867634	0.037250612	-0.0075640483	0.00451933	0.016690778	-0.050655615	0.015877543	0.023941064	0.0056024157	-0.012914218	0.03778257	0.029368805	0.07378283	0.0015704242	-0.051759306	-0.07928723	0.013703386	-0.02700889	0.021939171	0.07690676	-0.052842442	-0.0015388458	-0.012786077	0.017144658	-0.0035466088	0.040368076	0.041111488	-0.029186301	0.0025747034	-0.0030848612	-0.020548187	-0.042910736	-0.0047454373	-0.063763514	-0.0015752558	-0.010425027	-0.024174135	0.016170042	0.040995225	0.02055787	-0.030030321	0.039651938	-0.02451356	-0.015043521	0.049689665	0.027295213	0.014339363	-0.04397549	0.002807809	-0.03069655	-0.08498311	-0.0047731744	0.04643334	0.009528	0.0037470236	0.012638958	-0.00043460738	-0.0574306	0.05071572	-0.017932381	0.06845702	0.035301384	-0.011841955	0.006687112	-0.010004098	-0.019575981	-0.039663874	-0.02184143	-0.056078605	0.027856281	0.04084569	-0.03898585	0.054456603	-0.04080717	-0.03383003	0.009636408	0.024494845	0.010256361	0.35106426	0.04873869	-0.0005422104	-0.0010373482	0.04328918	-0.0049542515	0.042899337	0.0014508339	0.018760944	0.0059620547	0.009694521	-0.03453496	-0.004251328	-0.016260836	0.05767147	0.0027776521	0.036439657	-0.020998467	0.028678583	0.0014487694	0.021453861	-0.014411301	-0.026405301	0.020127505	-0.011243618	-0.005274412	-0.02091785	-0.0498563	0.028405013	-0.0011069151	-0.00557187	-0.11202761	-0.017433798	-0.03032864	-0.059059594	0.03332371	-0.060788274	-0.027766494	0.00861672	0.0064758193	-0.03926488	-0.023397949	0.06079184	-0.034300767	-0.08020695	0.052108712	-0.057071324	-0.038502276	-0.014654366	-0.054085948	0.04154394	0.02332019	-0.0057327687	0.07318796	0.035184458	-0.06394173	-0.062678315	0.040579528	0.015762702	-0.0016588587	-0.010657516	-0.012953319	-0.0012935065	0.009926101	0.009651588	-0.012894059	0.013371583	0.05616722	-0.04631009	-0.026985154	0.01912359	0.026809093	0.052154638	-0.0059768376	-0.031352755	-0.00938749	-0.004728239	-0.024863454	0.0017593938	0.044993434	-0.013471889	0.037675224	0.058545433	-0.017480703	0.039508995	-0.012589705	0.020938393	-0.0016465972	-0.048426636	-0.029022884	-0.025824035	0.0058998642	-0.046891503	0.032287735	0.04106693	-0.0010763175	0.09205013	0.010769379	-0.05166612	-0.053674072	-0.04960619	0.0011081346	-0.029452424	-0.030947516	-0.022929532	0.022757564	-0.005450031	0.04400359	-0.0074283187	0.0017630189	0.0045021167	0.0060943407	0.05283124	0.011457225	0.022270009	0.026472053	-0.04842421	0.009454547	-0.047256727	0.021226436	0.016699845	0.012515812	0.019482816	-0.0034524144	-0.0530717	0.07329467	-0.015085793	-0.020491345	0.057685643	-0.02715795	0.043373924	0.06432496	0.015711997	-0.08252871	0.013714787	-0.05358103	0.036269214	0.003950544	-0.050920628	-0.08944086	0.04281633	-0.030408204	-0.052606076	0.4386042	0.006213508	-0.076500855	0.0032209705	0.029757932	-0.029452033	-0.0042599537	-0.02872661	0.03279143	-0.04531327	-0.019800333	0.0052804328	-0.014713856	-0.0278377	0.010692413	0.041685335	0.020872088	-0.05026207	-0.040430628	0.07088708	0.0060646003	0.049901225	-0.013471087	-0.20787972	-0.003568137	0.04125044	0.004126667	-0.0060229176	0.030238258	0.014891122	0.07472916	-0.01631147	0.010581872	-0.045560893	0.02206999	-0.0032418673	-0.041998714	0.0030791007	-0.009990886	0.005926791	-0.026841914	-0.01157647	0.011665064	0.031238921	0.018392475	0.05561769	-0.011906127	0.05817209	0.022041991	-1.8676026e-05	-0.044374477	0.0027844417	-0.010724381	0.020408269	-0.047683015	-0.047575172	0.06110895	0.020453528	-0.038285747	-0.020509642	0.014832435	0.05698565	0.033042718	0.014183781	0.024464428	-0.016642626	-0.03577074	0.0065816045	0.009172591	0.06305724	0.046935245	0.0024192347	0.0046865693	-0.003271053	0.03565364	-0.012348504	-0.028557621	-0.032214325	0.020780275	0.05313303	-0.015041494	0.01135446	0.0051141083	-0.045734823	0.020834679	0.037260376	-0.043725252	-0.02741743	-0.057962038	-0.01142504	-0.08748836	-0.011090089	-0.012193519	-0.004466238	-0.021562317	-0.02746585	0.027172485	-0.037774093	0.0494584	-0.016757008	0.015808972	0.001753245	-0.008122822	0.029386034	-0.032738194	0.036097966	-0.072632454	-0.03801384	-0.024594598	-0.032817114	-0.066477716	-0.016052263	-0.000288932	-0.027099326	0.009262997	0.029451236	-0.054508325	-0.07716471	-0.023974394	0.007483997	-0.0062011653	0.07042599	-0.0010946929	-0.04102361	-0.10856835	0.023069087	0.025198936	0.016779855	0.029300516	-0.0075161885	0.0024849093	0.024469418	-0.008760111	0.05522299	-0.0278662	0.021590237	-0.055334948	0.07060496	0.00586051	-0.07547214	0.0042426176	-0.012042636	-0.019936454	-0.024924848	-0.036269717	-0.071694046	0.028254928	0.032238573	-0.040622983	-0.00018958666	-0.02962059	0.03934405	0.05370763	0.023709219	-0.01778873	0.020075902	0.036945455	0.022583084	-0.010076222	-0.022134546	0.0013183875	-0.014362944	0.004010116	-0.013942422	-0.03571282	0.049963143	-0.0002681638	0.053817786	0.010814426	-0.007966205	-0.03629919	0.0062085455	0.06430437	0.041858066	-0.0076809004	-0.0047154045	0.027094776	-0.05865522	-0.009932936	-0.023527574	-0.026129594	0.045925632	0.05607609	0.017306747	-0.0321292	0.0428421	0.04014627	0.0443597	-0.025009621	0.0069303983	0.008370735	0.016719105	0.006573921	-0.05531008	0.030345649	-0.008667081	0.025277253	0.027669972	-0.0048674783	0.016471649	-0.06707128	-0.051416755	0.013312704	-0.01246021	0.0808979	-0.07090757	0.017582338	0.014504488	-0.026203271	-0.03489636	0.019904638	0.071768075	0.006942507	-0.04962966	0.0020021137	-0.010440642	-0.00035916868	0.01927834	-0.015478144	0.04642756	0.042577073	0.007404428	-0.061504073	0.02291842	-0.016038831	-0.032632515	0.0044409647	0.036746163	-0.023225982	-0.028785564	0.018701846	-0.023986943	-0.036364976	-0.08776347	0.009301843	0.024923675	-0.029014507	-0.017987521	-0.00500658	0.0028346577	-0.02357611	0.0001558167	-0.004832975	0.027160095	-0.0045751086	0.012337604	-0.0054075047	0.0023398544	-0.03370556	-0.00094096735	-0.015089286	0.053775612	0.004243701	-0.001790066	-0.046201866	-0.023213059	-0.0018224942	0.007975229	0.032259375	-0.027311888	0.0046894094	-0.03695772	0.031784885	-0.037258986	-0.031603344	-0.054040145	-0.012716392	-0.04140529	0.0024830021	-0.044585977	0.011853023
