file_name	dim_0	dim_1	dim_2	dim_3	dim_4	dim_5	dim_6	dim_7	dim_8	dim_9	dim_10	dim_11	dim_12	dim_13	dim_14	dim_15	dim_16	dim_17	dim_18	dim_19	dim_20	dim_21	dim_22	dim_23	dim_24	dim_25	dim_26	dim_27	dim_28	dim_29	dim_30	dim_31	dim_32	dim_33	dim_34	dim_35	dim_36	dim_37	dim_38	dim_39	dim_40	dim_41	dim_42	dim_43	dim_44	dim_45	dim_46	dim_47	dim_48	dim_49	dim_50	dim_51	dim_52	dim_53	dim_54	dim_55	dim_56	dim_57	dim_58	dim_59	dim_60	dim_61	dim_62	dim_63	dim_64	dim_65	dim_66	dim_67	dim_68	dim_69	dim_70	dim_71	dim_72	dim_73	dim_74	dim_75	dim_76	dim_77	dim_78	dim_79	dim_80	dim_81	dim_82	dim_83	dim_84	dim_85	dim_86	dim_87	dim_88	dim_89	dim_90	dim_91	dim_92	dim_93	dim_94	dim_95	dim_96	dim_97	dim_98	dim_99	dim_100	dim_101	dim_102	dim_103	dim_104	dim_105	dim_106	dim_107	dim_108	dim_109	dim_110	dim_111	dim_112	dim_113	dim_114	dim_115	dim_116	dim_117	dim_118	dim_119	dim_120	dim_121	dim_122	dim_123	dim_124	dim_125	dim_126	dim_127	dim_128	dim_129	dim_130	dim_131	dim_132	dim_133	dim_134	dim_135	dim_136	dim_137	dim_138	dim_139	dim_140	dim_141	dim_142	dim_143	dim_144	dim_145	dim_146	dim_147	dim_148	dim_149	dim_150	dim_151	dim_152	dim_153	dim_154	dim_155	dim_156	dim_157	dim_158	dim_159	dim_160	dim_161	dim_162	dim_163	dim_164	dim_165	dim_166	dim_167	dim_168	dim_169	dim_170	dim_171	dim_172	dim_173	dim_174	dim_175	dim_176	dim_177	dim_178	dim_179	dim_180	dim_181	dim_182	dim_183	dim_184	dim_185	dim_186	dim_187	dim_188	dim_189	dim_190	dim_191	dim_192	dim_193	dim_194	dim_195	dim_196	dim_197	dim_198	dim_199	dim_200	dim_201	dim_202	dim_203	dim_204	dim_205	dim_206	dim_207	dim_208	dim_209	dim_210	dim_211	dim_212	dim_213	dim_214	dim_215	dim_216	dim_217	dim_218	dim_219	dim_220	dim_221	dim_222	dim_223	dim_224	dim_225	dim_226	dim_227	dim_228	dim_229	dim_230	dim_231	dim_232	dim_233	dim_234	dim_235	dim_236	dim_237	dim_238	dim_239	dim_240	dim_241	dim_242	dim_243	dim_244	dim_245	dim_246	dim_247	dim_248	dim_249	dim_250	dim_251	dim_252	dim_253	dim_254	dim_255	dim_256	dim_257	dim_258	dim_259	dim_260	dim_261	dim_262	dim_263	dim_264	dim_265	dim_266	dim_267	dim_268	dim_269	dim_270	dim_271	dim_272	dim_273	dim_274	dim_275	dim_276	dim_277	dim_278	dim_279	dim_280	dim_281	dim_282	dim_283	dim_284	dim_285	dim_286	dim_287	dim_288	dim_289	dim_290	dim_291	dim_292	dim_293	dim_294	dim_295	dim_296	dim_297	dim_298	dim_299	dim_300	dim_301	dim_302	dim_303	dim_304	dim_305	dim_306	dim_307	dim_308	dim_309	dim_310	dim_311	dim_312	dim_313	dim_314	dim_315	dim_316	dim_317	dim_318	dim_319	dim_320	dim_321	dim_322	dim_323	dim_324	dim_325	dim_326	dim_327	dim_328	dim_329	dim_330	dim_331	dim_332	dim_333	dim_334	dim_335	dim_336	dim_337	dim_338	dim_339	dim_340	dim_341	dim_342	dim_343	dim_344	dim_345	dim_346	dim_347	dim_348	dim_349	dim_350	dim_351	dim_352	dim_353	dim_354	dim_355	dim_356	dim_357	dim_358	dim_359	dim_360	dim_361	dim_362	dim_363	dim_364	dim_365	dim_366	dim_367	dim_368	dim_369	dim_370	dim_371	dim_372	dim_373	dim_374	dim_375	dim_376	dim_377	dim_378	dim_379	dim_380	dim_381	dim_382	dim_383	dim_384	dim_385	dim_386	dim_387	dim_388	dim_389	dim_390	dim_391	dim_392	dim_393	dim_394	dim_395	dim_396	dim_397	dim_398	dim_399	dim_400	dim_401	dim_402	dim_403	dim_404	dim_405	dim_406	dim_407	dim_408	dim_409	dim_410	dim_411	dim_412	dim_413	dim_414	dim_415	dim_416	dim_417	dim_418	dim_419	dim_420	dim_421	dim_422	dim_423	dim_424	dim_425	dim_426	dim_427	dim_428	dim_429	dim_430	dim_431	dim_432	dim_433	dim_434	dim_435	dim_436	dim_437	dim_438	dim_439	dim_440	dim_441	dim_442	dim_443	dim_444	dim_445	dim_446	dim_447	dim_448	dim_449	dim_450	dim_451	dim_452	dim_453	dim_454	dim_455	dim_456	dim_457	dim_458	dim_459	dim_460	dim_461	dim_462	dim_463	dim_464	dim_465	dim_466	dim_467	dim_468	dim_469	dim_470	dim_471	dim_472	dim_473	dim_474	dim_475	dim_476	dim_477	dim_478	dim_479	dim_480	dim_481	dim_482	dim_483	dim_484	dim_485	dim_486	dim_487	dim_488	dim_489	dim_490	dim_491	dim_492	dim_493	dim_494	dim_495	dim_496	dim_497	dim_498	dim_499	dim_500	dim_501	dim_502	dim_503	dim_504	dim_505	dim_506	dim_507	dim_508	dim_509	dim_510	dim_511
EX_SPEC_MATRIX_HFFC6_sw_1_2_s_1_2_recolor_query2.json	0.006471235	-0.017968804	-0.07463176	-0.00032656608	0.022910735	-0.06333086	-0.012669318	0.0062729022	0.01602654	0.021129176	-0.011509481	-0.039585654	0.005207724	-0.008255336	-0.010766158	-0.0009884532	-0.0023434558	-0.001371958	0.022737535	0.0072547924	0.040327847	-0.012161689	0.01809841	0.057134315	0.008203783	-0.015276708	0.060951073	0.012325596	-0.02364132	0.020348622	0.06611269	-0.01608192	-0.015710298	0.007769041	-0.033463564	-0.045499396	-0.06660888	-0.019410813	-0.00036082603	0.01648782	-0.015117731	0.00988967	-0.057069067	0.03350313	0.021040823	0.048080985	-0.04159908	-0.028683731	-0.041474454	0.01672128	0.020206204	-0.057953507	0.033004582	-0.009216659	-0.01658941	-0.0673793	-0.0067611258	0.0072065173	-0.008358032	0.0033337374	-0.052144866	-0.00015167946	0.024563817	-0.021236353	-0.005865332	-0.017560331	-0.002059487	-0.029480722	-0.007526709	-0.030366743	-0.041970097	0.04761258	0.040503185	0.048908524	0.031908493	0.05084813	-0.03195849	0.016697895	-0.020157702	-0.04387034	0.030427799	0.0071529266	-0.027880223	0.031038014	0.036833644	-0.049951036	0.02012832	0.03854621	0.030258762	0.023209818	0.077854134	0.009062916	-0.0130270505	0.0060970606	-0.023590302	-0.013865688	-0.032029103	-0.009151813	0.34030426	0.024706498	-0.024955321	0.019853197	0.02228861	0.0023934022	0.029993761	0.018079897	-0.020040873	0.022751115	-0.03560878	-0.016792294	0.025098838	-0.053849407	0.010048942	0.012242351	0.026658952	0.0021437628	0.076374374	0.03691869	-0.03270154	0.07380025	0.0019913446	-0.026536109	-0.037626363	0.024149844	0.0024129094	-0.052530088	0.080985665	-0.013348464	0.040978238	-0.108737715	0.010118426	-0.054171298	0.01183161	-0.03570247	-0.018226763	-0.038976826	-0.002380784	-0.0019886375	-0.080218814	-0.020047037	-0.015190067	0.017263027	0.04812729	0.014420261	0.02031094	-0.033469804	-0.056437265	-0.055162083	0.04914536	0.0017704484	0.017653262	0.049000647	0.053766116	-0.0374155	-0.014051912	-0.005586439	-0.025167765	-0.05276637	0.07977938	-0.018305227	-0.02730724	0.013521594	0.03844742	-0.008945226	0.015312582	0.02472247	0.01898419	0.041159634	0.015123488	0.016952807	-0.018938629	-0.038924288	-0.014775432	0.016861375	-0.08240547	-0.021773737	-0.036588456	-0.033493206	0.03792572	0.10207808	-8.393388e-05	0.012722428	-0.016337132	-0.031067668	0.04643562	-0.07387383	-0.008473811	-0.0116617065	0.031297214	-0.005410409	-0.05081336	-0.038431603	0.007932778	-0.011672575	0.0731994	0.04112613	-0.013668864	-0.0052721226	0.03232825	-0.033793252	-0.022708753	-0.12172555	0.042959407	-0.041960165	-0.034974057	0.03695883	-0.048360538	0.023031808	0.024881216	0.0035522962	-0.024821661	0.020928627	-0.010966442	-0.011873681	-0.03235144	0.029781591	0.04167429	-0.06389468	0.0147565445	-0.051549084	0.0172404	-0.067823626	-0.041046772	0.035899326	-0.019656396	-0.018326828	0.058964226	-0.014493141	-0.059568904	-0.032454494	-0.01874909	-0.080313414	0.018416459	-0.044937167	-0.045116767	-0.026260642	-0.08528978	0.030191693	0.0321541	-0.0424907	-0.0068420335	0.40621918	0.034529604	0.0019059876	-0.00903338	0.060124855	0.05664669	-0.022399299	0.027159609	0.052361816	0.04393607	-0.009472423	-0.019105995	-0.02162479	-0.0057971315	0.03164323	-0.040372513	-0.0126918545	-0.034364443	0.03636486	0.012622675	-0.007533659	0.0024699601	0.01184419	-0.19728461	0.016501756	-0.007404235	-0.005391885	0.046761975	-0.00981871	0.07161845	0.09381409	0.045389105	0.045498986	-0.030134656	0.058786422	-0.011274299	-0.048271805	0.035880536	0.013478021	0.01401271	0.010762792	-0.058131155	-0.010940199	4.909447e-05	-0.010219322	0.058297135	-0.0037085272	0.023762317	0.021034902	-0.0617208	-0.025277695	0.036727272	-0.044140782	0.0064472854	-0.022598967	0.0396257	-0.006454979	0.060571544	0.058027387	-0.0221215	-0.02080008	0.04269913	0.053033415	0.03521203	-0.087875076	0.02632271	-0.026698723	-0.0067686643	0.0062756296	0.0009066961	-0.03864035	0.009657011	-0.006380862	-0.027319629	0.023305923	-0.017268155	0.023359604	-0.04901583	0.0018669583	-0.015718713	-0.0063594943	0.028159814	0.031677596	-0.042712435	0.009390697	-0.06941184	-0.028919458	-0.028944613	-0.014171014	-0.045826975	0.0020019286	-0.025429178	0.0024057121	0.010487364	-0.018912207	0.0017466934	0.004010948	-0.003264131	-0.035001356	0.039282247	-0.026799412	0.0017384199	0.099485524	0.003816301	-0.01002875	-0.06455828	0.045558363	-0.04160934	-0.0070890174	-0.05085085	0.03401037	-0.03188802	0.01319148	-0.054606754	-0.005822422	0.07079215	-0.016500035	-0.042583205	0.010644686	0.00054738356	0.023041282	0.009457518	0.0316631	-0.09544375	-0.06115653	0.05439584	0.050325785	-0.05529059	0.024633411	0.017956978	-0.0013611467	-0.052443694	0.008889471	0.017427124	0.019499986	0.017830908	-0.026512297	-0.01434914	-0.020991938	-0.02050201	-0.060290057	0.005117714	0.04360078	0.0044392273	0.029505253	-0.036662456	0.0031805479	0.015344052	-0.055720814	-0.055756614	0.012630728	0.04546722	-0.0154526485	0.0003788761	0.035670284	0.08275688	0.055580787	0.01420759	0.0755265	-0.03565477	-0.031805497	-0.06757811	0.06722203	-0.051358305	-0.0019406887	0.036768425	-0.032513015	-0.06341508	-0.014750618	0.041055594	-0.009377216	0.031618103	0.039605908	-0.03165939	0.016799139	0.05792214	0.03763632	-0.025949214	0.019787898	-0.023836674	0.024918811	0.012320569	-0.0059546623	0.011947576	0.052564494	0.027407035	-0.0254233	0.03441646	-0.01831012	-0.006751885	0.02831477	-0.0015753376	0.0041304906	0.03615681	-0.0029985684	0.027327543	-0.02170079	-0.0066907536	0.018541656	0.039268877	-0.021206226	-0.016671954	-0.015376364	-0.024143912	-0.01231421	0.02410305	-0.002320973	-0.0034454549	-0.009000851	-0.05887136	0.024559595	0.08568457	-0.02507776	-0.00603546	-0.0040837573	0.028046083	-0.0048445594	-0.05083947	-0.035564348	0.013094155	-0.04722787	0.02445635	0.00011263439	-0.02527222	-0.041070618	-0.08654465	-0.023341665	-0.039827492	0.009137832	-0.026981058	0.046984505	-0.008088385	-0.026669906	0.02866941	0.016963396	-0.015754664	-0.061104827	-0.010857499	-0.0033672987	0.09461191	0.002400661	0.039176796	-0.03610084	0.04176242	0.027886182	0.029812202	-0.007882143	0.012859976	-0.02008234	0.005898954	0.0023753836	0.07154131	0.0031475527	-0.0006046499	-0.04467078	0.004335373	-0.055367924	0.028675696	-0.056665022	-0.03857487	-0.0025950912	-0.09361449	0.004514392	0.024329945	-0.10132639	-0.054858413	0.034962133	0.0030328126	0.0312183	-0.042921126	0.009973399
scatterplot_p_0_sw_1_2_s_1_2_oc_query.json	0.0069061574	-0.016192159	-0.06988282	0.030719087	0.05798966	-0.03578872	-0.035140526	-0.009519642	0.028669959	0.008411529	-0.011343828	-0.071186945	0.019989228	0.0030045286	-0.021602957	0.014057785	-0.010258216	-0.02743054	-0.026029306	-0.026984433	0.07585158	0.00226468	-0.0025564425	0.04578922	0.0017894845	0.009647337	0.029383127	0.031574372	0.014902693	-0.013443553	0.029885503	0.01159566	-0.0023568536	-0.0023654427	-0.027934963	-0.05601015	-0.026135432	0.015068838	0.010191655	0.02871591	-0.0089427885	0.01254689	-0.017131463	0.027639791	0.007431012	0.05898433	-0.012095146	-0.04517725	-0.06157828	0.043996427	0.0050281147	-0.010418087	0.04317992	-0.025516948	-0.035628285	-0.028327147	0.019025147	0.027633248	0.0056594554	-0.005628586	-0.044400617	-0.028697737	0.019038135	-0.035550576	0.011398496	-0.026476052	0.0004573343	-0.04364451	-0.010846394	-0.051749058	-0.044752453	0.08484788	0.024244305	0.017255807	0.03555321	0.019830218	-0.030549595	0.032182857	-0.023450915	-0.03413523	0.0038743995	0.028612467	-0.049115464	0.024994858	0.037947964	-0.0147342	0.008529864	-0.007607311	0.030231077	0.021696026	0.061131064	0.023999536	-0.013393959	0.00027181985	-0.04476252	-0.009011864	-0.0347357	0.02918312	0.36626408	0.025481442	-0.026150139	-0.006350016	0.0018145696	-0.033040307	0.048662435	0.016297689	-0.0001661038	0.028850056	-0.036527596	-0.0019521336	0.034844678	-0.03130927	-0.007830442	-0.0015549122	-0.007917436	-0.013443626	0.06526401	0.048449077	0.006819595	0.03381	-0.003960174	-0.018339904	-0.022847889	0.011047105	0.0030208244	-0.048682712	0.039050225	-0.05242582	0.050808564	-0.093018346	0.0380387	-0.019606523	0.048968203	-0.03430948	-0.021961108	-0.0070973653	0.0051621846	-0.039833765	-0.053625822	-0.012490803	-0.016261032	-0.00060350547	0.036687244	0.034263864	-0.005727285	-0.07707784	-0.025677584	-0.040407486	0.08186812	0.0024989161	0.027502537	0.047515344	0.058635604	-0.017524958	-0.0593935	0.0026921039	-0.043553248	-0.08852044	0.041155644	-0.00352801	0.0025622633	0.025765546	0.025614468	-0.004562213	0.0008179975	0.032279253	-0.008556254	0.015099847	0.028727833	0.026162418	-0.018156053	-0.04935477	-0.045192633	0.015978092	-0.05314849	-0.053214997	-0.016366435	-0.03066558	0.04854685	0.064914964	0.033481207	0.02206264	0.042503294	-0.026337383	0.035791084	-0.034937777	0.03211931	-0.00606764	0.012293486	0.0017998866	-0.07059247	-0.016321847	0.0035425788	-0.01571318	0.046233594	0.049466677	0.0091669485	0.012880839	0.048242263	-0.015533891	0.006498131	-0.115707	-0.005556234	-0.012244221	0.003080672	0.06662207	-0.042546444	0.024839507	0.011257945	0.01971517	-0.014687857	0.04373905	-0.002234556	0.0034351042	-0.019494299	0.048902612	0.0016916081	-0.029979425	-0.024879143	-0.031386603	0.046648603	-0.032661702	-0.07669676	0.03429289	-0.0028484294	-0.03877386	0.035052184	-0.018332323	-0.05691353	-0.013521722	0.027685367	-0.0426005	0.017294768	-0.01320948	-0.05637817	-0.033071317	-0.06645892	-0.009153009	0.043636397	-0.021113873	-0.005901646	0.44476375	0.0053982427	-0.030967338	-0.041798387	0.03142008	0.052397024	-0.0063013462	-0.018468812	0.018659767	0.03063083	-0.0042436644	-0.037627082	-0.018144254	0.0044873343	0.03150435	0.011547454	-0.026075091	-0.037765924	-0.025849247	0.0073107276	0.0058624097	0.029387204	-0.002923583	-0.2031018	0.030097235	0.0016474875	-0.0046555903	0.05226087	0.019999286	0.07844494	0.074701406	0.02066709	0.027864903	-0.028210223	0.05758287	-0.025816789	-0.083950184	0.000196598	-0.0055057555	0.024525868	0.01095176	-0.0335474	0.00017002222	-0.0077298144	-0.011699237	0.050169192	-0.02838234	0.025040563	0.022186432	-0.039015785	-0.034493353	0.026182024	-0.064549744	0.028734084	-0.015407367	0.02633745	0.0052023064	0.056974463	0.05152246	0.016973475	-0.012134188	0.01866573	0.065757826	0.01958143	-0.0751018	0.055655237	-0.04395599	-0.056039892	0.0050788815	-0.018791959	-0.03612579	-0.004593055	-0.046293974	-0.022812057	-0.0047061862	0.00459597	0.02776879	-0.027496533	0.027590273	-0.025458956	-0.039379295	0.020577343	0.005522324	-0.062397294	0.024649825	-0.04104702	0.0018427913	-0.04381508	-0.026799852	-0.049566135	-0.018359195	-0.014920272	-0.021352923	0.003000322	-0.036559563	0.02794245	-0.018962542	-0.021643696	-0.010064612	0.0072785695	-0.024457555	-0.02308444	0.07746075	-0.025829412	-0.004855842	-0.05246666	0.039310064	-0.013973734	-0.009069414	-0.03961795	-8.5430685e-05	0.0068553393	-0.029046247	-0.023355002	0.007958501	0.05014692	0.0019736069	-0.048842147	-0.02497363	-0.0042928853	0.05527578	0.051066674	0.019377517	-0.09733209	-0.045221068	0.0341037	0.041495703	-0.016746169	0.0315324	-0.011582242	-0.020098802	-0.06825132	0.011322955	0.020422561	0.003385915	0.022399439	-0.049672134	0.011806433	-0.014265995	-0.039724156	-0.04154793	0.0035853721	0.059925452	-0.025086515	-0.022570683	-0.06309733	-0.010493808	-0.010639389	-0.046984933	-0.044055056	0.023482447	0.04061485	-0.001973751	0.0077639	0.034609083	0.07050097	0.0567068	0.0093035195	0.055518012	-0.028989494	-0.016763672	-0.064431265	0.03730345	-0.01709387	-0.021706313	0.038290564	0.02663186	-0.04123141	-0.008671736	0.03672284	-0.036916636	0.04187855	0.035965562	-0.037429288	0.030183887	0.053326853	0.07005912	-0.032516457	-0.020977255	-0.053039566	0.012714467	0.01672554	0.013062435	0.0035898779	0.051449906	0.051943555	-0.03714649	0.05592827	0.0033277723	0.0007870937	0.009854128	-0.01778305	0.032125793	0.01130698	0.016711023	0.025402073	-0.014845859	0.0012079901	0.019285781	0.0408996	0.013698963	-0.0032415502	-0.0328216	-0.04004616	-0.0034201539	-0.013044637	0.027817782	-0.021922698	-0.020551661	-0.051409945	0.0595434	0.028589915	-0.012176917	-0.008265503	-0.00021031708	0.050667413	0.020125506	-0.0035047375	-0.013880934	-5.839414e-05	-0.046442162	-0.012733616	-0.025143348	-0.01641442	-0.022765098	-0.08676885	0.0017315292	-0.039072692	0.022665776	-0.039491583	0.028215278	0.04864024	-0.0050160587	0.021691928	-0.0015898506	-0.02607544	-0.09191101	-0.0150735555	-0.0010631991	0.10023646	0.012112344	0.036792926	-0.012011377	0.023985812	0.01445773	0.0062475367	-0.005987064	-0.017143348	0.0072240653	0.007930712	0.033267014	0.036344137	0.021752503	0.021298515	-0.070722364	0.0094517935	-0.027985007	0.03740985	-0.051199734	-0.033227444	-0.007341802	-0.08715837	-0.022776688	0.037956197	-0.10424965	-0.021274542	0.021093993	0.060208295	0.052696187	-0.016860716	0.038780387
EX_SPEC_PERF_ALIGNMENT_sw_1_0_s_1_0_oc_query2.json	-0.056398418	-0.05129443	-0.034434043	-0.0024759069	0.0011838881	-0.06789525	-0.02219729	-0.026567027	0.023873841	-0.0032087734	-0.004482564	-0.040131077	0.012258045	-0.025906313	-0.00074141286	0.004311488	-0.024694785	-0.049202427	0.010200244	0.0014859934	0.04929087	0.005679198	0.07916778	0.048640527	-0.011474309	-0.007972719	0.035861216	0.015288583	-0.005902585	-0.009144671	0.071435556	-0.057798244	0.0009827937	0.020577902	-0.057075128	-0.05476585	-0.02849234	0.0014876828	0.010900439	0.05040932	-0.04760771	0.02268575	-0.03378254	0.033963244	-0.0008234115	0.049704168	0.002827514	-0.04405938	-0.011162807	0.024630768	0.024362944	-0.053825483	0.00995716	-0.06493147	0.023457363	-0.06266122	0.00407185	0.010447354	0.004472828	0.013988452	0.010141089	0.030168595	0.031723388	0.0003124597	-0.0007548088	-0.01138901	-0.02929153	-0.046147473	-0.015182846	-0.011520557	-0.026232872	0.008748047	0.030996967	0.040102653	0.009776107	0.04989282	0.0118407095	-0.007515638	-0.0110949185	-0.008345849	0.0013643559	0.043800816	-0.04106851	0.04274343	0.032710496	-0.044412397	-0.016562724	0.024010584	0.040531576	0.0053730095	0.109110564	0.0072165453	0.0011570535	-0.019744666	0.008611169	-0.01258868	-0.06799385	-0.017514175	0.3381604	0.023851985	-0.037540685	0.017263625	-0.0044859634	-0.014029996	0.08846995	0.014290044	0.00038316197	0.008486416	-0.045650337	-0.041084744	-0.0025011876	-0.027518056	0.041844018	0.04653886	0.0456125	-0.012499682	0.074914046	0.046377763	-0.014304871	0.015494775	-0.0065836674	-0.03968355	-0.006672721	0.01728995	0.001570202	-0.057815515	0.02310787	-0.035777956	-0.0014847296	-0.122697815	0.018271575	-0.040736914	0.052266665	-0.0071937395	-0.021517625	-0.036699682	0.009735591	-0.034817923	-0.05464706	-0.010665968	0.034359306	0.0064838273	0.035520762	0.009477139	0.022871599	-0.038198028	-0.04044071	-0.032165088	0.09165392	-0.012594343	0.05681601	0.022762334	0.0471579	-0.016492244	-0.018754838	0.022129238	0.011381732	-0.04792667	0.057819713	-0.028277606	0.00022411652	0.03567959	0.048439234	-0.0021409616	0.01600083	0.058292586	0.018697912	0.028931405	-0.015114379	0.04029014	0.017811947	-0.033812623	-0.05172229	-0.025012778	-0.047385696	-0.016250476	-0.051618706	-0.008331335	0.019352857	0.071496256	0.003651313	-0.039757166	0.034589697	-0.044108808	-0.006076911	-0.049240585	0.003761018	0.04851929	0.0037986492	-0.019005327	-0.040728446	-0.04623273	0.013325908	0.008544634	0.0794019	0.037684474	0.0027517064	0.0067446833	0.036717262	-0.0020963678	-0.0122971395	-0.07527783	0.024953833	-0.045810755	-0.0070238863	0.008677189	-0.028638983	0.035888854	0.03456659	0.031194046	-0.007450485	-0.032228347	-0.016549721	0.024082396	-0.03878493	0.029980099	0.0098251	-0.018820928	-0.023005705	-0.0706974	0.053323794	-0.03414937	-0.023530835	0.03130092	-0.0015610482	-0.0025605543	0.086388126	-0.065175034	-0.02336204	-0.0020033908	-0.035728965	-0.029773928	0.023893574	0.0014529257	-0.008232358	-0.031355456	-0.08685674	-0.0014707975	0.011836432	-0.05188308	-0.03494761	0.40500653	0.05473007	0.016143978	-0.04763163	0.041212864	0.0784519	-0.035301585	0.0053825877	0.07301586	0.023114353	0.02298035	-0.035959724	0.0009862984	-0.028976306	0.041246686	-0.012096192	-0.014321382	-0.01909757	0.0024703203	0.03208725	0.001652629	-0.005305496	0.017744152	-0.20787205	0.036385253	-0.022928022	-0.02720567	0.031936903	-0.024484787	0.09466869	0.061525963	-0.00092311064	0.05894902	-0.045878258	0.027477933	-0.02893323	-0.026695995	0.021716714	0.0056115654	-0.0005480234	0.03592828	-0.05835742	0.014538767	0.0034001279	-0.05089699	-0.011480057	-0.008653409	0.04675858	0.033833623	-0.037530575	-0.06790639	0.007913625	-0.049223088	-0.012638439	-0.016568756	0.010564509	0.013253291	0.054070376	-0.00050312286	-0.012561435	-0.03209927	0.004734048	0.021981085	0.03660194	-0.065957434	0.034990925	-0.012606823	-0.009285059	-0.0078182025	0.03050317	-0.040808126	0.037756838	0.015250113	0.011362552	0.009174303	-0.030102842	0.0066480585	-0.03296524	-0.009424904	0.04042201	-0.016851515	0.02949705	0.03494524	-0.031505764	0.03436964	-0.058751103	-0.053058345	-0.037621874	-0.08876217	-0.015849553	-0.015752982	0.020477308	0.017427903	0.030957315	-0.0182674	0.011929254	0.028717695	-0.015966482	-0.0038207853	0.013153374	-0.016071426	-0.030962648	0.05372496	0.0031018546	0.005993058	-0.01733462	-0.020972032	-0.008993381	-0.028104518	-0.042668436	-0.025328021	-0.02837152	-0.017254857	-0.059085254	-0.0001338465	0.048187215	-0.04776355	-0.058610063	0.03409972	0.002294011	0.028454743	0.008537205	0.025628908	-0.103890374	-0.07476568	0.042678576	0.010066528	-0.03189332	0.026688017	0.056714598	0.026079047	-0.035916496	0.007947809	-0.011616777	0.00046275835	0.044492118	-0.033571713	0.03698528	-0.04283125	-0.0011442533	-0.08835281	-0.0016007638	0.028002908	-0.029885767	-0.0017872957	-0.0441461	-0.0039858664	0.06199172	-0.042982955	-0.04105372	0.006309119	0.024559515	0.050849553	0.06551239	0.04791701	0.09121135	0.035650462	0.0341693	0.057975166	-0.042926364	-0.04967507	-0.13392429	0.061836615	-0.032332126	-0.04641689	0.015570673	-0.011326264	-0.03369573	0.0007116267	0.02556827	-0.014111904	0.007954821	0.052059043	-0.0046949163	0.009399451	0.032071523	0.033076003	-0.030990867	0.00072344404	-0.021581268	0.022741016	0.038222484	0.030926239	-0.006511201	0.011054854	0.0009779208	0.00010748892	0.049299523	-0.018765518	0.020734206	-0.0001513804	0.019379446	-0.031399965	-0.0026606647	-0.045708794	-0.027739286	-0.0026985917	0.0023341102	-0.0051900405	0.042461473	-0.03718831	-0.02046879	-0.018617146	-0.013212011	0.010021332	0.035383016	0.018145852	-0.007531329	-0.016778968	-0.022198575	0.050169177	0.08845025	-0.022282561	-0.03741272	-0.002874134	0.020477073	0.014267564	-0.0081677195	-0.011199023	-0.044248275	-0.04247718	0.02475611	-0.0033634577	-0.029957628	-0.03841716	-0.055578183	-0.010799972	-0.055238623	-0.018958872	0.01648653	0.034335654	0.027860582	-0.034582	-0.03711064	0.006554306	0.012082811	-0.07433246	0.01638752	0.0023639377	0.10451105	-0.008108247	-0.012977194	-0.054598976	0.007295096	0.018411035	0.0321907	-0.021949906	-0.041158363	-0.014313606	0.010128052	0.008487184	0.05620537	-0.021292744	-0.009944822	-0.033569545	-0.022841938	-0.03519298	0.032565936	-0.0681526	-0.04446467	-0.028115235	-0.058932845	-0.025504373	-0.0038867076	-0.08254619	-0.08565672	0.031193297	0.038116775	0.008874373	-0.07682678	0.0075929402
EX_SPEC_RESPONSIVE_COMPARATIVE_MATRICES_sw_0_7_s_0_7_oc_query.json	-0.026172994	-0.02622049	-0.04751067	0.095883325	0.046996504	-0.05224547	-0.049559925	-0.0047838297	-0.0030318883	0.025429048	-0.033487655	-0.015477715	0.013806183	-0.0113648875	-0.011125212	-0.014486888	-0.008873691	-0.12446813	-0.026067823	0.0064686625	-0.026353315	0.005956072	-0.040345613	0.04600048	0.014883989	0.0036711795	0.035670515	-0.044147987	0.010011092	-0.019864485	-0.0034171862	0.013721938	0.01694314	0.054810356	0.013655593	-0.053978737	-0.03183789	0.013956059	-0.0025276698	0.041121524	0.008212197	0.025630968	-0.004560231	0.031401977	-0.0113837365	0.08950798	-0.03592992	-0.050595216	-0.014340155	0.00047442946	0.010896497	-0.01726734	0.012442131	0.00118458	-0.0222256	-0.0021470818	-0.053689405	-0.026101237	-0.03646463	-0.031226449	-0.051228113	-0.016012548	0.04339234	-0.0023208822	-0.032041576	0.007978856	0.039222118	-0.03935395	-0.033147544	-0.013507923	-0.078625426	0.047871858	0.07013563	0.009775017	0.00046285888	0.08351977	0.006424361	0.012437539	-0.024554774	0.044394065	0.027502231	0.00834856	-0.013152439	0.050915815	0.058854204	-0.027336622	-0.030535199	0.015134314	-0.017416177	0.04455707	0.12832138	0.031025603	0.0017807682	-0.025895203	0.016689774	-0.005039804	-0.0289175	-0.00754225	0.3257128	0.036697097	-0.004823632	-0.0007402696	-0.0061159465	-0.0035705485	0.05969945	0.06290365	0.013975458	0.016838105	-0.018074574	-0.023756936	0.020335926	-0.012113753	0.0024887088	0.02010413	0.07276105	-0.00062675483	0.038248345	0.06408067	-0.047398612	-0.026929019	-0.044479515	-0.035053503	0.00086670526	0.012289797	-0.0050110077	-0.036706954	0.007924555	-0.08197285	0.010832034	-0.085220754	0.057829324	0.01206942	0.035547674	0.018268166	-0.06857691	-0.065891616	-0.024095284	-0.025511868	-0.032880675	0.012616942	0.04536701	0.016660536	0.038794026	0.03190797	0.028371425	-0.055418275	-0.045225322	-0.024111804	0.04742712	0.0041412325	0.06834659	-0.0054180524	0.02749513	0.033883028	0.0032930262	-0.010315927	0.03096645	0.019119117	0.059135105	-0.017096808	0.034611072	-0.03445188	0.002714856	-0.01528418	0.009396905	0.045758978	0.022803912	0.055629227	0.028349105	-0.008740788	0.03063903	-0.00067155214	-0.031422183	0.012638779	-0.05647411	-0.024133224	0.028162396	0.030650677	0.042018626	0.04026717	0.01229173	-0.07553387	0.036041077	-0.050853137	-0.0015816463	-0.053098585	-0.012951311	0.013152832	0.010405051	-0.0016192956	0.0128033105	-0.048278224	0.00046039684	0.012054174	0.051339153	0.0013565057	-0.038650297	-0.012883262	0.04201633	-0.014407784	0.013682131	-0.105856165	-0.0066459025	0.034603488	-0.008437517	0.028008368	-0.057368435	-0.00069301896	-0.006184335	-0.00037039266	-0.0431621	-0.029821327	-0.022075761	0.07227098	-0.007770006	0.052099053	0.046525866	-0.006466118	0.0036572365	0.0027308785	0.0498826	-0.05287178	0.013620685	-0.011275562	-0.007675872	-0.050737094	0.031968407	-0.042173553	-0.0043736985	-0.012565602	-0.0011309524	-0.0879266	0.015147788	0.031965695	-0.0318733	-0.028264087	-0.0368302	0.012584435	0.041847717	-0.052857056	0.014332094	0.39893234	-0.070757814	-0.049540944	-0.05515455	0.048162	0.014096794	-0.051598847	-0.02444988	0.020678576	0.01419048	-0.0627374	-0.0070425463	-0.0331586	0.00018128994	0.0506107	0.01473297	0.03088018	0.045858778	0.008511522	-0.019086022	-0.003561636	-0.004147661	0.09124382	-0.18934284	0.038378287	0.0031880178	0.009933457	0.023903223	0.023769028	0.015768321	0.07345467	-0.023249231	0.028791007	-0.024003845	0.03261355	-0.026339892	-0.027674425	0.0038129883	-0.013365614	0.024165094	0.00981628	-0.07354836	0.0013933827	-0.010606899	-0.010492412	0.047779728	0.0075828996	0.034275018	0.046862736	-0.02136202	-0.0071718968	-0.0380666	-0.04471042	0.0018803809	0.04194948	0.0083021745	0.05259066	0.036903456	0.049011532	0.04281173	-0.06312845	0.01025328	0.048967514	0.009642556	-0.05757438	0.067938425	-0.04913358	-0.0038785029	0.006698548	-0.00080395234	-0.029341765	-0.011024717	-0.0059337015	-0.037619937	-0.05962475	-0.020505667	0.038235836	0.033096705	-0.016310312	0.0035649347	0.0026630776	0.04916123	0.011696047	0.0043632714	-0.008429478	-0.052703653	0.033082567	-0.006738751	0.0027197043	-0.03235915	0.0027925493	0.010010393	-0.039616503	0.030323673	-0.06580965	0.04549849	0.023513524	-0.033050403	-0.075726576	0.034944776	-0.029013336	0.021615474	0.037095625	-0.05558791	-0.00972256	-0.03646196	-0.03944061	-0.010271225	0.022432195	-0.049932927	0.003886325	-0.035533074	-0.05194821	-0.016948452	0.02891653	0.062167466	0.0044037397	-0.013395835	0.025757242	0.025922388	-0.022395559	-0.037562124	0.031505603	-0.12036952	-0.120802194	0.058316477	-0.030231286	0.020455226	0.03120174	0.015756428	0.043762885	-0.012521024	0.0024328316	0.048810232	0.010336889	0.03187115	-0.02959169	0.034498643	-0.06413944	0.018413104	-0.09109303	-0.022559853	0.082233876	-0.04056278	0.046940908	0.030317737	0.030410105	-0.03455832	0.020180613	-0.044438735	0.017109185	0.024164597	0.0052559655	0.014813159	0.04329234	0.06167623	0.057663415	0.02039696	0.083881296	-0.018458035	-0.026187424	-0.049321413	0.06268334	0.020891394	0.007900941	-0.008905881	-0.013994143	0.02753929	0.0036348728	0.030320536	-0.06967845	-0.041262448	0.019955184	-0.011744727	0.046340343	0.068533905	0.029641764	0.008367297	-0.011373778	-0.008166653	0.052619714	-0.00897529	-0.045762103	-0.012140572	0.035022024	0.044592142	-0.020144766	0.005365063	-0.04942682	0.022337122	0.0073267645	0.0007711161	-0.021759946	-0.02806796	-0.009926422	0.0044015604	-0.022561667	0.047425225	0.036663413	0.029214177	-0.053221248	0.016831815	0.0126061095	-0.05010853	-0.0016530014	-0.01088129	0.05173951	-0.016206192	0.016938487	-0.01356499	0.029387461	0.025067272	-0.011860254	0.039199326	-0.036606383	0.085263595	-0.010305945	0.026633484	0.008504468	0.029341942	-0.050035305	-0.009915455	0.004266155	0.0009813561	-0.025349954	-0.03996257	-0.004465787	-0.060302198	0.04755746	-0.028202541	-0.007952257	0.010287623	-0.033961676	0.009897319	0.018847281	-0.040209603	-0.06369514	0.0027782908	0.04222233	0.073255405	0.03302339	0.0035071531	-0.033421773	0.041421343	0.03864717	-0.0155153135	-0.010105714	0.004590464	0.040537193	0.033642903	0.0061777807	0.049272325	-0.040751502	0.015825514	-0.01847217	0.030142251	-0.04906736	0.0100062275	-0.039253667	0.0028085036	-0.03345327	-0.03239501	-0.040087953	0.05527077	-0.07269826	-0.04727175	0.030238835	0.014971384	-0.00973657	-0.014295684	0.043574166
stratified-point_p_0_sw_0_7_s_0_7_cc_0_query.json	0.0020259495	-0.01494288	-0.06705316	0.022060981	0.06012161	-0.028334951	-0.03492097	-0.014956436	0.02985631	0.009279338	-0.0085074315	-0.071372986	0.01856109	0.0051243654	-0.028566442	0.005778999	-0.009749314	-0.030061059	-0.02321788	-0.030539645	0.073699504	-0.0010534548	-0.0009980025	0.049238674	0.0018270937	0.00044747925	0.025642239	0.03504032	0.011873876	-0.01315559	0.02731339	0.01411804	-0.006796517	-0.0013599491	-0.028372455	-0.053155754	-0.027372938	0.018241923	0.00973144	0.032306544	-0.014637709	0.0075437124	-0.023176417	0.024055848	0.0035845656	0.061317567	-0.015930353	-0.043920264	-0.053651325	0.04189472	0.005791011	-0.017767549	0.0452103	-0.030658968	-0.024616137	-0.026480276	0.023500292	0.02516064	0.0033047462	-0.006523509	-0.040123146	-0.027879344	0.0112869	-0.03498044	0.009876116	-0.029562673	-0.0021372384	-0.047852427	-0.012386392	-0.049293857	-0.046914015	0.08349358	0.027561983	0.01763961	0.03633095	0.018661667	-0.025186747	0.025919933	-0.029956244	-0.031575136	0.014344531	0.040527776	-0.045363955	0.026305864	0.035346277	-0.012152487	0.0021602102	-0.012031436	0.029798709	0.020779917	0.059574306	0.023628598	-0.0084385155	-0.0046228277	-0.04548306	-0.009282035	-0.023856996	0.024752015	0.36731106	0.026740186	-0.021926267	-0.008547672	0.0048168064	-0.03146169	0.04664394	0.017347671	0.004227572	0.026050678	-0.032138184	-0.012048052	0.031534065	-0.031805646	-0.0051672715	0.0018140282	-0.0073645352	-0.014592134	0.05862479	0.046623517	0.002865253	0.033292584	-0.0036351352	-0.023332933	-0.021492131	0.007961082	0.0027155152	-0.04929163	0.04045086	-0.05065937	0.054176413	-0.09476096	0.038834475	-0.023565885	0.049688216	-0.039061118	-0.02231129	-0.004640555	0.0056089554	-0.0413807	-0.058121588	-0.009071528	-0.008515369	0.0022581804	0.029981857	0.033126928	-0.010745763	-0.0825619	-0.02696491	-0.048106585	0.08005772	0.00858193	0.03022878	0.046590663	0.05947783	-0.012822948	-0.062184155	0.0016397209	-0.042708945	-0.08484532	0.04639708	-0.0037019558	-0.0007815534	0.03304631	0.020221133	-0.004968531	-0.0005471866	0.03547442	-0.0076569575	0.014203743	0.033284057	0.027735494	-0.016345605	-0.050985616	-0.040101796	0.015242255	-0.045047164	-0.06072637	-0.012993279	-0.02840558	0.048210613	0.060944427	0.03078229	0.020417294	0.03985674	-0.023508051	0.038283788	-0.040979452	0.021944594	-0.004947413	0.011727693	0.0037137873	-0.067300834	-0.016748302	0.0038061326	-0.012957486	0.052432857	0.04205209	0.008309662	0.012376594	0.047761325	-0.013452095	0.0052702925	-0.11941212	-0.007665645	-0.01018627	0.004763973	0.06351363	-0.036817558	0.025663598	0.004918402	0.019630658	-0.011788483	0.047396563	0.0002524287	-0.0012798889	-0.022827456	0.048781127	0.0016071363	-0.025080219	-0.023838772	-0.03552123	0.042582013	-0.028901305	-0.07514405	0.033004303	-0.0071307756	-0.039800428	0.036981173	-0.015966628	-0.06360162	-0.015544869	0.022478508	-0.03985989	0.021973044	-0.0110559035	-0.05056738	-0.03323309	-0.070465006	-0.017022029	0.050134297	-0.01630171	2.9531255e-05	0.44586152	0.007450043	-0.036085784	-0.041192297	0.02929281	0.047088835	-0.005302881	-0.026144786	0.019453086	0.026499258	-0.008350007	-0.03879905	-0.018420475	0.0017405518	0.040378958	0.009948765	-0.023697738	-0.037674934	-0.023325741	0.018994596	0.0055763912	0.031920135	-0.0020092963	-0.2048895	0.034440886	0.0051657683	0.0017570462	0.049682263	0.014984974	0.08621245	0.080410786	0.017053032	0.023432834	-0.022466617	0.054290064	-0.027776217	-0.087711	-0.0006149836	-0.009682704	0.025739573	0.012633419	-0.038373668	0.0026244211	-0.010574963	-0.01283492	0.046036255	-0.03345067	0.016195783	0.026062485	-0.040770486	-0.030933931	0.02170599	-0.05783307	0.031604107	-0.019214002	0.026770148	0.008254098	0.059696242	0.051657308	0.012901388	-0.015612866	0.018119374	0.07045493	0.01931499	-0.06894227	0.052886724	-0.051639654	-0.052642614	-0.0010895297	-0.012396343	-0.03468131	-0.0015871502	-0.046819672	-0.021634787	-0.0053325975	0.007640537	0.028708478	-0.02937928	0.029539054	-0.024177978	-0.04113696	0.017779622	0.00672809	-0.062211953	0.023140036	-0.03980665	-0.0012040125	-0.04734361	-0.031544164	-0.04630762	-0.030206589	-0.015868397	-0.02355283	0.008222383	-0.033405926	0.024865434	-0.013943966	-0.026289145	-0.00981004	0.007508832	-0.030849857	-0.017613819	0.07909335	-0.023886759	-0.0044270186	-0.05718273	0.037635803	-0.018126696	-0.011116469	-0.040325347	0.001678048	0.0042292867	-0.026617695	-0.032961365	0.004840691	0.047459293	0.0034851916	-0.05429414	-0.026459862	-0.0066296053	0.049958542	0.051380526	0.014458186	-0.097166546	-0.047498044	0.032221187	0.038727846	-0.015780047	0.025637647	-0.013094536	-0.013795591	-0.06734601	0.01119603	0.026560182	-0.0054744715	0.023461314	-0.045155253	0.013717441	-0.021342164	-0.044786062	-0.04290446	0.0027023412	0.051212274	-0.026145522	-0.018997094	-0.06964687	-0.008099411	-0.009572164	-0.044346165	-0.038146723	0.020386996	0.035931878	-0.004934298	0.009166217	0.03712139	0.0693191	0.053593565	0.009392274	0.05737389	-0.02979393	-0.016037231	-0.060158934	0.03305641	-0.01594562	-0.023465298	0.040600155	0.031137051	-0.03993951	-0.01246149	0.02983022	-0.035399966	0.04212853	0.04827535	-0.03951366	0.033218868	0.051374	0.07419858	-0.034678113	-0.021468323	-0.05967813	0.014904143	0.022214688	0.0023215394	-0.0014823729	0.04800562	0.050845772	-0.04251067	0.059284724	0.0022067083	-0.0016529092	0.011349265	-0.018998314	0.034714237	0.009605419	0.016991612	0.021889186	-0.020127164	0.0006784392	0.020895042	0.048508067	0.013933895	-0.012322166	-0.029077617	-0.040716175	-0.0058153276	-0.011854968	0.026264533	-0.019781541	-0.01906048	-0.040442877	0.05359222	0.030992089	-0.012195329	-0.014149449	-0.0047070235	0.0462074	0.025238851	-0.009390275	-0.016895171	0.0025610656	-0.037741493	-0.00416254	-0.032027833	-0.015551149	-0.029825231	-0.090526074	0.0012823353	-0.032652084	0.025096277	-0.036981508	0.028037658	0.04303949	-0.0069761304	0.015029858	-0.00037979623	-0.023027305	-0.09390339	-0.017930092	-0.0057148198	0.09615512	0.009392128	0.039400384	-0.0143896295	0.023230597	0.013577157	0.009210713	-0.0032148657	-0.012920373	0.0075674863	0.0050447793	0.03206678	0.03386273	0.019955726	0.01749927	-0.068251245	0.016036578	-0.03015492	0.036739737	-0.05003674	-0.032192983	-0.0111318715	-0.09004969	-0.016202332	0.038197663	-0.10588906	-0.021224331	0.018973129	0.052658804	0.047391992	-0.01755397	0.035037722
circulars_p_3_cc_0_query3.json	-0.011190364	-0.027932664	-0.06848707	0.010781191	0.028447682	-0.0415615	-0.03854018	-0.04912181	0.042061195	-0.0075896266	-0.002634164	-0.050046023	0.008462956	0.015259656	-0.008639103	-0.0008928239	-0.0054603405	-0.015187992	-0.01351607	-0.003962962	0.06484596	-0.012575964	0.00032070652	0.056273125	-0.005260476	-0.015451402	0.023540067	0.038600273	0.0012135291	-0.00357052	0.022282168	0.015476387	-0.009995155	0.010658316	-0.036160454	-0.05694085	-0.019197375	0.009112403	0.005088967	0.03194267	-0.010608258	0.0044334168	-0.04779045	0.04244552	-0.0067782705	0.05857449	-0.012707526	-0.045185518	-0.068820596	0.0521589	-0.0018428138	-0.026044255	0.04884277	-0.014650468	-0.028118558	-0.03478411	0.021955155	0.035109643	0.0061637643	-0.0068675093	-0.046217564	-0.0177065	-0.0070623937	-0.024439411	0.01113592	-0.047690317	0.0086577125	-0.060939495	-0.009091067	-0.035630308	-0.050083227	0.07162119	0.02606182	0.026449734	0.03273958	0.013604867	-0.015786419	0.011276722	-0.019747725	-0.02621416	0.002685621	0.03395328	-0.029178709	0.027855005	0.03499732	-0.007345581	-0.008611949	0.0051485575	0.032646976	0.022206673	0.06420551	0.040577188	-0.022946201	-0.0022804283	-0.048150655	-0.0057784533	-0.019277472	0.011605406	0.3640403	0.02773754	-0.02123129	-0.0018975935	0.008427601	-0.0420217	0.04111477	0.034411684	0.010801096	0.025542922	-0.025854703	-0.016230669	0.0357898	-0.03002209	-0.009106082	0.0023284093	0.0025159244	-0.021452174	0.06259968	0.03992151	-0.021921817	0.029421648	-0.008743614	-0.029295828	-0.028097622	-0.000914411	-0.017469855	-0.047107756	0.026016466	-0.054226957	0.039527003	-0.09355117	0.024828818	-0.020322276	0.050242238	-0.03429304	-0.03511135	-0.009013297	0.008687071	-0.030057821	-0.038795013	-0.014346023	-0.0045796367	-0.00856221	0.035840392	0.029105922	-0.012355022	-0.066875204	-0.032984465	-0.03883078	0.062174577	0.018280156	0.018408993	0.06003251	0.059515063	-0.013771446	-0.05551861	0.010469889	-0.029225029	-0.074226074	0.057888225	0.0011822678	0.0025764985	0.032098256	0.014435541	-0.008095027	0.00016119918	0.039324094	-0.0042468086	0.009227379	0.008284335	0.034895975	0.00091163605	-0.06000383	-0.061459973	0.031045446	-0.03908504	-0.08187937	-0.02578388	-0.017271107	0.04905438	0.051316928	0.028742338	0.030968562	0.030919418	-0.036708646	0.04410166	-0.051820505	0.0011767407	-0.013141195	0.019276451	0.004600861	-0.048678756	-0.030369796	0.00787033	0.0024867465	0.058945607	0.021319982	0.012285128	0.004456133	0.047057766	-0.012584213	0.0049661156	-0.13135229	0.0026938568	-0.01775832	-8.343374e-05	0.06604689	-0.032437634	0.016293429	0.004465318	0.04365692	-0.015618379	0.020774601	0.0036498073	0.019778484	-0.018737717	0.054221142	0.01825523	-0.022870703	-0.023111306	-0.04457191	0.039699666	-0.03586905	-0.07146159	0.04221068	-0.020298284	-0.04033242	0.033661768	-0.02020245	-0.07395992	-0.0012986752	0.016286828	-0.055870768	0.008529221	-0.018528944	-0.04211427	-0.016245598	-0.0826848	-0.02021399	0.059885	-0.026651464	-0.0118692145	0.44061905	0.019337865	-0.02925678	-0.042990856	0.034580994	0.058648515	0.0073290206	-0.027566658	0.014326699	0.02045837	-0.000528159	-0.033353128	-0.015407024	0.011823432	0.034890063	0.010796066	-0.009286697	-0.034570847	-0.03533452	0.033705156	0.012791978	0.030997843	-0.007833732	-0.20436434	0.039074827	0.00066295353	0.0006479051	0.06753738	0.019305239	0.07524879	0.08790195	0.021325268	0.028150095	-0.01081282	0.05337965	-0.022507606	-0.07591091	-0.009940624	-0.010709459	0.013883167	0.026534302	-0.033875298	0.023966981	-0.03559601	-0.017598936	0.04374184	-0.01391695	0.020439265	0.023420148	-0.040326875	-0.01789743	0.014057081	-0.04537592	0.020381495	-0.007897614	0.026127355	0.010480349	0.053934947	0.042900432	0.011418695	-0.02183081	0.022735074	0.08487565	0.023874559	-0.06735557	0.04467567	-0.058362413	-0.047370337	-0.028949156	0.004203615	-0.032170136	0.010607301	-0.04463248	-0.03733568	-0.009633461	0.00707583	0.024381962	-0.042365506	0.038389128	-0.01937217	-0.027000254	0.0058742315	0.02014401	-0.054039657	0.00679192	-0.0391197	-0.009350712	-0.04243211	-0.025421979	-0.046927802	-0.028711215	-0.018109055	-0.018353017	0.005019622	-0.045485556	0.028721891	-0.012205246	-0.021479528	-0.020417951	-0.0070599285	-0.020879824	-0.014339351	0.06701743	-0.0298046	7.1975366e-05	-0.060862385	0.034041334	-0.027533134	-0.017519156	-0.037246693	-0.00836663	0.0041702944	-0.019413996	-0.043333653	0.017199192	0.057759672	0.0031333263	-0.046439186	-0.039414253	-0.020117821	0.054117143	0.03467571	0.012266343	-0.10029168	-0.041467097	0.03557965	0.053138934	-0.003403206	0.017060684	-0.002692653	0.001221997	-0.05809021	0.00890684	-0.00045949148	0.0023429247	0.028690362	-0.03488616	0.0068152305	-0.021562127	-0.038392488	-0.055408787	-0.00021476431	0.04687199	-0.025379842	-0.0056779343	-0.065297	0.012486604	-0.018715406	-0.046853457	-0.044133794	0.048807606	0.04223213	-0.009200655	0.020827238	0.029176269	0.07313639	0.058234572	0.028047793	0.049874585	-0.03717581	-0.012112188	-0.04332284	0.032913733	-0.009957929	-0.007397602	0.039613944	0.03598243	-0.040546857	-0.024262374	0.026302664	-0.036967833	0.04629825	0.037104074	-0.024829937	0.03694013	0.045731407	0.05645344	-0.034637846	-0.034642663	-0.052554525	0.015565312	0.0121742785	-0.016511032	-0.0029055765	0.04327863	0.056392245	-0.04219268	0.04941781	0.011198305	0.0026063805	0.032406118	-0.009134388	0.03789969	0.009436787	0.020517776	-0.005623944	-0.0087108305	0.01742451	0.029120564	0.043470398	0.002416444	0.003031157	-0.039509486	-0.042954467	-0.004197624	-0.0047393492	0.03596728	-0.030959796	-0.03149413	-0.0451004	0.045920435	0.02365978	-0.011563197	0.012095245	-0.016601205	0.030432371	0.022486279	-0.0010833711	-0.03483892	-0.021660969	-0.011440272	0.0015076391	-0.016367557	-0.022801725	-0.043134805	-0.10661502	0.0026264905	-0.023635441	0.014405209	-0.022736643	0.019139292	0.023651425	-0.010226354	0.010777775	0.006408414	-0.011109838	-0.11254319	-0.021563724	-0.025148455	0.10658249	0.025448287	0.05570742	0.000702023	0.023646716	0.010694764	0.016483694	-0.0063677975	-0.026511965	-0.004386815	0.009554969	0.024059271	0.040430855	0.008910316	0.033010118	-0.06056888	0.017659511	-0.037619233	0.038707245	-0.05661863	-0.030767685	-0.008026704	-0.08527595	-0.022834392	0.046252046	-0.10495337	-0.021796161	0.020078182	0.022864534	0.040199976	-0.02300398	0.03430836
stacked-bar_p_0_sw_0_7_s_0_7_cc_0_query.json	-0.00052889466	-0.019283647	-0.06374146	0.030864632	0.05203751	-0.02968655	-0.034005433	-0.013118973	0.02838816	0.010560168	-0.010529816	-0.07126521	0.018743007	0.0042167543	-0.027287094	0.009868275	-0.001733162	-0.031278916	-0.024057439	-0.025770478	0.07294275	-0.0019971787	0.0037201352	0.05120005	0.0019260942	0.0060490286	0.022666393	0.031351283	0.007486215	-0.015523857	0.03032243	0.008485441	-0.010943714	-0.005356393	-0.022057328	-0.052685592	-0.035772912	0.020503726	0.011735781	0.02676317	-0.005134888	0.0073876996	-0.019057453	0.034695186	-0.00085071736	0.060010184	-0.013644266	-0.047575112	-0.056804113	0.043632343	0.0042379345	-0.023415998	0.044203054	-0.027921503	-0.034252953	-0.031659156	0.014916356	0.028805915	0.004762372	0.001896441	-0.038729697	-0.028078306	0.021099448	-0.039332706	0.009127565	-0.029764429	0.0056149894	-0.051977277	-0.014645453	-0.054173432	-0.05242304	0.07797635	0.024523044	0.014364056	0.032328364	0.02133391	-0.029690176	0.026681049	-0.03454576	-0.029574318	0.0063866023	0.042843528	-0.045660786	0.020353748	0.033429466	-0.023430178	-0.0024250196	-0.0062796227	0.03055986	0.024327187	0.06046888	0.024857977	-0.0070970478	-0.0042792517	-0.050131932	-0.0065102223	-0.027882194	0.028713353	0.36731225	0.027522871	-0.029940393	-0.010144337	0.0024051545	-0.034097847	0.045631684	0.01865513	0.0056643337	0.02611556	-0.026004056	-0.0038356495	0.02873506	-0.032625247	-0.002715471	0.0052918154	-0.0064971014	-0.012765561	0.0635757	0.04796917	0.0070588114	0.031503927	-0.0030749012	-0.016369656	-0.009309066	0.008175587	-0.00011066665	-0.04180417	0.036710743	-0.051246338	0.05080373	-0.09651247	0.03462857	-0.026562352	0.052733086	-0.03419535	-0.027032344	-0.011136336	0.008343921	-0.03940907	-0.053924907	-0.017037576	-0.008897212	0.0048054988	0.033908222	0.0331363	-0.015736746	-0.080611624	-0.026889114	-0.04137823	0.083902806	0.0010349089	0.04020103	0.042757586	0.05763056	-0.011536349	-0.057596046	0.002633191	-0.040741544	-0.089159586	0.047634594	-0.005032636	0.005476879	0.031651806	0.021768823	-0.008614774	0.0010507497	0.03380999	-0.013620028	0.0135553405	0.02580174	0.028447693	-0.012282098	-0.05515506	-0.03983214	0.01193088	-0.04418389	-0.05489904	-0.017371166	-0.031319402	0.043552507	0.06010399	0.037864458	0.0148393605	0.043917574	-0.025410734	0.039546527	-0.039883528	0.02659878	0.0027695177	0.019198036	0.004430014	-0.072274886	-0.013764031	0.0033351164	-0.015936673	0.04884298	0.038479667	0.006092724	0.018771788	0.050623704	-0.018636512	0.009369382	-0.119699664	-0.0024597184	-0.013865459	0.0012464689	0.059834987	-0.03682321	0.029905898	0.010410341	0.021879546	-0.0082038175	0.04663908	-0.0036749917	0.006182217	-0.01832678	0.049198955	-0.0020581165	-0.022397555	-0.024989353	-0.043200828	0.046391334	-0.029132143	-0.06883906	0.031451605	-0.008656284	-0.034081664	0.040544238	-0.021020163	-0.060495395	-0.013236136	0.020434223	-0.04307741	0.01942567	-0.00315555	-0.05871092	-0.03739225	-0.07132768	-0.012015429	0.044276003	-0.017198427	-0.012845813	0.44534034	0.007968215	-0.038080994	-0.045209754	0.029814307	0.05187881	-0.004999824	-0.026041033	0.021667875	0.040283665	-0.010236994	-0.039708905	-0.018463977	0.006261317	0.03229132	0.010891955	-0.027132068	-0.04019882	-0.023489015	0.023678815	0.0016766209	0.036441185	-0.0042630243	-0.20539644	0.030048862	0.010307557	-0.0019756816	0.051986586	0.022128617	0.07941296	0.0729152	0.017719194	0.033754364	-0.018000517	0.052879952	-0.02720153	-0.08739834	-0.001902178	-0.010429792	0.023890844	0.012934231	-0.030378614	0.009791488	-0.00805901	-0.0137396995	0.041980945	-0.03135341	0.02579003	0.018897966	-0.044555046	-0.036265515	0.020407142	-0.063588	0.029697603	-0.018835407	0.01497032	0.0053624692	0.056338314	0.04932407	0.015727006	-0.018063828	0.014541584	0.068292215	0.021391302	-0.07951919	0.057799034	-0.040897824	-0.055954285	-0.00039872344	-0.0070615453	-0.030973721	-0.0019905572	-0.041469336	-0.024929557	-0.008000213	0.011893918	0.025111664	-0.029288206	0.029415162	-0.016582156	-0.042572185	0.020747328	0.0070125055	-0.05792002	0.03162648	-0.04269409	0.0052383156	-0.046002634	-0.032909006	-0.04362682	-0.023411825	-0.019288793	-0.022128172	0.008890006	-0.039218906	0.027887369	-0.01590302	-0.027735896	-0.004596939	0.0030917192	-0.022146659	-0.019514449	0.07810583	-0.012824339	-0.0067235325	-0.048870888	0.03732617	-0.018168654	-0.0069945557	-0.033724166	-0.0028123583	0.002957519	-0.024096772	-0.023923354	0.007191645	0.05057787	0.0015056276	-0.051818375	-0.026699398	-0.004537358	0.0540091	0.050245583	0.014198801	-0.0938832	-0.046620205	0.038824596	0.038209256	-0.004091408	0.02756928	-0.014097144	-0.020718561	-0.062899984	0.019180778	0.029885426	-0.004978839	0.01947522	-0.048323452	0.015708445	-0.020461168	-0.052015692	-0.044751357	0.004151627	0.054353982	-0.026914962	-0.021459257	-0.0710249	-0.012678062	-0.00010882543	-0.05143674	-0.040155426	0.022516115	0.039968055	-0.0016799483	0.008920149	0.040460117	0.06890492	0.051368628	0.0061928052	0.047381774	-0.03548981	-0.017038321	-0.06715915	0.03511975	-0.011048993	-0.024991458	0.044753984	0.031747878	-0.036671545	-0.009456035	0.032400195	-0.039021175	0.037798755	0.040353324	-0.04194431	0.028399039	0.051537354	0.06790829	-0.028992392	-0.021865997	-0.05812755	0.011437737	0.025654152	0.010904865	0.0022829548	0.051150914	0.05381265	-0.037455995	0.055538103	0.0046577468	0.0008055142	0.008975865	-0.018050091	0.02647664	0.0024677573	0.017418312	0.025700884	-0.014166099	0.0002960461	0.023355497	0.047738113	0.013372627	-0.013421389	-0.033352874	-0.043066178	-0.0020244701	-0.01223815	0.024708489	-0.02478105	-0.030863384	-0.046878126	0.057299994	0.037339617	-0.0053899963	-0.012032398	-0.00092860113	0.042818625	0.019007003	-0.0053018895	-0.011045532	0.005713257	-0.036650904	-0.009785147	-0.027935173	-0.021787914	-0.022824813	-0.08225924	0.0009821518	-0.03370095	0.023203107	-0.033142727	0.024448844	0.044525143	-0.012732557	0.01967929	-0.0061547104	-0.02465052	-0.09281173	-0.010648334	-0.0011640043	0.09420422	0.016051767	0.0372386	-0.014395753	0.027065549	0.017570669	0.006393267	-0.0026552905	-0.0069697862	0.0073455814	0.0047159027	0.033988893	0.044315036	0.015529878	0.018388746	-0.07268586	0.014746413	-0.023075832	0.033655223	-0.057445135	-0.035612334	-0.014301172	-0.07757563	-0.019762408	0.035576697	-0.106288336	-0.023904156	0.024598865	0.061055932	0.04323061	-0.013670227	0.033211336
gray_heatmap_sw_1_0_s_1_0_oc_sw_1_2_s_1_2_oc_query.json	0.016914299	-0.08911819	-0.063219085	0.05239885	0.01751855	-0.015115136	-0.013201497	-0.052076824	0.034397766	0.008002426	0.00072992896	-0.014779512	-0.038216226	-0.016131295	0.012664296	-0.015668906	-0.008650486	-0.099600054	-0.03275906	0.043741282	0.047629736	0.012565001	-0.03758369	0.055281125	-0.0015350698	-0.034605455	0.010536162	0.020103445	0.014781972	-0.015258686	0.0036216574	0.025769567	-0.016436104	0.012839733	0.022579378	-0.0498834	-0.07391122	-0.0019318013	0.009058297	0.066742815	-0.0022742269	0.009529481	-0.009791317	0.03197275	-0.011084276	0.07495157	-0.04938797	-0.03276404	0.018063227	0.017792506	0.01582698	-0.05540564	-0.015449418	-0.012584834	-0.021656364	-0.003121406	-0.04717541	0.0039758394	-0.036724515	-0.018597847	-0.049201157	0.0011119728	0.04882147	-0.023019861	-0.007877039	-0.021999888	-0.03965241	-0.03909884	-0.022341225	-0.004226056	-0.014816453	0.052153535	0.028464073	-0.008709555	0.018335577	0.072628796	0.022375138	-0.029191118	-0.0017237662	-0.011185833	0.012770694	0.053257737	-0.040274017	0.027611647	0.04228481	-0.054666005	0.019226678	-0.0005462399	-0.0066677225	0.0213726	0.082466215	-0.01866963	0.010408579	-0.013725499	-0.040429473	-0.01170242	-0.04932566	0.010496132	0.3101851	-0.015476339	-0.030190574	-0.02671239	0.0072397874	-0.0054081883	0.059899524	0.050325092	-0.0034648965	0.043035652	-0.0131998155	-0.0039691175	0.020271594	-0.023910604	0.007437285	0.0143059045	0.03408537	-0.0025063383	0.035506036	0.01750795	-0.045311745	0.018040307	-0.008539126	-0.016557524	-0.04803457	-0.027841939	-0.033869434	-0.004582133	-0.0021515735	-0.059647333	0.04026598	-0.07843033	0.02571865	-0.00970053	0.033894926	-0.018753532	-0.042923532	-0.028792666	-0.04177481	-0.03357426	-0.09109833	-0.011526049	0.0032473735	-0.011144412	-0.008980665	0.022323396	-0.054971498	-0.051807735	-0.05213876	-0.010641628	0.07383311	-0.010397169	0.10075226	0.033177767	0.04160499	0.015712656	0.0024750025	-0.02019602	0.020338453	0.012217162	0.073592454	-0.023897879	0.037062913	-0.013442962	0.019489083	-0.013747293	0.053122856	0.041302774	-0.017171241	0.043038588	0.021672038	0.016738612	0.02023632	0.00036933363	-0.040820114	0.02369532	-0.08742813	-0.047285475	-0.0048117707	-0.0036230062	0.062238984	0.06441931	9.641483e-05	-0.005771193	-0.008181344	-0.02950993	0.054456618	-0.07259554	0.0009398432	0.040731758	0.04762755	-0.010055412	-0.013007333	-0.058731865	0.021352086	0.034956835	0.071529895	0.021925872	-0.004359772	-0.01187962	0.05410102	-0.039258827	0.01971002	-0.12971109	0.010182435	-0.0015652649	-0.00012037141	-0.013580201	-0.039779775	-0.00527779	0.00059734547	0.043425564	-0.0442179	-0.022604875	-0.02386357	0.027515287	-0.011313868	0.044039205	0.038324047	-0.0025972354	-0.0053748125	-0.030922545	0.068736024	-0.018127402	-0.04028073	0.023093753	-0.023625733	-0.034688	0.026252981	0.0003751674	-0.028938083	-0.018602503	0.025107406	-0.031132545	0.063299455	0.047875877	-0.06563842	-0.0131389825	-0.09044592	0.0052634715	0.06364906	-0.048780058	-0.0012618662	0.3809987	-0.042226072	-0.07487372	-0.049417693	0.030115549	0.058697946	-0.015538361	0.004343717	0.0012542087	0.039225247	-0.050164293	-0.02069767	0.0066566058	-0.021151982	0.09516216	-0.030483397	-0.025459059	0.0059498115	0.0035361822	0.019264597	0.0046331114	0.03327993	0.042160515	-0.17753382	0.032439444	0.012834372	-0.0153408265	0.060416218	0.04739356	0.08581325	0.07409049	-0.011372207	0.03792835	-0.010483929	0.05731932	0.005943656	-0.03129225	-0.027884725	-0.0053968066	0.042941503	0.013046817	-0.050496858	0.008356775	-0.03978835	0.027554499	0.037943557	-0.001354881	0.0242698	0.014761729	-0.06543205	-0.016892105	0.0020857588	-0.036299977	0.020940525	0.018509222	0.021430787	0.026180975	0.031574164	0.03451976	0.002318307	-0.041272845	-0.021701645	0.056332536	0.03478386	-0.096057266	0.0856839	-0.022393133	-0.04530032	0.0010724419	0.04369784	-0.063758425	-0.0028665648	-0.015299215	-0.04517824	-0.053899586	0.006966837	0.020883154	0.015391869	0.020728625	0.011976277	0.0024395331	-0.006954567	0.05555613	0.010623565	0.012108428	-0.018011367	0.042320415	-0.030684423	-0.009711165	-0.049301688	-0.0045464933	-0.0052834735	0.0046656947	-0.012733298	0.017867183	0.043506134	0.009776248	-0.0498696	0.008823911	0.03526393	-0.063591816	-0.0012279203	0.06735948	0.00426935	-0.007904441	-0.030948838	0.00019596996	-0.046478268	-0.045864873	-0.010950575	-0.025946772	-0.020285372	-0.006777888	0.04155074	0.0037092099	0.08955602	0.029855883	-0.036547977	-0.0022351183	-0.020280324	0.031602275	-0.013491438	-0.016170561	-0.097702146	-0.072280586	0.08210447	-0.018652963	0.011485037	0.044239976	-0.0048406934	0.0406588	-0.047900297	0.020358805	0.019214759	-0.013451582	0.039023552	-0.06310923	0.03766364	-0.056112904	0.013480237	-0.077192314	-0.021015842	0.08096658	-0.023310747	-0.003088472	-0.025370613	0.014558064	-0.023697425	-0.02897149	-0.047989715	0.021986844	0.008691228	0.042490855	0.021448942	0.019089498	0.04800929	0.06665862	0.02320884	0.06267793	-0.044300202	-0.040137503	-0.058897406	0.07820613	0.0015626366	-0.020542791	-0.00871407	0.016394932	-0.020763626	-0.02065799	0.044734716	-0.08176132	-0.0074120867	0.03948588	-0.036963277	0.045605525	0.115684986	0.0045265416	-0.036548536	0.019449478	-0.033443443	0.027363133	0.042779464	-0.021395087	0.015055162	0.041089375	0.040194422	-0.006765933	0.01822052	0.016421743	-0.005448514	0.016401652	-0.0033136471	-0.040753536	0.0087452205	0.0021063206	0.026661705	-0.0113490205	0.02875532	0.032868285	0.06601723	-0.020041328	-0.033305403	-0.008089153	-0.032436915	-0.037434693	0.0037339788	0.0057138777	-0.03561698	0.0028794406	-0.032589644	0.05472027	0.04685291	-0.006542336	0.039012108	-0.06000821	0.041989323	-0.033868767	-0.03888079	0.00608012	0.022892652	-0.052341957	-0.0020745348	0.030339886	-0.024187457	0.009506705	-0.048310943	0.007500473	-0.057359293	0.01888245	-0.039235212	0.038813505	0.02814051	-0.0457174	0.005256143	0.022809098	-0.055942647	-0.07362529	0.025488637	0.010112291	0.09905114	0.003481371	0.022881763	-0.0020019063	0.042933885	0.022477316	-0.023914263	0.0037293332	0.024028322	0.015294348	0.038732875	0.00646094	0.06765108	0.012692099	0.024500515	-0.050513484	0.010887831	-0.014058556	-0.007567762	-0.02637378	-0.027041553	-0.036663044	-0.026864814	-0.016309451	0.057620846	-0.073833995	-0.057439543	0.044324353	0.07316567	-0.010784839	-0.013322831	0.0821468
BRUSH_sw_1_0_s_1_2_cc_1_query2.json	0.029243128	-0.023532327	-0.07933477	0.012975531	0.055966634	-0.025555672	-0.0091974195	-0.011603373	0.015661776	0.027693301	0.0017310518	-0.04671527	-0.010601739	-0.030989572	0.0052043456	-0.024682377	-0.025032789	-0.04123206	-0.022321591	-0.0004644851	0.07699853	-0.013293883	0.005049343	0.049785435	0.0025628926	-0.019841308	0.038290936	0.0039855256	0.0016619087	-0.007894064	0.014057121	0.014099783	-0.0019943793	-0.017023295	-0.042349555	-0.054018207	-0.042011194	0.024500312	-0.008558448	0.051973183	-0.014798653	0.011004594	-0.0024255177	0.03343057	0.011499322	0.0431624	-0.03472814	-0.048147727	-0.039231244	0.0056064874	0.0098957	-0.014250613	-0.008385735	-0.068082	-0.03116101	0.0031478803	-0.01931141	0.04657181	-0.015455868	-0.0032071853	-0.03314656	-0.042460363	0.043346472	-0.0064627603	0.006223309	0.001740203	-0.042408276	-0.026360052	-0.012942629	-0.025325373	-0.040486734	0.06539815	0.020040713	-0.002760547	0.02144408	0.0581832	0.0024704856	-0.0022862784	-0.010466678	-0.034244094	0.026561862	0.03178636	-0.035347965	0.026249228	0.048289794	-0.038270008	0.017809128	-0.016006753	-0.01061686	0.01263015	0.05793707	-0.007604309	-0.02481001	-0.0018517941	-0.061743017	-0.017292231	-0.031130115	0.004692296	0.37186545	-0.0035873714	-0.033457123	-0.03361959	0.013396459	-0.010398469	0.03730914	0.045694806	0.0063554645	0.030614452	-0.013207631	0.019721296	0.0108186845	-0.023148902	0.015464854	0.012216072	-0.008019421	0.0020858306	0.05652406	0.050192337	0.014189001	0.039733514	-0.019072266	0.002866556	-0.033309963	-0.01277528	-0.030008262	-0.023800762	0.020976186	-0.013659103	0.047558893	-0.078690045	0.01727953	-0.014064674	0.03848359	-0.030576115	-0.032067746	-0.017453767	-0.044077378	-0.083708115	-0.078086615	0.011839371	-0.009048408	-0.008873225	0.00023086547	0.019990083	-0.022699794	-0.06597544	-0.02325929	-0.06546483	0.054430716	0.0039738365	0.069716915	0.058867652	0.05169514	-0.01608081	-0.0068642725	0.011963418	-0.027840853	-0.06557884	0.05695047	-0.054544434	-0.010063007	0.008935504	0.047481887	0.023473382	0.029775234	0.03691544	0.0039055336	0.012140644	0.027412366	0.022974009	-0.012200896	-0.015951578	-0.015705466	-0.0045279646	-0.06658731	-0.030121913	0.0022202649	-0.0072480836	0.035171818	0.07195927	0.0107949795	0.017102975	0.026355902	-0.023788195	0.04416107	-0.042935606	0.019693788	0.0069276863	-0.0029307	0.00022630284	-0.04737186	-0.01875469	0.015667876	-0.009914898	0.043579455	0.06781594	-0.016149323	-0.000728709	0.030124838	-0.01637747	0.003546735	-0.12634547	0.01809543	0.0074381195	0.011896419	0.017676944	-0.030168941	0.02594645	0.032130443	0.02396449	-0.03543787	0.056418	-0.019956807	0.0014485846	-0.045254447	0.059358295	0.0066735717	-0.0053629973	-0.0016251346	-0.04456274	0.06394002	-0.021498851	-0.0593235	0.025049604	0.024017137	-0.033458	0.008732329	-0.017231893	-0.035073724	-0.011436323	0.004425938	-0.046491604	0.021858752	-0.015909217	-0.04979487	-0.008024636	-0.057835285	0.0068377755	0.048374757	-0.049068034	-0.010815011	0.45769975	-0.0020072204	-0.06621204	-0.06768106	0.053917345	0.023663588	-0.022818008	-0.0145161655	-0.013719089	0.04099712	-0.027301587	-0.03170792	-0.0071331062	-0.02073633	0.057496496	-0.017129373	-0.050312277	-0.024589896	0.003770065	0.006412336	-0.011434345	0.03730211	0.0016176435	-0.1980467	0.041227035	-0.010480954	-0.008822617	0.014158256	0.019248705	0.081111774	0.062654	0.014338337	0.047651354	-0.048163716	0.07156556	-0.00971999	-0.060333516	-0.007906368	-0.003986491	-0.011307683	-0.0004247769	-0.023210132	0.011703012	0.00202952	0.033319626	0.036888808	-0.008689738	0.04092376	0.0013312075	-0.007381935	-0.02761889	0.002817817	-0.04046283	0.040241398	-0.029240109	0.030762237	0.03484892	0.012617119	0.048836607	0.0022038133	-0.056749135	-0.009495155	0.062599726	0.0072773052	-0.10323556	0.07536203	-0.021969931	-0.025759649	0.023094473	-0.0093875425	-0.051919404	-0.008239729	-0.020670751	-0.04838661	0.010730193	-0.020200226	0.052405402	-0.024103168	-0.016354471	-0.0043574465	-0.0021763106	-0.011547166	0.021071682	-0.04398686	0.059773993	-0.02370514	0.012043655	-0.06912539	-0.015422783	-0.06456963	-0.024318045	0.007350196	0.015690275	-0.01599198	-0.009173773	0.019956158	4.451448e-06	-0.020757707	0.014797762	0.013567578	-0.014665001	-0.0047169384	0.056096204	0.0033200954	-0.031518772	-0.023162708	0.020009764	-0.023807378	-0.012159817	-0.028516704	0.015453369	-0.011347388	-0.01792566	0.030305937	0.03141507	0.058081277	0.0007577544	-0.057195775	-0.008434991	-0.009552748	0.04423666	0.032602925	0.010487029	-0.085934	-0.04802409	0.06861604	0.03666186	0.009859271	0.030708915	-0.043033812	-0.017765012	-0.030112186	0.007489377	0.03958477	0.025055883	-0.009861615	-0.06349163	0.03479034	-0.018738171	-0.011846739	-0.01771297	-0.0031267935	0.051604703	-0.04463694	-0.014340713	-0.051333375	0.027284274	0.00043738572	-0.05965441	-0.0687743	-0.0062102303	0.03113885	0.03396524	0.020421972	0.01924813	0.06285631	0.06184464	-0.0075026182	0.04714485	-0.058643054	-0.028412465	-0.07663559	0.045180473	-0.01633109	-0.044021536	0.02847024	0.0023520854	-0.015950726	0.004596682	0.036366265	-0.061772294	-0.017697655	0.013725458	-0.02561822	0.0065285224	0.06152708	0.031803582	0.0020592548	-0.002868845	-0.056123655	0.006146918	-0.002571657	0.008367886	-0.004377087	0.053273566	0.019003632	-0.009308159	0.047395173	-0.006542558	-0.018704668	0.0072544604	0.002917039	0.019938935	-0.012851715	0.047478944	0.040250793	0.008400311	0.0010281961	0.027377125	0.060983136	-0.022450661	-0.017980676	-0.006078381	-0.05725476	-0.016795127	0.002412322	0.05612913	-0.005048013	-0.027493538	-0.09897662	0.035502583	0.031751916	0.011481395	-0.019307764	-0.040834002	0.04122049	-0.012584395	-0.034316912	-0.00884913	0.004079363	-0.07774103	-0.017383307	0.007964246	-0.015933884	-0.010707418	-0.038187366	-0.0012515604	-0.04520456	-0.009678202	-0.04685905	0.025386672	0.04101121	-0.0058555556	0.03933464	0.031133804	-0.036755208	-0.072208285	0.023549689	0.022692243	0.07366591	-0.011174084	0.0357824	-1.5577689e-05	0.022599347	0.008052058	-0.019298572	-0.0018711629	6.319124e-05	-0.013191835	-0.02305044	0.0042322036	0.075982854	0.03421107	0.0110866735	-0.080808505	0.0132392915	-0.020392334	0.022176154	-0.029526768	-0.012447821	-0.004165176	-0.07191705	-0.034351233	0.019741474	-0.07264526	-0.024904795	0.0140606165	0.054671872	0.00511175	-0.03484387	0.07261021
OVERLAY_TRACKS_LINE_POINT_sw_0_7_s_0_7_cc_0_query.json	-0.0013514255	-0.028180277	-0.046630625	0.030458644	0.041740905	-0.052194074	-0.011004032	0.0037637602	0.0071397345	0.0353842	-0.024570474	-0.07215642	0.004520245	-0.036099974	-0.025024353	-0.007824256	-0.019888934	-0.027401386	-0.022321383	-0.022900715	0.070789576	-0.016271038	0.021942437	0.033935625	-0.034626048	-0.032074053	0.031421322	0.0024055496	-0.021094643	-0.017621202	0.02408884	-0.0036666763	0.0019477119	0.0033823035	-0.03319713	-0.044993773	-0.053755634	0.022926982	0.023793438	0.04818189	0.014252245	0.019298466	-0.029177047	0.043513868	0.005171197	0.032578036	-0.043914706	-0.05177818	-0.042823512	0.037431665	-0.017242517	-0.012227419	0.018812224	-0.058656517	-0.03658264	-0.021950994	-0.020774923	0.034308616	0.039706714	0.024635497	-0.04250165	-0.03284909	0.033307943	-0.0072214226	0.01624242	-0.0055205375	-0.022007901	-0.032870404	-0.0047180187	-0.027765965	-0.050580967	0.07498707	-0.009677538	0.0043519423	0.028273547	0.040184084	-0.0108344145	0.022281406	-0.031100003	-0.0454623	0.0064841337	0.013064398	-0.05744577	0.036731917	0.043280568	-0.053632114	-0.012782646	-0.014785328	0.03252016	0.0002953623	0.06503238	-0.026579933	-0.0036429157	-0.023735566	-0.05050651	-0.03445281	-0.040952485	0.02728075	0.3759242	0.0049563902	-0.015966646	0.0050803185	-0.0062322994	0.011912875	0.037673973	0.03320571	0.0011800014	0.022583315	-0.03658759	0.010985806	-0.004650892	-0.021376079	-0.009841504	0.01414465	-0.027409472	0.012858615	0.07566021	0.057541825	-0.0046220035	0.03311251	-0.034036327	0.0071576764	-0.016501496	0.0017646985	-0.03399631	-0.027998654	0.03559434	-0.010411698	0.028136684	-0.10386069	0.022518286	-0.01917872	0.044575304	0.009913385	-0.045392882	-0.01243897	-0.005514129	-0.057822138	-0.049721453	-0.004081942	-0.014043591	-0.02402243	0.024813514	0.007490684	0.0030117515	-0.074569546	-0.0031895547	-0.05337727	0.039331183	-0.021316795	0.029999912	0.03109843	0.032165702	-0.033876356	-0.0144486865	-0.0020565481	-0.028092707	-0.07400284	0.053994037	-0.043610044	0.0023208212	0.024763867	0.051178522	0.029055554	0.011746342	0.0025946414	-0.029829698	0.0141173955	-0.020334544	0.04014911	-0.024798298	-0.03677497	-0.04623599	-0.009282671	-0.022773823	-0.041269157	-0.020877533	-0.015315583	0.029977255	0.0656909	0.025057923	-0.01907602	0.05529296	-0.03915341	0.03350498	0.0019950261	0.051067956	0.018119387	0.009635881	0.020556152	-0.072126165	-0.032573566	0.018446501	-0.038766764	0.01993847	0.05725312	-0.005136307	0.041123282	0.046236083	-0.024304682	0.010675891	-0.122972526	0.012040273	0.0059881266	0.020085042	0.01393621	-0.030709624	0.050160382	0.059082653	0.045633744	-0.019942947	0.0090104565	-0.03462901	0.013542569	-0.04637463	0.05770493	-0.010312019	-0.008845241	-0.032432646	-0.07548799	0.08517979	-0.030250704	-0.058829457	0.049217016	0.026046991	-0.013075553	0.051141806	-0.01788439	-0.036490943	-0.021444188	-0.007241946	-0.029483275	0.023309762	-0.026719565	-0.0622703	-0.003480026	-0.062246997	0.010525481	0.057959016	-0.0552621	-0.011822553	0.45011622	0.0037050752	-0.03328498	-0.04238259	0.08601409	0.050160028	-0.036320716	-0.014636811	0.02863342	0.049281146	-0.013804099	-0.04220394	-0.015983628	0.00026946166	0.007786611	-0.011540037	-0.040679093	-0.05024423	0.0029882714	0.01506414	0.007472355	0.051693823	-0.003229911	-0.21295072	0.007966692	-0.007737497	0.003268518	0.005329331	0.015803881	0.043977886	0.03967323	0.022234004	0.06027671	-0.023169905	0.03550892	-0.0133252675	-0.06755281	-0.007856621	-0.018557148	-0.00448818	0.012802976	-0.03315297	0.0074513596	0.01285506	0.011908996	0.037398707	-0.018600643	0.040808663	0.0019661658	-0.014132559	-0.04085941	0.01229016	-0.058950577	0.053869907	-0.024900388	0.006512639	0.008629624	0.023281131	0.046144024	0.022675604	-0.045571595	0.00962123	0.06730658	0.037066363	-0.067529514	0.08434657	-0.018786764	-0.050783932	0.01723751	-0.015765194	-0.026274884	-0.010411835	-0.02265247	-0.0142535325	-0.009549164	-0.007726596	0.02002046	-0.058960136	0.02186264	-0.020227686	-0.00095067214	-0.01657391	0.044222	-0.050908998	0.052826956	-0.024458375	0.023514638	-0.067921065	-0.05124655	-0.028592821	-0.023197247	-0.008571444	-0.022396998	-0.010941336	-0.040608943	0.033544295	0.009716048	-0.0015448804	0.014317705	0.028929025	0.003503811	-0.003959461	0.0360874	-0.0014104858	-0.025807219	-0.019536143	0.017819697	-0.025848597	-0.0015134055	-0.038714334	0.020126533	0.007583405	-0.031275507	0.0072843954	0.039145034	0.042505607	-0.009290315	-0.054158296	-0.003180935	-0.027557535	0.024192873	0.046286624	0.01267469	-0.06679173	-0.030691518	0.050684527	0.051033527	0.0065049953	0.04930314	-0.012132514	-0.040414337	-0.046654962	0.012587199	-0.006929762	0.016865058	0.029463684	-0.058976553	0.0401344	-0.03535463	-0.03202342	-0.03836813	0.010410651	0.049938753	-0.06319914	-0.030672364	-0.036255088	0.0041198176	-0.0007977307	-0.059438042	-0.060653467	0.013090439	0.042440593	0.006103912	0.012122425	0.02960076	0.0920609	0.0392975	-0.004144702	0.04705351	-0.054304074	-0.021742627	-0.0905806	0.006760961	-0.01905101	-0.03158092	0.031744614	0.007972781	-0.023841303	-0.0005961965	0.039284114	-0.05229449	-0.0033945113	0.0057613626	-0.015799724	-0.0011051996	0.029690303	0.07064531	0.0022598302	0.01168627	-0.048972197	-0.009893727	0.0020347484	0.02194577	-0.015729439	0.062342912	0.022583695	-0.01859782	0.0383183	-0.019039514	-0.0006644789	-0.0061419825	0.0016414783	0.025161479	-0.01664282	0.028910212	0.008610708	0.0029863408	-0.009056966	0.027486729	0.062333714	-0.011381611	-0.0122350305	-0.018445006	-0.041360572	-0.003806087	-0.024356471	0.03353722	-0.020323228	-0.047765873	-0.06332277	0.02561579	0.051601313	0.015287823	-0.017318169	0.0039352677	0.02953853	-0.0066112448	-0.008856489	-0.0066949087	0.0057218736	-0.07182848	-0.019209774	0.0041310973	-0.021889227	-0.021540921	-0.06328557	0.012715543	-0.034708634	0.018567087	-0.034682706	0.01584971	0.031602178	-0.010344547	0.042169925	0.009917371	-0.008962573	-0.0787949	0.016106632	0.008506414	0.06668004	-0.0051402887	0.025536885	-0.006683148	-0.005457909	-0.0067430628	-0.006489121	-0.010254356	0.0041905493	0.00093512004	-0.016028255	0.0063425684	0.06320664	0.032168083	0.023207583	-0.07187861	0.0028412414	-0.020638997	0.033752196	-0.04024637	-0.013900784	-0.015293371	-0.069707215	-0.060249228	0.027623573	-0.08247351	-0.02041906	-0.013989419	0.04204153	0.030596353	-0.037011076	0.059328698
TRIANGLE_sw_1_0_s_1_0_oc_query.json	-0.043949954	-0.043990552	-0.067515686	0.053298958	-0.0141605195	-0.038015805	0.0043838928	-0.04892451	0.014213615	0.006284844	0.027070059	-0.034308545	0.0095793195	-0.018880319	-0.00032831146	-0.0071780006	-0.027906358	-0.07720702	-0.03135702	0.014314987	0.024121262	-0.0056679845	-0.0053242943	0.06891975	0.016108466	-0.016701827	0.009139903	0.023758989	-0.01631159	-0.04627601	0.02525006	0.0039633526	-0.006848414	0.013063519	-0.037312463	-0.03326023	-0.03709045	-0.014452621	0.03474571	0.059383642	-0.028648326	0.024389403	-0.016031034	0.014112674	0.017394358	0.06200047	-0.025335299	-0.005780852	-0.03258665	-0.030493315	0.0025443465	-0.055260293	0.013451556	-0.032749493	0.020328034	-0.031188425	-0.022787865	-0.028812949	-0.006938755	0.025447614	-0.014685524	0.016110698	0.025860917	0.0068291984	-0.029218847	-0.0065348996	-0.009663739	-0.037377484	-0.05118616	-0.006441134	-0.0042330874	0.05422713	0.049196776	0.016993323	-0.01301383	0.015728785	-0.03166054	-0.03273881	0.0041410113	-0.011320328	0.022375602	0.04033198	-0.04357021	0.03241548	0.0031640306	-0.05693078	0.015118067	0.015004641	0.032816816	-0.028692212	0.11060225	-0.03743702	-0.0127168	-0.01907311	0.009174915	-0.0015318437	-0.05097431	0.020851504	0.34950358	0.0015205449	-0.042542666	0.02459382	-0.011641351	0.01579814	0.09103973	0.032234415	0.0053107035	-0.013667803	-0.030751042	-0.006555132	-0.02803585	-0.017088512	0.03065476	0.02573698	-0.0036980563	-0.006571802	0.05337615	0.033431195	-0.074746326	0.034361944	-0.037006494	-0.010277922	-0.010195988	-0.04449557	-0.00111971	-0.060146406	-0.011211882	-0.032048374	0.035414256	-0.10100797	0.04768329	-0.063458614	0.010315135	0.02219689	-0.054460052	-0.04169789	0.025521765	0.004569458	-0.056931075	-0.027113127	0.028717129	0.028841145	0.01716252	-0.007712408	0.010921728	-0.0003585221	-0.032144256	-0.034396414	0.08267384	0.0009818178	-0.017231278	0.03493132	0.030845858	-0.016009867	-0.01239621	-0.017676475	0.024368173	-0.014136089	0.078515686	-0.014279334	-0.0024263451	0.030071918	0.007544896	-0.0016138837	0.034273442	0.037718624	0.011062192	0.027662888	0.03958985	0.03287193	0.013571326	-0.02073874	-0.017002733	0.011283444	-0.03377873	-0.034531094	-0.039187673	-0.031830966	0.06459574	0.046798088	-0.0034919148	0.0016336765	0.044902287	-0.025448363	0.029535571	-0.06963871	0.0018324099	0.041397307	-0.019949326	0.0064026336	-0.020317815	-0.019954793	0.027016215	0.022499008	0.07060222	0.045011774	0.004492774	0.037472513	0.03317857	0.016037134	0.0195977	-0.104207605	0.008083454	-0.030279579	-0.0068475697	0.010691238	-0.030889949	0.028158443	0.02696563	0.0335229	-0.022934869	-0.010869937	0.00020965807	0.04549494	-0.011438241	0.061251998	0.043041456	-0.024089921	-0.013134302	-0.03932764	0.05937242	-0.019260349	-0.035663	0.032445867	0.014952281	-0.016114276	0.052880257	-0.023211595	-0.038764898	-0.022972599	-0.005619702	-0.00096628873	0.021323469	-0.032469597	-0.027307617	-0.034969598	-0.08133766	0.030960025	0.06388435	-0.09160967	-0.03431463	0.43238348	0.025818117	-0.031214762	-0.048399277	0.045669608	0.037398804	0.0028230986	-0.026403094	0.04228176	0.0071420805	-0.0054542227	-0.059347913	-0.024416797	-0.0010121983	0.06419696	0.0030424867	-0.009310591	-0.0063426225	-0.009402555	-0.028445883	0.02645556	-0.01325312	0.024393039	-0.20304781	0.015757456	-0.029503208	0.008280663	-0.007726676	-0.045363016	0.08690957	0.026662577	0.029823488	0.07720406	-0.041063067	0.04255606	-0.040040202	-0.013300629	0.060517438	-0.0011534072	0.027985366	0.031162139	-0.09560709	-0.0011020694	-0.033571873	-0.023658305	0.07045094	0.0041808053	-0.006484928	0.037207518	0.0016343524	-0.049326733	0.01052286	-0.014699121	-0.017336253	0.0005936032	0.006729048	0.038109712	0.026312828	0.014707689	-0.023068493	-0.036583386	0.028837768	0.037659433	0.04710445	-0.05203703	0.02697911	0.00040570082	-0.026714483	0.0051036	0.05702786	-0.060588066	0.047412436	0.02649296	0.015424822	0.0014861245	-0.03476494	0.052011147	-0.02571389	0.02929356	0.023150662	-0.031110914	0.0040205726	-0.0009773152	-0.02080188	0.008857792	-0.05604819	-0.00673833	-0.07573454	-0.036139626	-0.043187197	-0.010918036	0.015436363	-0.008829844	0.024332268	-0.04118427	0.050901283	0.033252347	-0.015403119	0.009812755	-0.0028090808	-0.04123509	-0.010531776	0.06859524	-0.02426749	-0.0077990196	-0.06321715	0.0098969415	0.016038766	-0.024366962	-0.05566114	8.893265e-05	-0.024775166	-0.036617592	-0.020369846	-0.0005838035	0.07577475	-0.04777405	-0.009351945	0.021294948	-0.027549975	0.002832892	0.013076032	-0.025951631	-0.08412727	-0.04388577	0.07365076	0.002845557	-0.03897972	0.059180357	-0.0026346203	0.0035740752	-0.03513375	0.03145789	-0.0073664575	-0.023487143	0.03976829	-0.04048954	-0.0146574	-0.09225428	-0.0023697345	-0.08173734	-0.0019809986	0.050055984	-0.016304815	-0.0061346777	-0.021793544	0.0012975762	0.0065695695	-0.07648298	-0.0756517	-0.01638805	0.018252686	0.048079815	0.045920033	0.0015713695	0.046076585	0.061250333	0.010964119	0.06685792	-0.048231695	-0.010188467	-0.08831292	0.024853537	-0.04563901	0.015461746	0.010223414	0.0030800556	0.009044314	-0.050889615	0.03645808	0.010012398	-0.019711476	0.013727239	-0.03383298	0.04089286	0.0086441515	0.027612323	-0.035097636	-0.020293267	-0.024016583	0.02969032	0.025097428	-0.0021506546	-0.002679495	0.0057375114	0.010487472	0.008253359	0.0131858	-0.020915547	0.04808613	-0.008990525	0.008104488	-0.027283305	0.028997172	-0.020152971	-0.04334773	-0.044058684	0.06655815	0.028296862	0.0629648	-0.030970953	0.03245611	0.016516758	-0.02025617	-0.0070984503	0.039418414	0.02068932	-0.04213128	0.0027618015	-0.011897184	0.025880735	0.0749242	-0.011854779	0.008431968	-0.028053086	-0.010199145	0.034537908	0.0049852068	0.02733031	0.014274048	-0.04311395	0.009786922	0.014279536	-0.03232289	-0.031895645	-0.07524636	0.013651079	-0.029941646	-0.021080775	-0.009992781	-0.012836131	0.008922891	-0.037450265	-0.013641051	0.018787066	-0.03100775	-0.090016894	0.034429144	0.015901804	0.11483505	0.017422404	0.02847764	0.0054911547	0.003032523	0.020164335	0.002788915	0.009512193	-0.032778647	-0.028718168	0.015678486	0.014931322	0.08256284	-0.016971782	0.026567806	-0.018594824	0.015199788	-0.03874025	-0.002525669	-0.039755117	-0.03117048	-0.02078018	-0.06353149	-0.0030673053	0.05219557	-0.07000126	-0.08113668	-0.00010124459	0.053376965	-0.013747376	-0.034145188	0.03479145
EX_SPEC_PILEUP_sw_1_0_s_1_0_oc_query1.json	-0.002594814	-0.039412912	-0.08136859	0.04044845	0.04569039	-0.042783365	-0.03531156	-0.033415902	0.011474119	0.02407908	-0.02991457	-0.03592405	0.00711534	-0.013634996	0.007287474	0.010244558	0.01758351	-0.0770593	-0.009027207	0.08072192	0.034523733	-0.04063889	0.033560764	0.06849655	0.024779828	0.0045434274	0.046426937	0.015818173	0.0019042831	-0.010591647	0.033160437	-0.009104375	-0.009809624	0.010151729	-0.01406807	-0.008389056	-0.024783168	0.018993288	-0.015410689	0.028161163	-0.025317222	-0.0052882535	-0.010374364	0.021907652	-0.0030958825	0.033583812	-0.013067515	0.0028431923	-0.029834297	-0.008174873	-0.0042906445	-0.052805368	0.03131178	-0.008465751	-0.013691058	-0.049876787	-0.03842828	0.027474625	0.009727404	0.016857171	-0.030164065	-0.0032694333	0.04588671	-0.007973744	-0.0005522246	-0.016398044	-0.0042048036	-0.024781762	-0.05306698	-0.022704177	-0.019295346	0.071859725	0.053100385	0.0009866615	0.0076575414	0.055806655	0.004206477	0.013096551	0.010755262	-0.03150397	0.01851009	0.022390516	-0.044237364	0.023642799	0.027584985	-0.08358553	-0.0033072534	0.005942909	0.042279854	-0.008896677	0.091886975	-0.0017474683	-0.023272099	-0.021181019	-0.010949066	-0.0060579632	-0.03126932	-0.012612983	0.3455556	0.015448037	-0.02806622	-0.004578566	0.036398616	-0.012599803	0.06485537	0.049681153	-0.0012565536	0.019287912	-0.024570461	0.007160631	0.017832806	-0.06490871	0.020877881	0.040277913	0.0027432193	0.001564191	0.064025156	0.015416502	-0.025170194	0.059527505	-0.023341935	-0.006661359	-0.0055227745	-0.02396695	-0.001073687	-0.022852173	0.06181951	-0.04701303	0.04159446	-0.10065528	0.028996836	-0.08194909	0.016757684	-0.037283238	-0.026508912	-0.041872434	0.025952497	-0.010924364	-0.047281012	-0.023473764	0.004958345	0.029836582	0.027230805	0.010706691	0.032323692	-0.023462217	-0.055853147	-0.040199045	0.07165842	0.0032152492	0.036532875	0.048641875	0.08757448	-0.021667467	-0.010336009	-0.0060354993	-0.013350584	-0.060494445	0.08688323	0.011083693	0.028957345	0.045661744	0.024809489	-0.0071456344	0.042804386	0.042813376	0.026717678	0.045360383	0.0077348975	0.0053840866	0.023735821	-0.043633282	-0.0152328815	0.015014227	-0.056734424	-0.04543573	-0.046574492	-0.027435863	0.05351454	0.057822388	-0.0059303944	-0.004946511	0.048865475	-0.057685554	0.052284088	-0.078441896	0.0045428574	0.004528796	0.015765058	0.01146509	-0.049817376	-0.02699018	0.032252688	0.013185915	0.08915508	0.05209921	-0.0034031225	-0.012424152	0.05844393	0.0037646713	0.01321494	-0.11674402	0.022601867	-0.03874442	-0.041638967	0.015134519	-0.02862036	0.031905398	0.009588363	0.036890436	-0.029363882	-0.015224377	0.0075473385	0.01527161	-0.041369963	0.041050445	0.019705225	-0.037367832	0.0012116011	-0.009009076	0.06568485	-0.038216818	-0.017035944	0.016509255	0.0027952574	-0.015504737	0.045009494	-0.05140918	-0.07225251	0.0077792937	-0.025308602	-0.016163154	0.021894246	-0.00041448706	-0.0558641	-0.036841113	-0.058945633	0.038658902	0.029157214	-0.043959096	-0.040636167	0.4172022	-0.0029443996	-0.052732587	-0.046172053	0.046907596	0.045728933	-0.009553288	0.0263658	0.03230007	0.044343434	-0.011711142	-0.05135219	-0.0075152433	0.0032626612	0.06670895	0.030587617	-0.0043152096	-0.047785006	0.020818068	-0.0053221066	-0.010829728	0.021761253	0.010437906	-0.20115378	0.024327897	-0.0010094997	-0.02376473	0.03557506	-0.0032568043	0.10017724	0.060735777	0.05524966	0.060037814	-0.038086012	0.066190116	-0.037754018	-0.0009111937	0.043000754	-0.0055805184	-0.0030713994	0.028533813	-0.05155948	0.024407012	0.0055977935	-0.041186523	0.042150114	-0.016977746	0.0130426325	0.049160477	-0.056909822	-0.048670854	-0.0006063443	-0.029859323	-0.013694667	-0.026987685	0.0057435613	0.031425394	0.04448076	0.06369585	0.0112342145	-0.051842205	0.025990712	0.04710334	0.036700293	-0.08308302	0.055233296	-0.024276622	-0.03482132	0.01601999	0.034634344	-0.025849128	0.014162371	0.00074755895	-0.022800623	-0.0009986622	0.0029543056	0.040663138	-0.02205578	0.025416821	0.017377572	-0.048594266	0.0123068625	0.036948286	-0.01499006	0.04129478	-0.06296733	0.020805825	-0.030190727	-0.042744055	-0.054582447	0.0016216004	-0.014282299	0.024239134	0.014866365	-0.038154896	0.026004765	-0.029756498	-0.036366392	-0.0064555923	0.043209314	-0.008448042	-0.00239577	0.087218285	-0.030394247	-0.0023651656	-0.054720424	0.034641203	-0.015151434	-0.0061150445	-0.045802925	-0.0038937319	-0.019332057	-0.015997991	-0.02743441	0.020216446	0.0655949	-0.006097277	-0.03385063	0.026125126	-0.017749172	0.00892391	0.040618367	-0.015296342	-0.077028364	-0.040957496	0.097264044	0.024159007	-0.016828299	0.006413756	0.019914005	0.023419073	-0.048991863	0.020255003	0.00068163406	0.010653793	0.03409136	-0.0039393893	-0.0025358403	-0.04224516	-0.016420601	-0.08684419	-0.040747136	0.04514223	-0.01833775	0.0040236986	-0.003668884	-0.02204423	0.031943336	-0.040171295	-0.07327754	0.013399514	0.049536783	-0.016079754	0.03265179	0.07041403	0.05725781	0.067329474	0.017332345	0.06245579	-0.052944925	-0.0416587	-0.057005525	0.035037927	-0.007857966	-0.004276379	0.032041598	-0.0009935463	-0.030803572	-0.025568992	0.04346676	-0.041141804	-0.0020952036	0.03374919	-0.007665651	0.035370074	0.038039606	0.02638828	-0.033949982	-0.012409962	-0.03246106	0.02292828	0.057839815	-0.0032997932	0.008767231	0.0387716	0.011514397	-0.01448027	0.027829556	0.010388131	0.017836468	0.008566631	-0.0033041062	0.003877582	0.018903995	-0.010526455	0.014408554	-0.011509799	0.01391464	0.027912999	0.0465793	-0.032475244	-0.0047279717	-0.015610014	-0.05740329	-0.006340626	0.019393098	-0.011980704	0.0058295694	-0.03761465	-0.031570923	0.04336097	0.04162061	0.0039334283	0.013842068	-0.016292352	0.037939254	-0.0135900425	-0.02462096	-0.021529386	-0.019380856	-0.048353538	-0.0039790296	0.022228148	-0.038333684	-0.028982773	-0.06534701	0.008066821	-0.050981063	0.014147308	-0.027537894	-0.0010863892	0.022576509	-0.022393903	0.019325633	0.011280576	-0.0073534367	-0.074023224	0.031136796	0.045366988	0.07098964	0.020931344	0.021120096	-0.016562456	0.06259267	0.0127495285	-0.0011861826	-0.024338277	-0.0015673055	-0.027301224	0.05329663	-0.022585526	0.09016861	0.016172148	0.0003297094	-0.058618385	0.014362134	-0.031829704	0.0155758895	-0.05014307	-0.023671448	-0.018125232	-0.06334988	-0.035841994	0.044136725	-0.08490215	-0.050794702	0.04478949	0.026568083	0.00597452	-0.017034648	0.008912124
EX_SPEC_LINKING_sw_1_0_s_1_0_cc_0_query2.json	0.0052863555	-0.032409515	-0.07056393	0.0005221872	0.023905618	-0.06476597	-0.02861472	-0.05837025	0.024905212	0.0004983885	0.0040513445	-0.07339553	0.020601034	0.01496194	-0.011453502	0.0085285045	-0.009158792	-0.0010475377	0.007838503	0.0017327756	0.035245504	-0.004936959	0.015259791	0.04767248	-0.02109625	-0.022062307	0.0033982692	-0.0031257493	-0.023120226	0.017617173	0.04052484	0.01826969	0.00053750124	0.0038831816	-0.03454696	-0.038500667	-0.012123795	0.016526725	-0.006199569	0.034679998	-0.013810016	0.006847704	-0.045886345	0.044902604	0.011156484	0.027226247	-0.0012534934	-0.053308323	-0.053401537	0.05525962	-0.00054202793	-0.032277714	0.03952984	-0.026902152	-0.008279201	-0.038659073	0.015592829	0.06561659	0.015932838	-0.004216544	-0.061568655	-0.005151153	0.0028503528	-0.039099734	0.010263181	-0.023502098	0.01843379	-0.063583545	-0.014958123	-0.024483025	-0.065462686	0.0420854	0.029943448	0.030182056	0.029018166	0.013915853	-0.0348158	0.009911837	0.0014730108	-0.033784203	-0.00457511	0.020847378	-0.015365242	0.015909007	0.021140488	-0.02524813	0.021579867	0.0058385525	0.03436997	0.027067376	0.0755975	0.021380782	-0.013768229	-0.001046728	-0.050592363	0.008164939	-0.028150061	0.005602964	0.37222695	0.049359463	-0.018247964	-0.017429832	0.008700203	-0.041705593	0.050601505	0.035879076	0.011883888	0.043958876	-0.013299874	-0.014775907	0.018287737	-0.014769592	-0.019362502	0.0071910606	-0.017377874	-0.020451207	0.07692068	0.043959416	-0.012348235	0.041402277	-0.007837648	-0.02901908	-0.01025723	0.0055536935	-0.01721358	-0.06348924	0.027397437	-0.0099320775	0.031020427	-0.09676397	0.0028729003	-0.031276923	0.053995706	-0.027579395	-0.032830913	-0.027708752	-0.0014303376	-0.036816444	-0.025514646	-0.01694874	-0.00019575043	-0.038254496	0.05111022	0.025648484	-0.0074517904	-0.054976817	-0.042374372	-0.03220473	0.03837089	0.011395108	0.0105063245	0.05598402	0.03582774	-0.01984054	-0.03928153	0.020374594	-0.014732171	-0.07839767	0.03946533	-0.023266632	-0.010953609	0.0124399755	0.042300265	-0.0075383405	0.0070953122	0.017405374	0.030468293	0.014917754	-0.014435557	0.020432318	-0.00736703	-0.068656	-0.055184837	0.025405739	-0.03525232	-0.07464984	-0.017625181	-0.008090412	0.048801433	0.054813582	0.0085545415	0.042074725	0.045996957	-0.035402667	0.028513052	-0.03826269	-0.004659009	-0.005096961	0.008298663	0.009453533	-0.043343633	-0.019149177	0.0063698757	0.0012556019	0.060320556	0.028584203	0.029092673	0.005370246	0.040738665	0.029098436	0.0020048143	-0.13428259	0.03370089	-0.014642331	-0.0032722855	0.051016573	-0.0245707	0.016148016	0.026315682	0.038152587	-0.02668119	-0.0055704527	0.0105603365	-0.0016837373	-0.044521455	0.059064277	-0.014781823	-0.015402026	-0.019654665	-0.044612225	0.031419743	-0.03738233	-0.055950195	0.04036659	-0.012907208	-0.022041682	0.041144483	-0.04128735	-0.062832415	-0.0147271985	-0.004977926	-0.075868554	-0.025708698	-0.034835733	-0.033942085	0.015488459	-0.06998767	-0.0013528065	0.04414484	-0.03025582	-0.009734106	0.4481234	0.053004354	-0.024284981	-0.06191488	0.043848444	0.040248215	0.00752328	-0.012782777	0.01603372	0.029554209	0.007328414	-0.008937533	0.017672485	0.010851829	0.036187157	0.0028623315	0.018243186	-0.038551085	-0.026467443	0.031279705	0.015001184	0.019441366	-0.021185046	-0.20684485	0.043131273	-0.017952804	-0.009785742	0.04753025	0.004671091	0.07583129	0.09052225	0.020685907	0.03696999	-0.00684981	0.061857134	-0.0046868245	-0.068224	-0.011092293	-0.0015442038	0.008205649	0.019691193	-0.015124435	0.033959858	-0.026652062	3.8575632e-05	0.025013827	0.0048541464	0.03465117	-0.0017755217	-0.040899955	-0.032853402	0.018636318	-0.03859849	0.011600448	-0.0045901337	0.026479257	-0.0013573442	0.030160328	0.028284747	0.0044987006	-0.015257942	0.036745958	0.08174145	0.030993242	-0.08590612	0.04484851	-0.04190137	-0.037246138	-0.04064753	0.0171714	-0.011026006	0.008767489	-0.022567501	-0.042219307	0.014341012	-0.010367024	0.01657949	-0.032804277	0.02017009	-0.014641397	-0.017646866	-0.0058207647	0.029132655	-0.017182825	0.022166928	-0.03716155	-0.019079039	-0.03776793	-0.038192753	-0.04419881	-0.0056566396	-0.0006568862	0.012149374	-0.001775764	-0.066007674	0.033832934	-0.0077393223	-0.015075419	-0.022463163	0.0055596516	0.009353726	-0.019867161	0.052439794	-0.030001901	-0.020502655	-0.04322548	0.025738895	-0.040830687	0.0050043166	-0.046360288	0.008751245	-0.0023763771	-0.022921063	-0.04818703	0.04591295	0.049758412	-0.016066	-0.055152386	-0.051588655	-0.005005682	0.05734574	0.047484126	0.026210077	-0.11587266	-0.036503848	0.03383296	0.070173785	-0.0044122096	-0.013712839	-0.01002011	-0.0017216317	-0.04335609	0.007648115	-0.0003211878	0.027716136	0.013412851	-0.02689415	0.024153274	-0.024955772	-0.055895757	-0.047450267	0.016799368	0.057970043	-0.04079068	-0.009206982	-0.037993956	0.00986539	0.0076408857	-0.0624291	-0.049244538	0.06365372	0.0429364	-0.008938724	0.031413656	0.011558186	0.08649341	0.049715225	0.04237595	0.048871838	-0.024976555	-0.019451778	-0.059764594	0.03246334	-0.0050914926	0.011049877	0.06971855	0.013010444	-0.023742002	-0.03285538	0.023135673	-0.031485874	0.05933921	0.029363839	-0.02966056	0.013526299	0.019588009	0.03940045	-0.01926686	-0.0027755138	-0.035423405	0.023499494	-0.013022914	-0.010900797	-0.00918802	0.046212636	0.052568726	-0.040211804	0.06461957	0.03342448	0.023967927	0.03678513	0.0132101225	0.038253143	0.011104274	0.03820339	-0.027520664	0.033693846	-0.003566604	0.021575766	0.03442538	-0.0018491572	-0.005097267	-0.028864045	-0.024342053	0.012548513	0.0037476742	0.058331527	0.010244936	-0.041985627	-0.05667905	0.029149616	0.023709126	0.0023367105	0.0076252636	-0.011469007	0.042449154	0.024734894	0.013539933	-0.019232398	-0.022508282	-0.017113782	-0.00332076	-0.009162676	-0.03154641	-0.040861066	-0.08064521	-0.017119622	-0.03699169	0.006267846	-0.03753337	0.02108305	0.034185465	0.0014009596	0.003823463	0.008982761	-0.00073575974	-0.07740083	0.011273174	-0.020615872	0.07046704	0.022858543	0.07001032	0.01656475	0.028794542	0.020777287	0.0024373329	-0.0069526	-0.049512517	-0.025319658	-0.00088928867	0.008999572	0.06836631	0.02105664	0.0071948967	-0.05849339	0.0079058735	-0.03678766	0.027432304	-0.06291979	-0.05046193	-0.008316582	-0.08863677	-0.029223368	0.035517458	-0.109789506	-0.027068313	0.015597381	0.0006865938	0.027914975	-0.03595055	0.031091517
viridis-heatmap_p_0_sw_0_7_s_0_7_cc_0_query.json	0.0010166016	-0.017318394	-0.06468821	0.018045098	0.054509223	-0.02706476	-0.032948285	-0.019367171	0.030053888	0.009260132	-0.006061378	-0.064002745	0.0109293945	-0.00013043973	-0.028299116	0.00679943	-0.0089876745	-0.035146963	-0.02054576	-0.015189085	0.07123115	-0.0057479376	0.0001333058	0.053781506	0.005964363	0.0070676478	0.027510121	0.027189104	0.011144388	-0.014998585	0.033153858	0.0090433955	-0.004404593	-0.001671431	-0.030092431	-0.050460823	-0.029330287	0.019340008	0.006949852	0.03784291	-0.013584578	0.010942652	-0.022820117	0.025468886	0.0064824913	0.062170956	-0.010264609	-0.03796387	-0.05656347	0.039240282	0.003228358	-0.025793131	0.046438254	-0.028193796	-0.028212234	-0.031263243	0.02001112	0.025345065	0.002822111	-0.0051458096	-0.042816658	-0.023488782	0.016434878	-0.035512224	0.010415113	-0.02354974	-0.0066328957	-0.050506394	-0.016365794	-0.046446424	-0.043078907	0.079720415	0.032446314	0.013031891	0.037247933	0.02546873	-0.0265874	0.026648918	-0.027846508	-0.03410508	0.015512941	0.034303375	-0.044142336	0.029981859	0.036476996	-0.017595517	0.008120646	-0.01520387	0.03254359	0.016200857	0.069187075	0.023324903	-0.0116097545	-0.0074962424	-0.050011113	-0.00040749254	-0.028738234	0.01980687	0.36738333	0.031763382	-0.022999983	-0.0056779743	0.010546823	-0.03244077	0.054235622	0.01510478	0.0071712546	0.023166625	-0.030756552	-0.01248077	0.025528356	-0.034183104	-0.00519121	0.006754707	-0.009191665	-0.013786069	0.053434707	0.040323243	-0.005879443	0.038229033	-0.016387144	-0.022571564	-0.020436209	0.0031241702	-0.0030915977	-0.052177098	0.047206283	-0.05044228	0.049945597	-0.09887969	0.036906574	-0.03351276	0.048875112	-0.040828753	-0.028329246	-0.0076875747	0.011088553	-0.03432026	-0.05611537	-0.015521767	-0.006634862	0.0032954956	0.031284183	0.027475435	5.1712443e-05	-0.07913787	-0.030955097	-0.05262134	0.08290659	0.013864447	0.030891266	0.052131172	0.06366275	-0.0149836065	-0.062312074	0.00079801335	-0.03655802	-0.082102776	0.04999777	-0.005871632	0.0034923863	0.02906534	0.026070397	-0.0111756995	0.0029376568	0.042046912	0.00053442596	0.0163059	0.03306451	0.025610507	-0.008394095	-0.047818966	-0.03810267	0.010819468	-0.044822924	-0.066883214	-0.024688393	-0.028870035	0.050265387	0.061744228	0.026877882	0.020768717	0.037207324	-0.02359741	0.04032476	-0.04483751	0.02186964	-0.002962278	0.017974228	-0.0008936321	-0.06723294	-0.0115247015	0.00641165	-0.010426114	0.058881637	0.0435094	0.0067111435	0.0032858688	0.050186086	-0.0076323235	0.0014993497	-0.11893996	0.0037090562	-0.010281107	0.0065264283	0.05944907	-0.03335858	0.026875133	0.002016515	0.017314253	-0.011974266	0.04578598	0.0013934656	-0.00068275334	-0.021001097	0.049329244	-0.00015096151	-0.022661954	-0.021291817	-0.027226355	0.04447467	-0.03650366	-0.070872724	0.03217492	-0.00089379854	-0.03755445	0.042361874	-0.023147853	-0.06935124	-0.012744995	0.018194254	-0.045267586	0.022911565	-0.01375028	-0.05681201	-0.036943786	-0.073588915	-0.010298264	0.046579868	-0.02367296	-0.0019044274	0.44556493	8.467273e-05	-0.038057536	-0.046741232	0.032710385	0.052041404	-0.00046288603	-0.024817782	0.025259895	0.024808843	-0.00759735	-0.044450987	-0.014018238	0.0013645962	0.040765155	0.013377773	-0.025604285	-0.039810922	-0.02044119	0.016842587	0.0093132695	0.029824829	-0.0038191213	-0.20662902	0.02772402	0.003802308	-0.0040371846	0.0494282	0.0115796905	0.083308555	0.07968253	0.025291204	0.030820843	-0.026847264	0.05290255	-0.029329192	-0.0848305	0.009079717	-0.004052424	0.023362113	0.009613393	-0.03921645	0.00692783	-0.013511188	-0.010661127	0.054886587	-0.022618532	0.018679183	0.02413086	-0.043474276	-0.035773534	0.027442902	-0.05693026	0.02532804	-0.019353252	0.02669851	0.010809418	0.05640759	0.05240561	0.013337622	-0.017328048	0.025216974	0.073068745	0.024150135	-0.07246517	0.050971888	-0.04176725	-0.052686375	-0.0038816168	-0.0030440395	-0.03577254	-0.0021082382	-0.042881347	-0.025667666	-0.00765078	0.00687367	0.029579708	-0.024007896	0.024647003	-0.02301234	-0.04086438	0.024868675	0.00931659	-0.055935312	0.030154727	-0.043981504	-0.0047337385	-0.0449395	-0.03290762	-0.04409567	-0.029328289	-0.020554751	-0.012556508	0.007238398	-0.039824877	0.027246669	-0.01625485	-0.02623521	-0.010914334	0.014545514	-0.023183713	-0.019132875	0.07799012	-0.020559995	-0.009891075	-0.055569634	0.041905507	-0.018222043	-0.008648893	-0.044444766	0.004001109	-0.004721421	-0.026561541	-0.03276889	0.0036766005	0.054116413	0.0059404834	-0.0521235	-0.022299029	-0.0055920715	0.050056517	0.052169874	0.013025158	-0.099027306	-0.04396941	0.03705445	0.03597042	-0.023441987	0.021262033	-0.006852703	-0.014286493	-0.06731057	0.0090690395	0.028805198	-0.0020757215	0.021032091	-0.036429666	0.0148311015	-0.02173551	-0.044044938	-0.04968705	-0.00046763435	0.048388302	-0.028206486	-0.012765864	-0.06373818	-0.007919539	-8.941133e-05	-0.048327688	-0.04026315	0.019425603	0.03635857	-0.005021973	0.015737489	0.03819004	0.065721884	0.052412562	0.012208301	0.061768845	-0.02768162	-0.019214744	-0.06217624	0.036060542	-0.019142244	-0.019104345	0.043098353	0.02922033	-0.035389513	-0.01243704	0.030599777	-0.031606775	0.043310173	0.052252185	-0.038889848	0.032750614	0.052607577	0.06414778	-0.032882694	-0.016409624	-0.05725543	0.016695047	0.025562586	0.008199453	0.002346531	0.04750586	0.047922555	-0.035185825	0.05475725	0.0011805788	0.0012884504	0.014393294	-0.014315686	0.03228994	0.0058383876	0.008875947	0.021789538	-0.01887481	0.0014356361	0.020480996	0.045134827	0.0068596057	-0.005304115	-0.027458018	-0.047390975	-0.008165233	-0.0060743596	0.025464008	-0.009959978	-0.021538027	-0.04160989	0.05571043	0.03116061	-0.010104615	-0.0090372525	-0.008594668	0.042002253	0.019618943	-0.013350294	-0.01356708	0.00457076	-0.03958175	-0.0037456627	-0.024880586	-0.0148461675	-0.030713536	-0.089839906	0.0026534558	-0.035052557	0.018185813	-0.033780366	0.031155331	0.04122268	-0.014248354	0.014784527	0.0033861343	-0.023336977	-0.090391465	-0.009752484	0.004627798	0.10032056	0.014323506	0.03812613	-0.014948908	0.034904305	0.012184927	0.007467	-0.0065563093	-0.0074505326	0.0015846953	0.010500105	0.02677919	0.042841654	0.015077815	0.01024566	-0.068480805	0.020080702	-0.03276314	0.032268275	-0.04798164	-0.032442365	-0.012975245	-0.08844493	-0.016569825	0.039838694	-0.099330045	-0.027985983	0.023579359	0.044822916	0.04304673	-0.018699668	0.029465696
viridis-heatmap_p_0_sw_1_2_s_1_0_oc_query.json	0.004416615	-0.016350605	-0.06330605	0.010805236	0.053096704	-0.02391663	-0.0285423	-0.02249471	0.032396823	0.010130284	-0.00400125	-0.061807815	0.009904356	0.005409216	-0.024679273	0.0006390221	-0.012990252	-0.038275994	-0.024766857	-0.01509828	0.074653655	-0.0008287233	0.0004935072	0.054458987	0.0046752295	0.0057249977	0.030035328	0.035515606	0.0077609853	-0.014485703	0.03386327	0.015909828	-0.0067042797	-0.0067830845	-0.027862916	-0.046622545	-0.03002317	0.01618731	0.008073605	0.04330316	-0.008522701	0.013493602	-0.021737618	0.021212736	0.0030529508	0.062268388	-0.0154709555	-0.036348075	-0.049842697	0.035392992	0.0068149534	-0.025263954	0.047125567	-0.028026931	-0.026985768	-0.02673325	0.018237371	0.024765195	0.0031201777	-0.00306469	-0.045486033	-0.023461102	0.01232601	-0.035922535	0.011270057	-0.02076247	-0.012366994	-0.05314246	-0.016273538	-0.041413072	-0.04758574	0.07800318	0.02910367	0.007846765	0.04033524	0.018258614	-0.027072422	0.019046454	-0.026666427	-0.032727003	0.015066545	0.042382833	-0.043567397	0.02909642	0.031036936	-0.016499965	0.005944384	-0.018676674	0.037516903	0.01702705	0.06483899	0.020765776	-0.008100337	-0.0076361718	-0.047212474	-0.004210394	-0.030256506	0.018875888	0.36933208	0.025694057	-0.021341037	-0.01160139	0.014598918	-0.030356592	0.05776854	0.013962053	0.0022037365	0.023346838	-0.02582524	-0.015292757	0.02238984	-0.03689524	-0.008057042	0.009669263	-0.011368826	-0.010344781	0.055626925	0.04186317	-0.016340123	0.037008982	-0.011629426	-0.021291906	-0.029188292	-0.0030507427	-0.007840379	-0.048635304	0.0424233	-0.04322078	0.051138263	-0.09906729	0.035958428	-0.037427958	0.04639602	-0.04753374	-0.023684958	-0.0067715175	0.0074962447	-0.04190658	-0.061037295	-0.010210704	-0.009220559	0.0020616937	0.020450315	0.03153806	-0.00677798	-0.0782162	-0.029779715	-0.054406065	0.08183265	0.017073367	0.03894008	0.051861737	0.06835319	-0.016396275	-0.056781303	0.0027666881	-0.032014493	-0.08248038	0.048189104	-0.0046409597	0.006220421	0.030859925	0.024715051	-0.014658246	0.009351134	0.03763407	0.003916148	0.015684037	0.03410695	0.027154064	-0.013824109	-0.043919798	-0.040514305	0.013541947	-0.04210575	-0.06744663	-0.022966528	-0.030972384	0.05485467	0.060611777	0.027133355	0.024910053	0.034849368	-0.023903286	0.04017641	-0.045873106	0.025498629	-0.0009322829	0.020074759	0.0009897429	-0.06604445	-0.010411082	0.010725698	-0.008734314	0.057833165	0.04634984	0.00477779	0.0017532341	0.050345294	-0.006142198	0.0040122913	-0.122862846	-5.0406426e-05	-0.00984051	0.011420786	0.05975428	-0.030570399	0.029025668	-0.0016562215	0.01740232	-0.011555508	0.045222532	0.0018113125	0.0010337754	-0.023300825	0.053555474	-0.002168412	-0.01925096	-0.026408292	-0.029823836	0.04908819	-0.037392363	-0.06892022	0.029851757	0.001999058	-0.035098672	0.042475205	-0.02103008	-0.06990543	-0.009445885	0.019261952	-0.03682304	0.02566349	-0.012819354	-0.055777173	-0.033545338	-0.0773277	-0.007325355	0.04904159	-0.02555459	-0.002207302	0.448177	0.0003004915	-0.045991298	-0.046304714	0.03215455	0.05099223	0.0025342081	-0.027725613	0.024532089	0.028930567	-0.0057050856	-0.041153	-0.013696476	0.0021909163	0.048782162	0.015417061	-0.022443322	-0.04327925	-0.016242865	0.016015127	0.010227425	0.029789533	-0.008436131	-0.20758997	0.033893384	0.0044295117	-0.007406599	0.049136654	0.006962504	0.08865544	0.076215886	0.02167617	0.029047033	-0.030560128	0.05321824	-0.032668855	-0.08380907	0.0072441082	-0.0005995315	0.020348316	0.008899019	-0.038606126	0.0034823504	-0.0146773765	-0.006712335	0.05308052	-0.020829163	0.012830687	0.022962324	-0.043113995	-0.03230983	0.022795891	-0.05396011	0.026635932	-0.01777896	0.028836755	0.012971615	0.054431777	0.05209082	0.011766797	-0.010980559	0.025925856	0.07096778	0.022996373	-0.066872306	0.05221168	-0.041456092	-0.051523913	-0.004609572	0.0021721818	-0.033634927	-0.0019636264	-0.04068862	-0.025640782	-0.003526397	-0.00049547525	0.034699775	-0.021687258	0.027449036	-0.02049368	-0.04397448	0.025376746	0.01750875	-0.057467446	0.02497356	-0.04244764	-0.0037408345	-0.050630007	-0.037379894	-0.044492673	-0.02774674	-0.016118355	-0.014953027	0.010713395	-0.034550752	0.03320619	-0.017307192	-0.026610244	-0.0026821066	0.012793318	-0.026048439	-0.021087106	0.07798887	-0.016702805	-0.0128521975	-0.053409442	0.040093444	-0.021339292	-0.014960262	-0.042395826	-0.0012307044	-0.003135582	-0.027875055	-0.028713437	0.004639683	0.050812747	0.010564758	-0.05256545	-0.021484321	-0.0042466046	0.047128256	0.05147671	0.0011090619	-0.10159866	-0.043529704	0.043675	0.035677046	-0.01917294	0.022076013	-0.014084553	-0.011906645	-0.06423482	0.011837706	0.03395588	-0.0030991447	0.024956664	-0.04666175	0.010630836	-0.023150269	-0.03842243	-0.048130497	-0.0010852314	0.042753134	-0.03065768	-0.0139797535	-0.070568606	-0.009989517	0.000732866	-0.053698085	-0.043652527	0.016195498	0.033295702	-0.0015699563	0.0163186	0.03342821	0.05753473	0.052132905	0.011041965	0.05609947	-0.024871213	-0.02007199	-0.0649918	0.029326186	-0.016082129	-0.027645502	0.039007496	0.030611878	-0.030636735	-0.014549747	0.034996483	-0.027168682	0.04356029	0.05481841	-0.041792754	0.039774343	0.05211792	0.055492222	-0.038465507	-0.017295139	-0.05646474	0.01682936	0.028351067	0.0053100702	0.0039902255	0.04498111	0.04335503	-0.033852845	0.0537736	0.003865844	0.006416649	0.014384799	-0.015397459	0.030961657	0.0033100543	0.012638237	0.021464352	-0.022136057	0.0007180109	0.021228656	0.043935187	0.0060749357	-0.0069368905	-0.022373503	-0.042961605	-0.011924749	-0.008389166	0.019636134	-0.013003785	-0.02740845	-0.038870726	0.0612969	0.029720118	-0.006443498	-0.01275169	-0.012067943	0.04377268	0.018717607	-0.0105219465	-0.009260975	0.012364886	-0.036753025	-0.0006113734	-0.029415859	-0.016199209	-0.027513571	-0.09010477	0.0004485679	-0.03338194	0.015769726	-0.033927307	0.032426767	0.038935315	-0.01328569	0.010020569	0.004095484	-0.028307065	-0.09270112	-0.005795943	0.0052365563	0.09709305	0.009120271	0.034446493	-0.012904643	0.03548613	0.01267551	0.006862084	-6.310557e-05	-0.0053211367	0.0041548996	0.008055421	0.027036596	0.042821433	0.016365642	0.00900221	-0.07042352	0.017826736	-0.029781096	0.03562107	-0.046831742	-0.030161783	-0.0130826505	-0.08034141	-0.014633786	0.03878056	-0.09589053	-0.03429258	0.021322714	0.050025932	0.03998018	-0.013144437	0.033285677
